\data\
ngram 1=114
ngram 2=539
ngram 3=1262

\1-grams:
-3.0330803	<unk>	0
0	<s>	-0.8536464
-1.425819	</s>	0
-1.1164863	C,	-0.62516016
-1.2234703	F,	-0.55569565
-1.7668828	Am7,	-0.3091105
-1.5491892	C	-1.0570282
-1.3298528	G,	-0.5546091
-1.6816164	Dm7,	-0.35932076
-1.3657365	Am,	-0.4752091
-2.1063309	E,	-0.2831199
-1.8730835	D7,	-0.43996018
-1.6445365	G7,	-0.5024909
-2.8180563	Em/B,	-0.18651102
-2.4622	Am/E,	-0.18651102
-1.3848552	Dm,	-0.5024818
-1.5787054	B-,	-0.4675841
-1.7668828	D,	-0.35375145
-1.9378355	A,	-0.31518874
-2.4622	Am	-0.4142045
-1.8730835	Gsus4,	-0.30942428
-1.816745	Em,	-0.31367436
-2.1063309	F7,	-0.26389363
-2.0139625	F	-0.57990694
-1.816745	C/G,	-0.24477346
-1.816745	G	-0.784027
-1.3657365	Cm,	-0.5400042
-1.5491892	A-,	-0.42872447
-2.1063309	B-	-0.48299697
-1.816745	C/E,	-0.32033554
-2.8180563	C/E	-0.18651102
-2.0139625	F/A,	-0.34801212
-1.6816164	E-,	-0.43706056
-2.8180563	Gm7,	-0.18651102
-2.2238045	B7,	-0.3084151
-1.8730835	C7,	-0.4463028
-2.4622	F#,	-0.18651102
-2.8180563	F#o7/E-,	-0.18651102
-2.8180563	G/D,	-0.18651102
-2.8180563	Bm7,	-0.18651102
-2.8180563	G7/B,	-0.18651102
-2.2238045	G/B,	-0.25000077
-1.5787054	Fm,	-0.44764408
-1.8730835	F/C,	-0.4351623
-2.8180563	E/B,	-0.18651102
-2.2238045	B,	-0.18651102
-2.8180563	E-/B-,	-0.18651102
-2.8180563	E/G#,	-0.18651102
-1.8730835	G11,	-0.48526305
-1.816745	Gm,	-0.35272858
-2.1063309	Cmaj7,	-0.3084151
-2.8180563	Bm/F#,	-0.18651102
-2.2238045	F#o7,	-0.3084151
-2.1063309	A7,	-0.28560358
-2.8180563	G#o7,	-0.18651102
-2.4622	Bo7/A-,	-0.18651102
-2.1063309	D-,	-0.28560358
-2.8180563	C/G	-0.18651102
-2.4622	A-	-0.4142045
-2.1063309	CmM7,	-0.28114307
-2.8180563	B-m7,	-0.18651102
-2.8180563	E-m,	-0.18651102
-2.4622	Em/G,	-0.18651102
-1.8730835	Cm	-0.726035
-2.8180563	F#o7/C,	-0.18651102
-2.8180563	C#dim,	-0.18651102
-2.1063309	Dm7/F,	-0.36032432
-2.8180563	D/F#,	-0.18651102
-2.4622	Gm/B-,	-0.18651102
-2.8180563	F/A	-0.18651102
-2.8180563	Fmaj7/C,	-0.18651102
-2.8180563	A-/C,	-0.18651102
-2.8180563	A-/C	-0.18651102
-2.2238045	Gm/D,	-0.3084151
-2.8180563	Fm/C,	-0.18651102
-2.8180563	Fm/C	-0.18651102
-2.8180563	Fmaj7/A,	-0.18651102
-2.8180563	E-/G,	-0.18651102
-2.4622	G+11,	-0.4142045
-2.2238045	E7,	-0.3084151
-2.8180563	E-7,	-0.18651102
-2.8180563	B--7,	-0.18651102
-2.8180563	F#dim	-0.18651102
-2.4622	B-/F,	-0.4142045
-2.8180563	Em7/G,	-0.18651102
-2.8180563	G7/F,	-0.18651102
-2.8180563	F#m7,	-0.18651102
-2.8180563	Dm7	-0.18651102
-2.8180563	Gm7/B-,	-0.18651102
-2.8180563	FmM7/A-,	-0.18651102
-2.2238045	Ddim,	-0.28560358
-2.2238045	Dm7/A,	-0.3084151
-2.8180563	E7/G#,	-0.18651102
-2.8180563	Dm7/A	-0.18651102
-2.0139625	FM9,	-0.29305306
-2.8180563	FM9	-0.18651102
-1.8730835	A-7,	-0.3353238
-2.8180563	C7/B-,	-0.18651102
-2.8180563	G7	-0.18651102
-2.8180563	B-7,	-0.18651102
-2.8180563	Gm	-0.18651102
-2.8180563	Am9,	-0.18651102
-2.8180563	Bm,	-0.18651102
-2.4622	A9,	-0.18651102
-2.4622	Dm9,	-0.18651102
-2.4622	Em7,	-0.18651102
-2.8180563	Cm/E-,	-0.18651102
-2.8180563	G-,	-0.18651102
-2.8180563	Gsus4	-0.18651102
-2.8180563	G9,	-0.18651102
-2.8180563	Am/C,	-0.18651102
-2.8180563	G11	-0.18651102
-2.8180563	CmM7/B,	-0.18651102
-2.4622	B-/D,	-0.18651102

\2-grams:
-0.03829642	C </s>	0
-0.20124117	Am </s>	0
-0.1268039	F </s>	0
-0.07482144	G </s>	0
-0.16527273	B- </s>	0
-0.42764702	C/E </s>	0
-0.42764702	C/G </s>	0
-0.20124117	A- </s>	0
-0.086645715	Cm </s>	0
-0.42764702	F/A </s>	0
-0.42764702	A-/C </s>	0
-0.42764702	Fm/C </s>	0
-0.42764702	F#dim </s>	0
-0.42764702	Dm7 </s>	0
-0.42764702	Dm7/A </s>	0
-0.42764702	FM9 </s>	0
-0.42764702	G7 </s>	0
-0.42764702	Gm </s>	0
-0.42764702	Gsus4 </s>	0
-0.42764702	G11 </s>	0
-0.24135779	<s> C,	-0.6493689
-1.0435146	C, C,	-0.9587871
-0.839312	F, C,	-1.3004347
-0.9753811	Am7, C,	-0.46725306
-0.6532777	G, C,	-1.3357699
-0.9585822	Dm7, C,	-0.4321287
-1.0339462	Am, C,	-0.73287517
-0.58352166	G7, C,	-0.58063066
-0.779491	Am/E, C,	-0.24540435
-0.84980005	Dm, C,	-0.43752164
-0.8616349	B-, C,	-0.7016185
-0.8946469	D, C,	-0.2868598
-0.7498557	Gsus4, C,	-0.49427658
-0.9769941	Em, C,	-0.334438
-0.54131424	F7, C,	-0.7905163
-1.5920695	Cm, C,	-0.27046758
-1.157492	A-, C,	-0.4284705
-0.932584	C/E, C,	-0.29489282
-0.7672146	F/A, C,	-0.9716952
-1.4210176	E-, C,	-0.27046758
-0.39912298	G/D, C,	-0.32077405
-0.64908755	Bm7, C,	-0.27046758
-0.99484503	G/B, C,	-0.24540435
-1.1377783	Fm, C,	-0.27046758
-0.3429936	F/C, C,	-0.82733774
-0.21424969	G11, C,	-0.6370802
-0.9736149	Gm, C,	-0.31235114
-0.90351844	F#o7, C,	-0.32077405
-0.39912298	G#o7, C,	-0.24540435
-0.45970663	D-, C,	-0.24540435
-0.64908755	B-m7, C,	-0.32077405
-0.39912298	F#o7/C, C,	-0.32077405
-0.31804648	Dm7/F, C,	-0.4284705
-0.8630941	Gm/B-, C,	-0.32077405
-0.19100064	G+11, C,	-0.67137307
-0.64908755	FmM7/A-, C,	-0.32077405
-0.8965244	Ddim, C,	-0.54643434
-0.64565754	FM9, C,	-0.43914753
-0.76463705	A-7, C,	-0.32077405
-0.779491	A9, C,	-0.32077405
-0.39912298	G9, C,	-0.37034306
-1.2455595	<s> F,	-0.37034306
-0.95413595	C, F,	-1.3338437
-1.4228964	F, F,	-0.8303049
-1.010383	Am7, F,	-0.29489282
-0.86678094	G, F,	-1.1126629
-1.0861	Dm7, F,	-0.4558433
-0.8730584	Am, F,	-1.0953007
-1.1552767	E, F,	-0.46725306
-1.477005	G7, F,	-0.27046758
-0.6706527	Em/B, F,	-0.32077405
-0.9957607	Dm, F,	-0.64075404
-0.9499202	B-, F,	-0.6221174
-0.9206035	D, F,	-0.5242485
-0.68918145	A, F,	-0.46725306
-1.2335063	Gsus4, F,	-0.27046758
-0.91144377	Em, F,	-0.732378
-0.890788	C/G, F,	-0.46725306
-1.2639419	Cm, F,	-1.121861
-1.5115916	A-, F,	-0.32077405
-0.805691	C/E, F,	-0.76828307
-0.89576995	E-, F,	-0.59225625
-0.6706527	Gm7, F,	-1.0614368
-0.47664848	C7, F,	-0.57459855
-0.9009167	Gm, F,	-0.941784
-0.47067168	A7, F,	-0.33245948
-0.43390974	CmM7, F,	-0.2800735
-0.6706527	Em/G, F,	-0.24540435
-0.41111892	D/F#, F,	-0.24540435
-0.41111892	F#m7, F,	-0.24540435
-0.41111892	C7/B-, F,	-0.37034306
-0.41111892	Am9, F,	-0.24540435
-0.8088692	B-/D, F,	-0.32077405
-2.3075147	<s> Am7,	-0.32077405
-1.908223	C, Am7,	-0.6144251
-2.1245286	F, Am7,	-0.66099626
-1.4366146	C/G, Am7,	-0.24540435
-2.0726469	Cm, Am7,	-0.28659746
-1.6054406	C/E, Am7,	-0.27046758
-0.6685327	G/B, Am7,	-0.36555618
-0.443371	E7/G#, Am7,	-0.24540435
-0.70799446	FM9, Am7,	-0.54643434
-1.700754	C, C	-0.54643434
-1.4333632	F, C	-0.8474643
-1.478149	Am7, C	-0.32077405
-1.4526212	G, C	-1.1107057
-1.5495219	Dm7, C	-0.32077405
-1.5335426	Am, C	-0.24540435
-1.2211013	G7, C	-0.37034306
-1.3700585	B-, C	-0.24540435
-1.4961977	D, C	-0.32077405
-1.3671095	Gsus4, C	-0.32077405
-1.0695288	F7, C	-0.32077405
-1.6381925	Fm, C	-0.32077405
-1.3756489	F/C, C	-0.27046758
-1.4805486	Gm, C	-0.32077405
-1.1517731	Dm7/F, C	-0.32077405
-1.2596931	<s> G,	-0.45937672
-1.0786815	C, G,	-1.3510956
-0.94732976	F, G,	-1.3486937
-1.2157415	G, G,	-0.70813954
-0.7259869	Dm7, G,	-0.9443743
-1.2290499	Am, G,	-0.88140726
-0.65816104	Dm, G,	-0.8430648
-1.3974111	B-, G,	-0.46725306
-0.6470087	D, G,	-0.48948634
-1.0408454	Em, G,	-0.32077405
-1.020858	F7, G,	-0.27046758
-0.9164978	C/G, G,	-0.32077405
-1.3913554	Cm, G,	-0.7496002
-1.2326775	A-, G,	-0.54643434
-0.9888704	C/E, G,	-0.61338115
-0.49582416	F/A, G,	-0.7412286
-1.2820845	E-, G,	-0.50609434
-0.8892452	C7, G,	-0.3309815
-0.68819875	F#, G,	-0.2814562
-0.68819875	Bm7, G,	-0.27046758
-0.81486064	Fm, G,	-0.56555843
-0.42068374	E-/B-, G,	-0.32077405
-0.68819875	B-m7, G,	-0.32077405
-0.42068374	Fmaj7/A, G,	-0.54643434
-0.68819875	FmM7/A-, G,	-0.28659746
-2.2639506	<s> Dm7,	-0.32077405
-1.6366713	C, Dm7,	-0.55643314
-2.0685806	F, Dm7,	-0.24540435
-1.5285269	Am7, Dm7,	-0.24540435
-2.0283873	G, Dm7,	-0.85731673
-1.4139485	Am, Dm7,	-0.33245948
-0.88629985	Am/E, Dm7,	-0.54643434
-2.0209162	Cm, Dm7,	-0.32077405
-1.5754324	C/E, Dm7,	-0.5105293
-1.6912912	Fm, Dm7,	-0.32077405
-0.7255723	Em7, Dm7,	-0.26305628
-1.7389443	<s> Am,	-0.32077402
-1.0581121	C, Am,	-1.0427991
-1.3872634	F, Am,	-0.6821856
-1.4044288	G, Am,	-0.6627058
-1.1265857	Dm7, Am,	-0.32983539
-1.3371826	Am, Am,	-0.28659746
-0.6785626	E, Am,	-0.28316325
-1.2641178	D7, Am,	-0.32077405
-1.1886257	G7, Am,	-0.32077405
-0.6933449	Em/B, Am,	-0.61338115
-1.7061888	Dm, Am,	-0.32077405
-1.6670717	B-, Am,	-0.24540435
-1.4148368	D, Am,	-0.24540435
-0.94115907	Em, Am,	-0.35246775
-1.4029529	Cm, Am,	-0.49457392
-1.6096315	A-, Am,	-0.24540435
-0.42345566	G7/B, Am,	-0.27046758
-1.0839959	G/B, Am,	-0.79133004
-0.42345566	E/G#, Am,	-0.32077405
-1.2385597	G11, Am,	-0.32077405
-0.6933449	Em/G, Am,	-0.54643434
-0.3542612	E7, Am,	-0.36869308
-0.96472764	Dm7/A, Am,	-0.32077405
-2.4466515	C, E,	-0.40138477
-1.6323453	F, E,	-0.3458561
-1.6337907	Am7, E,	-0.24540435
-1.7128106	G, E,	-0.25525674
-2.034738	C, D7,	-0.334438
-2.188765	F, D7,	-0.27046758
-1.5855248	Am7, D7,	-0.32077405
-1.7224358	Am, D7,	-0.32077405
-1.462432	C/G, D7,	-0.37034306
-1.0258397	A7, D7,	-0.32077405
-0.4462921	E-7, D7,	-0.27046758
-1.8129683	<s> G7,	-0.28659746
-1.6284753	C, G7,	-0.69982404
-1.5615422	F, G7,	-0.5665427
-2.0050395	G, G7,	-0.24540435
-1.9318986	Am, G7,	-0.28659746
-0.27675676	D7, G7,	-0.48953626
-1.664031	G7, G7,	-0.32077405
-1.8365254	B-, G7,	-0.24540435
-1.7222427	Cm, G7,	-0.334438
-1.7384404	E-, G7,	-0.27046758
-1.0068784	B7, G7,	-0.27046758
-0.83246017	A-7, G7,	-0.54643434
-1.6300949	C, Em/B,	-0.76040673
-1.4219786	F, Am/E,	-0.7894724
-1.7599958	Dm7, Am/E,	-0.54643434
-2.0806983	<s> Dm,	-0.32077405
-1.4227966	C, Dm,	-0.8096388
-1.3927653	F, Dm,	-0.7527278
-1.0528991	Am7, Dm,	-0.29489282
-1.6190534	G, Dm,	-0.7113351
-1.3430862	Am, Dm,	-0.34844586
-1.269526	D7, Dm,	-0.32077405
-0.8440263	Am/E, Dm,	-0.64334434
-1.3714492	Dm, Dm,	-0.2814562
-1.6800178	B-, Dm,	-0.24540435
-0.5840164	A, Dm,	-0.26748788
-0.94458985	Em, Dm,	-0.5514529
-1.4088699	Cm, Dm,	-0.48948634
-1.6220276	A-, Dm,	-0.32077405
-1.1064672	C/E, Dm,	-0.37034306
-1.0427924	Gm, Dm,	-0.4214956
-0.9683949	Cmaj7, Dm,	-0.24540435
-0.4248483	E-m, Dm,	-0.37034306
-0.4248483	C#dim, Dm,	-0.32077405
-0.35515755	Gm/D, Dm,	-0.34844586
-0.4248483	Em7/G, Dm,	-0.24540435
-0.69594103	Em7, Dm,	-0.27046758
-1.8994906	<s> B-,	-0.32077405
-1.1950895	C, B-,	-0.9189754
-1.5455085	F, B-,	-0.5811964
-1.4590394	G, B-,	-0.7211605
-1.2795178	E, B-,	-0.24540435
-1.4219451	Dm, B-,	-0.35996628
-1.3765435	B-, B-,	-0.32228893
-1.1241901	Cm, B-,	-0.96981895
-1.0013124	A-, B-,	-0.7774137
-0.8431822	E-, B-,	-0.58639634
-0.737752	Fm, B-,	-0.46725306
-0.8743567	B, B-,	-0.32077405
-1.2925817	A-7, B-,	-0.24540435
-0.43615308	Am/C, B-,	-0.27046758
-2.2384799	C, D,	-0.37034306
-1.840483	F, D,	-0.24985501
-2.0792236	G, D,	-0.32077405
-1.4281737	Am, D,	-0.4284705
-1.321431	E, D,	-0.26305628
-1.1199011	D, D,	-0.45937672
-1.2354137	A, D,	-0.27046758
-1.557465	Em, D,	-0.27046758
-1.6054406	C/E, D,	-0.32077405
-2.2248375	F, A,	-0.37034306
-0.84584075	E, A,	-0.27046758
-2.010846	Dm, A,	-0.24540435
-1.9674803	B-, A,	-0.37034306
-1.6107194	D, A,	-0.32077405
-1.1892405	G/B, A,	-0.24540435
-2.4307725	F, Am	-0.32077405
-1.391574	E, Am	-0.32077405
-1.9671838	<s> Gsus4,	-0.32077405
-2.034738	C, Gsus4,	-0.27046758
-1.3599492	D7, Gsus4,	-0.27046758
-1.9427257	B-, Gsus4,	-0.2655127
-1.4477735	Gsus4, Gsus4,	-0.32077405
-1.8694537	A-, Gsus4,	-0.24540435
-0.9329968	F/C, Gsus4,	-0.7527278
-1.4371854	C, Em,	-0.46373487
-1.4781513	F, Em,	-0.7946618
-2.1070628	G, Em,	-0.32077405
-1.2202712	Am, Em,	-0.5086458
-1.5789992	Dm, Em,	-0.49528182
-0.36790502	B7, Em,	-0.334438
-0.8985808	B, Em,	-0.32077405
-0.8985808	A9, Em,	-0.24540435
-1.6988318	C, F7,	-0.88222647
-2.172084	Am, F7,	-0.27046758
-1.2701339	G7, F7,	-0.7401775
-0.9388984	C7, F7,	-0.37034306
-2.0782256	C, F	-0.7225256
-1.5215183	G, F	-0.61338115
-1.7518865	Am, F	-0.27046758
-0.74262947	Gm7, F	-0.32077405
-1.5728205	C7, F	-0.32077405
-1.435465	Am, C/G,	-1.0470366
-1.9617752	Dm, C/G,	-0.32077405
-1.340692	F/A, C/G,	-0.32077405
-0.36790502	F#o7, C/G,	-0.29116186
-0.73401713	Bo7/A-, C/G,	-0.24540435
-1.0232803	E7, C/G,	-0.32077405
-0.4448291	G7/F, C/G,	-0.24540435
-0.36790502	Dm7/A, C/G,	-0.4103051
-1.7736723	C, G	-0.54643434
-1.8562905	F, G	-0.61338115
-2.1070628	G, G	-0.32077405
-1.2037785	Dm7, G	-0.27046758
-1.7084271	Am, G	-0.27046758
-1.2848929	Dm, G	-0.37034306
-2.1010227	Cm, G	-0.32077405
-1.2926537	Fm, G	-0.27046758
-0.94906294	<s> Cm,	-0.28059152
-1.7886655	C, Cm,	-0.32077402
-1.1896492	F, Cm,	-0.7090439
-1.3921281	Am7, Cm,	-0.27046758
-1.1547838	G, Cm,	-0.64731014
-1.4596215	Dm7, Cm,	-0.32077405
-1.5393041	Am, Cm,	-0.55628675
-0.6013614	G7, Cm,	-0.41777343
-0.89914423	B-, Cm,	-0.765785
-1.150425	A, Cm,	-0.27046758
-0.6111133	Gsus4, Cm,	-0.67137307
-0.999362	Cm, Cm,	-0.35976288
-0.69147563	A-, Cm,	-0.9912007
-0.82509035	E-, Cm,	-0.68660635
-0.940069	Fm, Cm,	-0.29994714
-0.75193155	Gm, Cm,	-0.9149676
-0.9601787	A7, Cm,	-0.27046758
-0.9380847	Gm/B-, Cm,	-0.32077405
-0.6933449	A-/C, Cm,	-0.26305628
-0.6933449	Fm/C, Cm,	-0.32077405
-0.48192084	Ddim, Cm,	-0.24540435
-0.68386185	A-7, Cm,	-0.2655127
-0.8403798	B-/D, Cm,	-0.67137307
-1.8906271	<s> A-,	-0.27046758
-2.075031	C, A-,	-0.32077405
-1.6753291	F, A-,	-0.7225256
-1.3422568	G, A-,	-0.334438
-1.386824	Am, A-,	-0.26305628
-0.9936378	B-, A-,	-0.9160942
-1.4961977	D, A-,	-0.32077405
-1.3671095	Gsus4, A-,	-0.32077405
-0.93528557	Cm, A-,	-0.8418297
-1.7203954	A-, A-,	-0.32077405
-1.3424894	E-, A-,	-1.2471303
-1.2548726	Fm, A-,	-0.67137307
-1.0725919	CmM7, A-,	-0.27046758
-0.71456194	A-/C, A-,	-0.32077405
-0.8704475	B-/D, A-,	-0.26674613
-2.4466515	C, B-	-0.32077405
-2.2377462	Cm, B-	-0.32077405
-1.4827702	A-, B-	-0.27046758
-1.8915375	E-, B-	-0.32077405
-2.2728834	C, C/E,	-0.334438
-1.3858584	F, C/E,	-0.5883846
-1.774756	G, C/E,	-0.32077402
-1.6471046	Dm7, C/E,	-0.32077405
-1.6033783	Am, C/E,	-0.7225256
-1.5789992	Dm, C/E,	-0.26305628
-1.6212599	C/E, C/E,	-0.32077405
-1.3319947	FM9, C/E,	-0.37034306
-2.4986632	F, C/E	-0.32077405
-1.6893882	C, F/A,	-1.1884563
-1.8168622	G, F/A,	-0.9144111
-1.2522897	B-, F/A,	-0.4051052
-2.199324	Cm, F/A,	-0.32077405
-0.449233	CmM7/B, F/A,	-0.24540435
-1.7409122	C, E-,	-0.7225256
-1.2962734	F, E-,	-0.9876505
-1.6383805	G, E-,	-0.2814562
-1.8972197	Dm, E-,	-0.50609434
-1.5058662	B-, E-,	-0.6542137
-0.9836887	Cm, E-,	-0.88342506
-0.91358846	A-, E-,	-0.45376557
-1.2538338	E-, E-,	-0.28659746
-1.2760577	Fm, E-,	-0.26305628
-0.7255723	Dm9, E-,	-0.32077405
-0.4404694	Cm/E-, E-,	-0.67137307
-2.1926959	C, Gm7,	-1.1795102
-2.5036516	C, B7,	-0.27046758
-1.7834804	Am, B7,	-0.27046758
-1.6517463	Em, B7,	-0.27046758
-1.8512957	<s> C7,	-0.28659746
-2.3102486	C, C7,	-0.32077405
-1.7698002	F, C7,	-0.59693897
-1.7883428	G, C7,	-0.29994714
-1.7267948	G7, C7,	-0.27046758
-1.1128187	F7, C7,	-0.37034306
-1.0617131	C7, C7,	-0.27046758
-2.3444133	G, F#,	-0.54643434
-2.0087266	A-, F#,	-0.32077405
-1.760632	C/E, F#o7/E-,	-0.32077405
-0.45577386	F#o7/E-, G/D,	-0.32077405
-2.1802413	Dm, Bm7,	-0.27046758
-2.6818762	C, G7/B,	-0.27046758
-1.5313753	C, G/B,	-0.89322186
-1.5400102	Cm, G/B,	-0.24540435
-1.3784604	FM9, G/B,	-0.37034306
-2.2058418	<s> Fm,	-0.32077405
-2.0983481	C, Fm,	-0.27046758
-1.4902062	Am7, Fm,	-0.32077405
-1.6100127	G, Fm,	-0.5750324
-1.6327161	Am, Fm,	-0.32077405
-1.5075295	D, Fm,	-0.24540435
-1.4593532	Cm, Fm,	-0.8379909
-1.7364602	A-, Fm,	-0.47812244
-1.3490189	E-, Fm,	-0.52927494
-1.0755746	Gm, Fm,	-0.40138477
-0.98107076	Gm/B-, Fm,	-0.32077405
-0.7172885	Fm/C, Fm,	-0.32077405
-0.43615308	E-/G, Fm,	-0.27046758
-0.43615308	G-, Fm,	-0.24540435
-2.355941	<s> F/C,	-0.32077405
-1.5808399	C, F/C,	-0.93203574
-2.1368096	G, F/C,	-0.32077405
-2.065909	Am, F/C,	-0.32077405
-1.4358381	F/C, F/C,	-0.37034306
-0.36883005	Cmaj7, F/C,	-0.8474643
-0.736869	Bo7/A-, F/C,	-0.32077405
-2.6818762	C, E/B,	-0.32077405
-0.74846745	F#, B,	-0.32077405
-1.4693805	F/C, B,	-0.32077405
-0.4521939	E/B, B,	-0.32077405
-0.93044716	B, E-/B-,	-0.32077405
-1.8247021	Am, E/G#,	-0.27046758
-1.5855248	Am7, G11,	-0.8474643
-2.1368096	G, G11,	-0.32077405
-1.2094473	Dm7, G11,	-0.24540435
-2.065909	Am, G11,	-0.32077405
-1.462432	C/G, G11,	-0.24540435
-1.6376773	C/E, G11,	-0.32077405
-1.751798	Fm, G11,	-0.32077405
-1.5736245	C, Gm,	-0.68088436
-2.1554604	F, Gm,	-0.7401775
-1.2848929	Dm, Gm,	-0.54643434
-1.3807399	Cm, Gm,	-0.9047484
-1.340692	F/A, Gm,	-0.24540435
-1.7358629	Fm, Gm,	-1.0412076
-1.5637331	Gm, Gm,	-0.27046758
-0.4448291	B-7, Gm,	-0.32077405
-2.4405098	<s> Cmaj7,	-0.32077405
-2.4466515	C, Cmaj7,	-0.27046758
-2.3074443	F, Cmaj7,	-0.24540435
-1.4823546	Gsus4, Cmaj7,	-0.7225256
-2.4986632	F, Bm/F#,	-0.54643434
-1.9453156	F, F#o7,	-0.26305628
-1.519184	C/G, F#o7,	-0.32077405
-0.4521939	Bm/F#, F#o7,	-0.54643434
-1.5042857	C/G, A7,	-0.24540435
-1.6195643	Gm, A7,	-0.37034306
-1.0344237	Gm/B-, A7,	-0.27046758
-0.45071092	B--7, A7,	-0.32077405
-1.9955379	F, G#o7,	-0.24540435
-2.4307725	F, Bo7/A-,	-0.32077405
-1.5403024	C/G, Bo7/A-,	-0.24540435
-2.4466515	C, D-,	-0.32077405
-2.172084	Am, D-,	-0.32077405
-1.715035	Cm, D-,	-0.67137307
-1.9418545	A-, D-,	-0.27046758
-1.0551615	D-, C/G	-0.32077405
-2.4307725	F, A-	-0.32077405
-1.5971974	B-, A-	-0.27046758
-1.8112959	F, CmM7,	-0.26305628
-2.066176	Dm, CmM7,	-0.27046758
-1.9418545	A-, CmM7,	-0.32077405
-1.1312078	CmM7, CmM7,	-0.32077405
-2.0418146	A-, B-m7,	-0.32077405
-1.6960503	Em, E-m,	-0.37034306
-2.5955634	C, Em/G,	-0.54643434
-2.2788055	Am, Em/G,	-0.24540435
-1.8726951	F, Cm	-0.27046758
-2.1368096	G, Cm	-0.32077405
-1.9427257	B-, Cm	-0.27046758
-2.131383	Cm, Cm	-0.32077405
-1.4562228	A-, Cm	-0.27046758
-1.5770326	Gm, Cm	-0.32077405
-1.3469641	A-7, Cm	-0.32077405
-2.3993971	G, F#o7/C,	-0.32077405
-2.1802413	Dm, C#dim,	-0.27046758
-2.1017196	C, Dm7/F,	-0.35318372
-2.3074443	F, Dm7/F,	-0.37034306
-2.172084	Am, Dm7/F,	-0.54643434
-1.210389	Dm7/F, Dm7/F,	-0.32077405
-2.3356848	Am, D/F#,	-0.24540435
-2.3444133	G, Gm/B-,	-0.32077405
-1.8724681	Cm, Gm/B-,	-0.29489282
-2.1328936	B-, F/A	-0.32077405
-1.89087	Cm, Fmaj7/C,	-0.43914753
-0.75557816	Fmaj7/C, A-/C,	-0.35996628
-0.75557816	Fmaj7/C, A-/C	-0.32077405
-1.5026253	Dm, Gm/D,	-0.45937672
-1.9151101	E-, Gm/D,	-0.27046758
-1.0446941	Gm/D, Gm/D,	-0.27046758
-1.7580932	Cm, Fm/C,	-0.28659746
-2.4017441	Cm, Fm/C	-0.32077405
-2.06254	C, Fmaj7/A,	-0.54643434
-2.0418146	A-, E-/G,	-0.37034306
-2.5209699	<s> G+11,	-0.32077405
-2.5955634	C, G+11,	-0.9443743
-2.1265576	C, E7,	-0.27046758
-2.2816403	G, E7,	-0.46725306
-1.0439326	Ddim, E7,	-0.27046758
-1.6960503	Em, E-7,	-0.27046758
-1.8231728	G7, B--7,	-0.32077405
-2.6818762	C, F#dim	-0.32077405
-2.5209699	<s> B-/F,	-0.32077405
-1.7599958	Dm7, B-/F,	-0.27046758
-0.21092092	B-/F, Em7/G,	-0.24540435
-2.1802413	Dm, G7/F,	-0.24540435
-1.5571743	C/G, F#m7,	-0.24540435
-1.760632	C/E, Dm7	-0.32077405
-1.7580932	Cm, Gm7/B-,	-0.37034306
-0.45577386	Gm7/B-, FmM7/A-,	-0.26305628
-2.4728026	<s> Ddim,	-0.32077405
-2.012586	C, Ddim,	-0.45937672
-2.0515351	B-, Ddim,	-0.27046758
-1.6511499	Am7, Dm7/A,	-0.24540435
-1.7834804	Am, Dm7/A,	-0.24540435
-1.519184	C/G, Dm7/A,	-0.334438
-1.3551716	G11, E7/G#,	-0.24540435
-1.5571743	C/G, Dm7/A	-0.32077405
-2.410453	<s> FM9,	-0.32077405
-2.3962722	C, FM9,	-0.2800735
-0.81277233	Am7, FM9,	-0.3325545
-2.2032154	G, FM9,	-0.27046758
-1.1994586	C/E, FM9,	-0.27046758
-1.4026629	FM9, FM9	-0.32077405
-2.355941	<s> A-7,	-0.32077405
-2.3102486	C, A-7,	-0.32077405
-2.188765	F, A-7,	-0.24540435
-2.065909	Am, A-7,	-0.32077405
-1.6802925	Cm, A-7,	-0.33245948
-1.3486879	F/A, A-7,	-0.24540435
-1.8276442	E-, A-7,	-0.27046758
-2.3356848	Am, C7/B-,	-0.37034306
-2.4986632	F, G7	-0.32077405
-2.561783	<s> B-7,	-0.32077405
-2.4017441	Cm, Gm	-0.32077405
-2.06254	C, Am9,	-0.24540435
-2.6818762	C, Bm,	-0.24540435
-1.6762947	Em, A9,	-0.28659746
-0.45421892	Bm, A9,	-0.24540435
-1.9493712	E-, Dm9,	-0.32077405
-0.925825	A9, Dm9,	-0.27046758
-2.5955634	C, Em7,	-0.37034306
-0.75248253	Dm9, Em7,	-0.27046758
-1.0551615	D-, Cm/E-,	-0.67137307
-2.1328936	B-, G-,	-0.24540435
-2.6818762	C, Gsus4	-0.32077405
-2.1926959	C, G9,	-0.37034306
-2.1802413	Dm, Am/C,	-0.27046758
-1.7816063	Dm7, G11	-0.32077405
-1.2288198	G/B, CmM7/B,	-0.24540435
-2.3447094	Cm, B-/D,	-0.32077405
-1.306343	E-, B-/D,	-0.67137307

\3-grams:
-0.010543334	C, C </s>
-0.005239634	F, C </s>
-0.017876567	Am7, C </s>
-0.0028501616	G, C </s>
-0.017876567	Dm7, C </s>
-0.021349011	Am, C </s>
-0.015912553	G7, C </s>
-0.021349011	B-, C </s>
-0.017876567	D, C </s>
-0.017876567	Gsus4, C </s>
-0.017876567	F7, C </s>
-0.017876567	Fm, C </s>
-0.020123618	F/C, C </s>
-0.017876567	Gm, C </s>
-0.017876567	Dm7/F, C </s>
-0.0846955	F, Am </s>
-0.0846955	E, Am </s>
-0.021349011	C, F </s>
-0.02764658	G, F </s>
-0.06340467	Am, F </s>
-0.056001283	Gm7, F </s>
-0.056001283	C7, F </s>
-0.019983517	C, G </s>
-0.017071797	F, G </s>
-0.03414596	G, G </s>
-0.038530774	Dm7, G </s>
-0.038530774	Am, G </s>
-0.030331004	Dm, G </s>
-0.03414596	Cm, G </s>
-0.038530774	Fm, G </s>
-0.071207464	C, B- </s>
-0.071207464	Cm, B- </s>
-0.0808158	A-, B- </s>
-0.071207464	E-, B- </s>
-0.15446922	F, C/E </s>
-0.15446922	D-, C/G </s>
-0.0846955	F, A- </s>
-0.096335135	B-, A- </s>
-0.04432521	F, Cm </s>
-0.039250724	G, Cm </s>
-0.04432521	B-, Cm </s>
-0.039250724	Cm, Cm </s>
-0.04432521	A-, Cm </s>
-0.039250724	Gm, Cm </s>
-0.039250724	A-7, Cm </s>
-0.15446922	B-, F/A </s>
-0.15446922	Fmaj7/C, A-/C </s>
-0.15446922	Cm, Fm/C </s>
-0.15446922	C, F#dim </s>
-0.15446922	C/E, Dm7 </s>
-0.15446922	C/G, Dm7/A </s>
-0.15446922	FM9, FM9 </s>
-0.15446922	F, G7 </s>
-0.15446922	Cm, Gm </s>
-0.15446922	C, Gsus4 </s>
-0.15446922	Dm7, G11 </s>
-1.3068601	<s> C, C,
-0.6678346	C, C, C,
-1.2106189	F, C, C,
-1.0242727	G, C, C,
-1.5552447	Am, C, C,
-0.89955	G7, C, C,
-1.0923344	Dm, C, C,
-0.9708315	B-, C, C,
-0.91600895	D, C, C,
-1.1951644	Gsus4, C, C,
-1.4387352	F7, C, C,
-1.1640261	A-, C, C,
-0.55237085	Fm, C, C,
-1.085606	F/C, C, C,
-0.24760972	F#o7/C, C, C,
-0.5166499	A-7, C, C,
-0.3246001	<s> F, C,
-0.2413957	C, F, C,
-0.1572283	F, F, C,
-0.6904288	Am7, F, C,
-0.29546863	G, F, C,
-0.68783027	Am, F, C,
-0.48739243	B-, F, C,
-0.5275962	D, F, C,
-0.14973825	A, F, C,
-0.266634	Gsus4, F, C,
-0.5029068	C/G, F, C,
-0.3571055	C/E, F, C,
-0.43270728	E-, F, C,
-0.047310587	Gm7, F, C,
-0.61424905	C7, F, C,
-0.0712147	Gm, F, C,
-0.19690782	C7/B-, F, C,
-0.12343378	F, Am7, C,
-0.45296648	G/B, Am7, C,
-0.21181016	<s> G, C,
-0.21320482	C, G, C,
-0.1977886	F, G, C,
-0.4252662	G, G, C,
-0.5203441	Dm7, G, C,
-0.9190524	Am, G, C,
-0.22061288	Dm, G, C,
-0.13384806	B-, G, C,
-0.22433876	D, G, C,
-0.43501687	Em, G, C,
-0.23452502	F7, G, C,
-0.66144675	C/E, G, C,
-0.28105634	F/A, G, C,
-0.8419803	E-, G, C,
-0.4083016	C7, G, C,
-0.6919629	F#, G, C,
-0.23452502	Bm7, G, C,
-1.0628395	Fm, G, C,
-0.20177826	E-/B-, G, C,
-0.20177826	B-m7, G, C,
-0.5392187	FmM7/A-, G, C,
-0.24049774	<s> Dm7, C,
-0.53598034	C, Dm7, C,
-0.30610108	F, Dm7, C,
-0.6610267	<s> Am, C,
-0.8265916	C, Am, C,
-1.3005168	F, Am, C,
-1.201352	G, Am, C,
-0.5253811	Dm7, Am, C,
-0.97384554	E, Am, C,
-1.0002002	G/B, Am, C,
-0.5101352	<s> G7, C,
-0.23827952	C, G7, C,
-0.1683201	F, G7, C,
-0.3527246	Am, G7, C,
-0.24507885	D7, G7, C,
-0.18917918	G7, G7, C,
-0.23660684	B-, G7, C,
-0.117445536	Dm7, Am/E, C,
-1.3383015	C, Dm, C,
-0.34923175	F, Dm, C,
-0.80670756	Am, Dm, C,
-0.7325282	Am/E, Dm, C,
-0.24477969	Em, Dm, C,
-0.32595244	C/E, Dm, C,
-0.5106794	Gm, Dm, C,
-0.2907375	Cmaj7, Dm, C,
-0.48569804	<s> B-, C,
-0.36936477	C, B-, C,
-0.29331836	F, B-, C,
-1.1976676	G, B-, C,
-0.8014056	B-, B-, C,
-0.62695426	A-, B-, C,
-0.7476077	E-, B-, C,
-0.7225594	F, D, C,
-0.4921364	G, D, C,
-0.405268	E, D, C,
-0.46079642	<s> Gsus4, C,
-0.25260818	D7, Gsus4, C,
-0.30155918	F/C, Gsus4, C,
-1.0567428	C, Em, C,
-0.6173979	Am, Em, C,
-0.042604074	C, F7, C,
-0.08255405	G7, F7, C,
-1.5410506	F, Cm, C,
-0.49430022	F, A-, C,
-0.9861152	Am, A-, C,
-1.3798361	B-, A-, C,
-0.68071055	C, C/E, C,
-1.3577836	F, C/E, C,
-0.63850814	G, C/E, C,
-0.23458599	C, F/A, C,
-0.4005154	B-, F/A, C,
-1.6763195	F, E-, C,
-0.14702408	F#o7/E-, G/D, C,
-0.453306	Dm, Bm7, C,
-1.3437513	C, G/B, C,
-0.5288542	Am, Fm, C,
-0.3250847	D, Fm, C,
-0.13129173	<s> F/C, C,
-0.13970543	C, F/C, C,
-0.13129173	G, F/C, C,
-0.13129173	Am, F/C, C,
-0.11506341	F/C, F/C, C,
-0.13129173	Bo7/A-, F/C, C,
-0.024718743	Am7, G11, C,
-0.08940281	G, G11, C,
-0.24960627	Dm7, G11, C,
-0.08940281	Am, G11, C,
-0.10863561	C/G, G11, C,
-0.08940281	Fm, G11, C,
-0.8390168	C, Gm, C,
-1.2017125	F, Gm, C,
-0.7018039	F, F#o7, C,
-0.18151848	F, G#o7, C,
-0.16241324	C, D-, C,
-0.18730041	A-, D-, C,
-0.4338016	A-, B-m7, C,
-0.14702408	G, F#o7/C, C,
-0.22497508	C, Dm7/F, C,
-0.10863561	F, Dm7/F, C,
-0.069326125	Am, Dm7/F, C,
-0.12382145	Dm7/F, Dm7/F, C,
-0.69883955	Cm, Gm/B-, C,
-0.080926344	<s> G+11, C,
-0.017930329	C, G+11, C,
-0.5969196	Gm7/B-, FmM7/A-, C,
-0.2358656	C, Ddim, C,
-0.51702815	C, FM9, C,
-0.2329555	G, FM9, C,
-0.2329555	C/E, FM9, C,
-0.21869804	C, A-7, C,
-0.21869804	Am, A-7, C,
-0.58509696	Em, A9, C,
-0.12854934	C, G9, C,
-0.36279574	<s> C, F,
-0.45716703	C, C, F,
-0.4052705	F, C, F,
-0.2804758	Am7, C, F,
-0.3733903	G, C, F,
-0.9492155	Dm7, C, F,
-1.3948702	Am, C, F,
-0.46125257	G7, C, F,
-0.5543946	Am/E, C, F,
-1.0535676	Dm, C, F,
-0.76439095	B-, C, F,
-0.87937546	D, C, F,
-1.1522664	Gsus4, C, F,
-0.7112156	A-, C, F,
-0.5404069	C/E, C, F,
-0.3055361	G/B, C, F,
-1.1914328	F/C, C, F,
-1.2967103	G11, C, F,
-0.41793588	Gm, C, F,
-0.13690013	G+11, C, F,
-0.24008927	FmM7/A-, C, F,
-1.4511452	C, F, F,
-1.7042806	G, F, F,
-1.4914694	Gm7, F, F,
-0.90566486	CmM7, F, F,
-0.31232288	C/G, Am7, F,
-1.1002882	G/B, Am7, F,
-0.78761077	<s> G, F,
-0.61786175	C, G, F,
-0.7717644	F, G, F,
-0.99720645	G, G, F,
-0.16869584	Am, G, F,
-1.0206834	Dm, G, F,
-0.8183065	D, G, F,
-0.8895926	Cm, G, F,
-0.20370124	C/E, G, F,
-1.2557548	F/A, G, F,
-0.7463999	C7, G, F,
-0.8010144	F#, G, F,
-0.12236623	Fmaj7/A, G, F,
-0.9798842	C, Dm7, F,
-0.21207844	C/E, Dm7, F,
-0.62329125	<s> Am, F,
-0.3026009	C, Am, F,
-0.40669963	F, Am, F,
-0.28948155	G, Am, F,
-0.80611056	Am, Am, F,
-0.20403115	Em/B, Am, F,
-0.29430458	B-, Am, F,
-0.4842143	Em, Am, F,
-0.6844037	Cm, Am, F,
-0.1329521	G/B, Am, F,
-0.37322173	E7, Am, F,
-0.30235812	C, E, F,
-1.063971	F, G7, F,
-1.0222478	C, Em/B, F,
-0.8217535	C, Dm, F,
-1.3810929	F, Dm, F,
-0.8543215	Dm, Dm, F,
-0.83193356	A, Dm, F,
-1.2027187	Em, Dm, F,
-0.28590697	Em7, Dm, F,
-0.6031069	C, B-, F,
-0.7107908	F, B-, F,
-0.12108445	G, B-, F,
-0.30499572	E, B-, F,
-0.8358471	B-, B-, F,
-0.7638317	E-, B-, F,
-0.81867653	F, D, F,
-0.5776855	Am, D, F,
-0.23764597	D, D, F,
-0.17983201	F, A, F,
-0.20763916	D, A, F,
-0.30549937	C, Gsus4, F,
-0.55165696	C, Em, F,
-0.49526343	G, Em, F,
-0.3638751	Dm, Em, F,
-0.03536149	Am, C/G, F,
-0.491404	E7, C/G, F,
-1.0630637	<s> Cm, F,
-0.3428446	F, Cm, F,
-1.0507562	G7, Cm, F,
-1.6157576	B-, Cm, F,
-0.47359145	A-, Cm, F,
-0.8776333	B-/D, A-, F,
-0.63389105	F, C/E, F,
-0.6041305	G, C/E, F,
-0.07562129	Am, C/E, F,
-0.47385725	C/E, C/E, F,
-0.1504947	C, E-, F,
-1.5193101	F, E-, F,
-0.942169	Dm, E-, F,
-0.6198132	Cm, E-, F,
-0.23436154	Dm9, E-, F,
-0.03051361	C, Gm7, F,
-0.31738853	<s> C7, F,
-0.16643542	C, C7, F,
-0.16820128	F, C7, F,
-0.5658957	G, C7, F,
-0.19208711	G7, C7, F,
-0.19208711	C7, C7, F,
-0.26049975	C, Gm, F,
-0.098303705	F, Gm, F,
-0.29836875	F/A, Gm, F,
-0.20484889	C/G, A7, F,
-0.14389737	Gm, A7, F,
-0.2801036	F, CmM7, F,
-0.15605584	A-, CmM7, F,
-0.15605584	CmM7, CmM7, F,
-0.25727534	Am, Em/G, F,
-0.18561187	Am, D/F#, F,
-0.18561187	C/G, F#m7, F,
-0.13126256	Am, C7/B-, F,
-0.18561187	C, Am9, F,
-0.22445206	Cm, B-/D, F,
-2.0277994	<s> C, Am7,
-0.23038149	G11, C, Am7,
-1.0384319	FM9, C, Am7,
-1.9439087	C, F, Am7,
-0.829095	F#o7, C/G, Am7,
-1.7868526	B-, Cm, Am7,
-0.23334126	FM9, C/E, Am7,
-0.62928903	C, G/B, Am7,
-0.17705119	FM9, G/B, Am7,
-0.19625157	G11, E7/G#, Am7,
-0.21055138	<s> FM9, Am7,
-0.5403	C, FM9, Am7,
-0.68023664	Am7, FM9, Am7,
-2.1376307	C, C, C
-2.7733212	F, C, C
-2.6321616	G, C, C
-1.5307457	G11, C, C
-2.3222926	C, F, C
-1.8022792	G, F, C
-1.7416947	B-, F, C
-1.2907624	D, F, C
-1.708298	Gm, F, C
-1.2256228	F, Am7, C
-1.6653917	C, G, C
-1.6757625	F, G, C
-1.944861	Dm, G, C
-1.7250707	F/A, G, C
-1.5769852	C, Dm7, C
-2.2721024	C, Am, C
-1.8811924	G, Am, C
-1.135041	E, Am, C
-1.2694422	C, G7, C
-1.2231184	F, G7, C
-1.9909676	C, B-, C
-1.7702149	A-, B-, C
-1.5457336	E-, B-, C
-0.8298456	E, D, C
-1.5040952	F/C, Gsus4, C
-1.2290217	G7, F7, C
-1.2340145	G, Fm, C
-1.6738948	C, F/C, C
-1.6612217	C, Gm, C
-0.92701185	C, Dm7/F, C
-0.8653026	<s> C, G,
-0.7041962	C, C, G,
-0.63112783	F, C, G,
-0.66516286	G, C, G,
-1.4539745	Am, C, G,
-0.9210198	Dm, C, G,
-1.3509324	B-, C, G,
-0.64187026	D, C, G,
-0.28982514	Gsus4, C, G,
-0.37558287	Em, C, G,
-0.41554642	A-, C, G,
-0.7622958	C/E, C, G,
-0.5582593	Fm, C, G,
-0.31958178	G#o7, C, G,
-0.49833623	Dm7/F, C, G,
-1.0055953	G+11, C, G,
-0.67778313	<s> F, G,
-0.5856692	C, F, G,
-0.86648387	F, F, G,
-0.6036569	G, F, G,
-0.2735288	Am, F, G,
-0.15645456	E, F, G,
-0.28923923	Dm, F, G,
-0.85585916	B-, F, G,
-0.35549104	D, F, G,
-0.11131009	Em, F, G,
-1.6695144	Cm, F, G,
-1.3543096	E-, F, G,
-1.0374707	C7, F, G,
-0.3046614	Em/G, F, G,
-1.8096365	C, G, G,
-1.756018	F, G, G,
-0.42449868	G, G, G,
-1.7695656	Am, G, G,
-0.53732693	Em, G, G,
-1.3700058	Fm, G, G,
-0.55750203	C, Dm7, G,
-0.07527898	G, Dm7, G,
-0.65787303	Am, Dm7, G,
-0.21323827	Cm, Dm7, G,
-0.45481244	Fm, Dm7, G,
-0.7781632	C, Am, G,
-0.5509893	F, Am, G,
-1.0883251	G, Am, G,
-0.3323462	D, Am, G,
-1.0749242	Em, Am, G,
-0.29887867	C, Dm, G,
-0.38104057	F, Dm, G,
-0.46446705	Am7, Dm, G,
-0.15029877	G, Dm, G,
-0.48413527	Am, Dm, G,
-0.43642277	D7, Dm, G,
-0.1741755	Am/E, Dm, G,
-0.69474834	Dm, Dm, G,
-0.674932	A, Dm, G,
-1.0174978	Em, Dm, G,
-0.59256476	C/E, Dm, G,
-0.17561074	E-m, Dm, G,
-0.43642277	C#dim, Dm, G,
-1.3476342	G, B-, G,
-0.32194704	Dm, B-, G,
-0.17402847	C, D, G,
-0.6116591	F, D, G,
-0.2332354	A, D, G,
-0.2332354	Em, D, G,
-0.20071279	C/E, D, G,
-0.5162698	G, Em, G,
-0.24740513	B, Em, G,
-0.28846616	Am, F7, G,
-0.23647554	Dm, C/G, G,
-0.23647554	F/A, C/G, G,
-1.1011254	<s> Cm, G,
-0.60858834	F, Cm, G,
-0.3464552	G, Cm, G,
-1.4326123	A-, Cm, G,
-0.25949287	C, A-, G,
-0.6608525	G, A-, G,
-0.25949287	D, A-, G,
-0.36652687	C, C/E, G,
-0.6606601	F, C/E, G,
-0.5084575	C/E, C/E, G,
-0.4252684	C, F/A, G,
-0.037583385	G, F/A, G,
-0.5197571	B-, F/A, G,
-0.17084515	Cm, F/A, G,
-1.2588615	B-, E-, G,
-1.1311151	Cm, E-, G,
-1.0891662	F, C7, G,
-0.6018793	G, C7, G,
-0.20151268	F7, C7, G,
-0.1112042	G, F#, G,
-0.46628118	Dm, Bm7, G,
-0.2630395	C, Fm, G,
-0.17376256	G, Fm, G,
-1.3952518	Cm, Fm, G,
-0.19817646	E-, Fm, G,
-0.7139459	Gm, Fm, G,
-0.15268496	B, E-/B-, G,
-0.4448254	A-, B-m7, G,
-0.084229074	C, Fmaj7/A, G,
-0.36087686	Gm7/B-, FmM7/A-, G,
-2.1173499	C, C, Dm7,
-1.8171642	G, C, Dm7,
-0.38106865	Dm7, C, Dm7,
-0.9320724	Am, C, Dm7,
-1.7328985	G7, C, Dm7,
-2.6740732	C, F, Dm7,
-1.0548534	C, Am7, Dm7,
-0.21403056	Dm7, G, Dm7,
-1.9927286	C, Am, Dm7,
-1.1188217	Dm7, Am, Dm7,
-0.7583466	Am, Am, Dm7,
-0.5535707	Dm7/A, Am, Dm7,
-0.6466175	F, Am/E, Dm7,
-0.5756669	Dm7, Cm, Dm7,
-0.70151323	F, C/E, Dm7,
-0.61494184	E-/G, Fm, Dm7,
-0.18446161	C, Em7, Dm7,
-1.1308897	<s> C, Am,
-1.4786341	C, C, Am,
-1.1428957	F, C, Am,
-0.99119437	G, C, Am,
-0.20886877	Am, C, Am,
-0.70627016	G7, C, Am,
-0.5758492	Am/E, C, Am,
-0.8469312	Dm, C, Am,
-1.4790996	B-, C, Am,
-0.92157334	D, C, Am,
-1.0465525	Gsus4, C, Am,
-0.7571707	C/E, C, Am,
-0.2487084	G/D, C, Am,
-1.621642	F/C, C, Am,
-0.31750205	D-, C, Am,
-1.1711481	Dm7/F, C, Am,
-0.2487084	Gm/B-, C, Am,
-1.7715844	C, F, Am,
-1.2892176	G, F, Am,
-1.00598	Dm7, F, Am,
-1.4064046	Am, F, Am,
-1.2944015	B-, F, Am,
-1.2016608	C, G, Am,
-1.0151246	F, G, Am,
-1.101109	Am, G, Am,
-1.7740257	Dm, G, Am,
-0.85877657	C, Dm7, Am,
-0.44055867	Am, Dm7, Am,
-1.6576229	F, Am, Am,
-1.6567346	G, Am, Am,
-0.904701	Dm7, Am, Am,
-0.5480726	E/G#, Am, Am,
-0.66629446	C, E, Am,
-0.51831156	F, E, Am,
-0.42542836	G, E, Am,
-0.54193777	Am, D7, Am,
-0.68287015	Am, G7, Am,
-1.2135857	D7, G7, Am,
-0.09495169	C, Em/B, Am,
-0.27439848	A-, Dm, Am,
-1.2560617	F, B-, Am,
-0.855823	F, D, Am,
-0.47686127	C, Em, Am,
-1.2441114	F, Em, Am,
-0.28662407	Am, Em, Am,
-0.19348975	Am, Cm, Am,
-1.1944675	G7, Cm, Am,
-1.7585348	B-, Cm, Am,
-1.2117119	Cm, Cm, Am,
-0.7562551	Am, A-, Am,
-0.17660156	C, G7/B, Am,
-0.19184692	C, G/B, Am,
-0.17660156	Am, E/G#, Am,
-0.2597899	C/E, G11, Am,
-0.1115894	C, Em/G, Am,
-0.32877293	C, E7, Am,
-0.09160338	G, E7, Am,
-0.15438633	Ddim, E7, Am,
-0.6888175	C/G, Dm7/A, Am,
-2.1453693	F, C, E,
-0.6133281	Am7, F, E,
-1.9666184	G, F, E,
-1.0341241	Dm7, F, E,
-1.3898174	Gm, F, E,
-0.9892035	G/B, Am7, E,
-1.8554165	Dm, G, E,
-0.5680464	C/G, G, E,
-1.5919483	F/A, G, E,
-2.3184445	F, C, D7,
-0.27849215	F#o7, C, D7,
-2.8144517	C, F, D7,
-0.27194652	<s> Am7, D7,
-1.1746342	Dm7, Am, D7,
-0.5683724	G7, Am, D7,
-0.60705847	F#o7, C/G, D7,
-0.24623297	B--7, A7, D7,
-0.1834146	Em, E-7, D7,
-2.2631254	C, C, G7,
-2.1651566	F, C, G7,
-2.338724	G, C, G7,
-0.19307177	F7, C, G7,
-1.0217903	Dm7/F, C, G7,
-2.6011562	C, F, G7,
-1.6314993	Am, F, G7,
-0.32032788	G7, F, G7,
-1.1746475	Em, F, G7,
-1.4769633	Cm, G, G7,
-2.1115172	C, Am, G7,
-0.20252375	C, D7, G7,
-0.11078623	Am7, D7, G7,
-0.28926343	Am, D7, G7,
-0.09738291	C/G, D7, G7,
-0.11078623	A7, D7, G7,
-0.12656812	E-7, D7, G7,
-1.3261272	D7, G7, G7,
-1.8437842	C, B-, G7,
-1.2037638	F, Cm, G7,
-1.6121767	G, Cm, G7,
-1.3136821	A-, E-, G7,
-0.54580253	Em, B7, G7,
-0.40201414	Cm, A-7, G7,
-0.2656441	E-, A-7, G7,
-1.7698091	<s> C, Em/B,
-2.620707	F, C, Em/B,
-2.1175284	G, C, Em/B,
-1.2489418	Dm, C, Em/B,
-1.957523	B-, C, Em/B,
-1.0619287	D, C, Em/B,
-2.1269078	C, F, Am/E,
-1.6968019	F, F, Am/E,
-2.1833947	G, F, Am/E,
-1.5357666	Am, F, Am/E,
-0.55409527	Em/B, F, Am/E,
-0.8939562	C/G, F, Am/E,
-0.14219946	Am/E, Dm7, Am/E,
-1.6945542	<s> C, Dm,
-2.0339787	C, C, Dm,
-1.8109232	F, C, Dm,
-1.3946621	G, C, Dm,
-1.210371	Dm, C, Dm,
-1.3215514	B-, C, Dm,
-1.5832678	F/A, C, Dm,
-1.9893723	C, F, Dm,
-1.6884725	F, F, Dm,
-1.4985168	G, F, Dm,
-1.3981987	Dm, F, Dm,
-0.3422924	D/F#, F, Dm,
-0.55398124	C/E, Am7, Dm,
-0.98140234	G/B, Am7, Dm,
-1.8685101	F, G, Dm,
-0.8553163	Dm, G, Dm,
-1.79744	C, Am, Dm,
-0.74964166	Am, Am, Dm,
-0.89737475	E, Am, Dm,
-0.31167528	G7/B, Am, Dm,
-0.30769357	F, D7, Dm,
-0.18286395	F, Am/E, Dm,
-1.4637498	G, Dm, Dm,
-1.5046757	Em, Dm, Dm,
-0.604565	Gm/D, Dm, Dm,
-1.2573621	F, B-, Dm,
-0.23673326	Dm, A, Dm,
-0.16441184	B-, A, Dm,
-0.23673326	G/B, A, Dm,
-0.107615255	F, Em, Dm,
-0.7453121	Dm, Em, Dm,
-0.30430588	A9, Em, Dm,
-1.2750559	<s> Cm, Dm,
-1.8964937	B-, Cm, Dm,
-1.5356101	A-, Cm, Dm,
-1.224307	Gm, Cm, Dm,
-1.1061999	Am, A-, Dm,
-0.9710148	F, C/E, Dm,
-0.43597093	Dm, C/E, Dm,
-1.0733168	C, Gm, Dm,
-0.5223933	Dm, Gm, Dm,
-0.3073303	F, Cmaj7, Dm,
-0.13429733	Em, E-m, Dm,
-0.17702426	Dm, C#dim, Dm,
-0.16105545	Dm, Gm/D, Dm,
-0.15468961	E-, Gm/D, Dm,
-0.15468961	Gm/D, Gm/D, Dm,
-0.19020583	B-/F, Em7/G, Dm,
-0.24291705	Dm9, Em7, Dm,
-1.1632062	<s> C, B-,
-1.1274263	C, C, B-,
-1.505126	F, C, B-,
-2.0986352	G, C, B-,
-1.6398749	Am, C, B-,
-1.5347052	G7, C, B-,
-0.94776195	Dm, C, B-,
-0.39091077	B-, C, B-,
-0.9581031	A-, C, B-,
-0.9622801	F/A, C, B-,
-0.3029635	E-, C, B-,
-0.25750208	B-m7, C, B-,
-0.53521305	A-7, C, B-,
-1.9083031	C, F, B-,
-1.2757157	Am, F, B-,
-0.5611149	Em/B, F, B-,
-1.5239888	B-, F, B-,
-2.1492383	C, G, B-,
-2.427324	F, G, B-,
-1.687177	Am, G, B-,
-0.9549036	Cm, G, B-,
-0.3357948	Am7, E, B-,
-0.26736048	<s> Dm, B-,
-0.3437226	B-, Dm, B-,
-1.1386671	A, Dm, B-,
-1.3300961	C, B-, B-,
-1.0643557	B-, B-, B-,
-1.3391083	Cm, B-, B-,
-0.91968334	<s> Cm, B-,
-1.5517318	F, Cm, B-,
-0.8131218	G, Cm, B-,
-0.2545315	B-, Cm, B-,
-0.7218886	Cm, Cm, B-,
-0.63583773	A-, Cm, B-,
-0.93800426	E-, Cm, B-,
-0.25327444	Gm/B-, Cm, B-,
-0.6244997	G, A-, B-,
-0.66497815	Am, A-, B-,
-0.58046186	B-, A-, B-,
-0.5104005	Gsus4, A-, B-,
-0.44198537	Cm, A-, B-,
-0.8105537	C, E-, B-,
-0.53627104	G, E-, B-,
-0.181564	Dm, E-, B-,
-0.1408224	B-, E-, B-,
-1.5698179	Cm, E-, B-,
-0.60959345	A-, E-, B-,
-0.21494459	<s> Fm, B-,
-0.21494459	Am7, Fm, B-,
-1.3509629	Cm, Fm, B-,
-0.89925444	A-, Fm, B-,
-0.26495537	Gm, Fm, B-,
-0.21494459	Gm/B-, Fm, B-,
-0.23208064	F#, B, B-,
-0.33662817	F/A, A-7, B-,
-0.18042076	Dm, Am/C, B-,
-2.4797945	F, C, D,
-2.2966168	C, F, D,
-0.6582197	C/G, F, D,
-2.5832572	C, G, D,
-1.2899387	C, Am, D,
-1.6948655	F, Am, D,
-1.6956813	G, Am, D,
-0.5544938	G7, Am, D,
-0.63798416	F, E, D,
-0.5022068	Am, D, D,
-0.8469997	D, D, D,
-0.580093	E, A, D,
-1.3657863	F, Em, D,
-1.6958842	F, C/E, D,
-0.48065415	A7, F, A,
-0.82799655	F, E, A,
-0.5773268	G, E, A,
-0.870403	A, Dm, A,
-1.6274444	C, B-, A,
-0.56412417	G, D, A,
-0.5975727	Cm, G/B, A,
-2.542069	Am, F, Am
-1.1819078	F, E, Am
-2.410679	C, C, Gsus4,
-2.9392128	F, C, Gsus4,
-0.7576387	C, D7, Gsus4,
-1.0812196	A-, B-, Gsus4,
-0.9731053	B-, Gsus4, Gsus4,
-1.6894233	Cm, A-, Gsus4,
-0.79813427	C, F/C, Gsus4,
-0.05824147	Cmaj7, F/C, Gsus4,
-1.8296368	<s> C, Em,
-2.1619375	C, C, Em,
-2.4514961	F, C, Em,
-2.4364173	G, C, Em,
-1.4993287	G7, C, Em,
-1.3944365	Dm, C, Em,
-1.6371901	B-, C, Em,
-0.7659019	Em, C, Em,
-2.2274284	C, F, Em,
-1.5062139	G, F, Em,
-0.5846031	Dm, F, Em,
-1.6222773	E-, F, Em,
-0.3462323	Am9, F, Em,
-2.596616	F, G, Em,
-0.69283557	<s> Am, Em,
-2.0889192	C, Am, Em,
-1.367562	G, Am, Em,
-0.9275163	Am, Am, Em,
-1.072171	Em, Am, Em,
-1.0680187	Cm, Am, Em,
-0.7105553	C, Dm, Em,
-0.92126733	G, Dm, Em,
-0.15895799	C, B7, Em,
-0.15895799	Am, B7, Em,
-0.33562145	Em, B7, Em,
-0.23465356	F/C, B, Em,
-0.2980365	Bm, A9, Em,
-1.9548419	<s> C, F7,
-2.2950656	C, C, F7,
-2.7646008	G, C, F7,
-1.2225868	G7, C, F7,
-0.7394508	F7, C, F7,
-1.2151566	Em, Am, F7,
-0.6700295	C, G7, F7,
-0.3900209	Cm, G7, F7,
-0.6315787	<s> C7, F7,
-1.1083934	F, C7, F7,
-0.7901055	G, C7, F7,
-2.059882	F, C, F
-2.927547	G, C, F
-2.3497937	C, G, F
-2.4522626	F, G, F
-1.8874562	Am, G, F
-1.100606	C7, G, F
-2.366908	C, Am, F
-1.9733999	G, Am, F
-1.5561353	C, Gm7, F
-1.46534	F, C7, F
-1.5140156	C, Am, C/G,
-0.7622882	Em/B, Am, C/G,
-0.13890563	Em/G, Am, C/G,
-0.9255194	E7, Am, C/G,
-0.8661633	Am7, Dm, C/G,
-1.9332751	C, F/A, C/G,
-0.25362903	F, F#o7, C/G,
-0.13845487	C/G, F#o7, C/G,
-0.07694158	Bm/F#, F#o7, C/G,
-0.27040693	C/G, Bo7/A-, C/G,
-0.5487994	C, E7, C/G,
-0.19672011	Dm, G7/F, C/G,
-0.1705136	Am7, Dm7/A, C/G,
-0.1705136	Am, Dm7/A, C/G,
-0.23585561	C/G, Dm7/A, C/G,
-2.3259728	C, C, G
-2.6851656	F, C, G
-2.6594577	G, C, G
-1.3335121	Dm7, C, G
-2.4321089	C, F, G
-2.125091	Am, F, G
-1.735743	G, G, G
-1.4434522	C, Dm7, G
-0.5361134	Fm, Dm7, G
-2.3501656	C, Am, G
-1.7824655	F, Am, G
-1.751666	C, Dm, G
-0.54377925	D7, Dm, G
-1.4695686	Em, Dm, G
-0.54377925	C#dim, Dm, G
-1.8814782	G, Cm, G
-1.1818804	G, Fm, G
-1.1361228	E-, Fm, G
-2.3317919	C, C, Cm,
-2.691226	F, C, Cm,
-2.3262537	C, F, Cm,
-1.6187567	F, F, Cm,
-2.0644467	G, F, Cm,
-1.9367397	Am, F, Cm,
-1.1292152	B-, F, Cm,
-0.5424872	Cm, F, Cm,
-1.3586189	E-, F, Cm,
-0.25720024	B-/D, F, Cm,
-0.48150566	Cm, Am7, Cm,
-2.2042696	C, G, Cm,
-2.3599346	F, G, Cm,
-0.23609737	Cm, G, Cm,
-1.5996479	F/A, G, Cm,
-0.19694664	E-, G, Cm,
-0.4765253	Fm, G, Cm,
-0.46189997	FmM7/A-, G, Cm,
-1.2909441	G, Dm7, Cm,
-2.1309805	C, Am, Cm,
-0.33828712	Cm, Am, Cm,
-0.35806745	<s> G7, Cm,
-1.0975168	C, G7, Cm,
-0.24109866	G, G7, Cm,
-0.8169296	D7, G7, Cm,
-0.56791836	Cm, G7, Cm,
-0.22338925	E-, G7, Cm,
-0.10402912	A-7, G7, Cm,
-0.4929833	<s> B-, Cm,
-0.52956504	B-, B-, Cm,
-0.41822857	Cm, B-, Cm,
-0.31925127	A-, B-, Cm,
-0.84610087	E-, B-, Cm,
-0.24221222	Fm, B-, Cm,
-0.2981168	A-7, B-, Cm,
-0.5690966	E, A, Cm,
-0.42240322	<s> Gsus4, Cm,
-0.457558	B-, Gsus4, Cm,
-0.19436155	Gsus4, Gsus4, Cm,
-0.24349616	A-, Gsus4, Cm,
-1.0699416	<s> Cm, Cm,
-1.4820068	F, Cm, Cm,
-1.4696456	G, Cm, Cm,
-0.510099	Dm7, Cm, Cm,
-0.918909	Am, Cm, Cm,
-1.6349648	B-, Cm, Cm,
-0.8152327	Cm, Cm, Cm,
-1.4847555	E-, Cm, Cm,
-0.93145126	Gm, Cm, Cm,
-0.510099	Fm/C, Cm, Cm,
-0.24206945	<s> A-, Cm,
-0.4170189	F, A-, Cm,
-0.76582354	G, A-, Cm,
-0.29480237	B-, A-, Cm,
-0.3489268	Cm, A-, Cm,
-0.44571692	A-, A-, Cm,
-0.030263001	E-, A-, Cm,
-0.20800003	A-/C, A-, Cm,
-0.56546885	B-/D, A-, Cm,
-1.1152911	B-, E-, Cm,
-0.3506164	Cm, E-, Cm,
-0.95278686	A-, E-, Cm,
-0.78420216	E-, E-, Cm,
-0.6732828	Fm, E-, Cm,
-0.086843394	Cm/E-, E-, Cm,
-0.98524696	A-, Fm, Cm,
-1.0363995	E-, Fm, Cm,
-0.23877168	Fm/C, Fm, Cm,
-0.5326044	E-/G, Fm, Cm,
-0.30842337	Dm, Gm, Cm,
-0.10777139	Cm, Gm, Cm,
-0.04412272	Fm, Gm, Cm,
-0.21694912	B-7, Gm, Cm,
-0.2820443	Gm/B-, A7, Cm,
-0.2385827	G, Gm/B-, Cm,
-0.26165238	Fmaj7/C, A-/C, Cm,
-0.3832541	Cm, Fm/C, Cm,
-0.16766284	<s> Ddim, Cm,
-0.19354953	B-, Ddim, Cm,
-0.2067962	<s> A-7, Cm,
-0.2601391	F, A-7, Cm,
-0.6406325	Cm, A-7, Cm,
-0.3724111	E-, B-/D, Cm,
-2.926502	G, C, A-,
-2.394587	C, F, A-,
-0.7238112	B-, F, A-,
-0.5547329	E-, F, A-,
-2.3700411	C, G, A-,
-2.1285822	F, G, A-,
-1.2347014	D, G, A-,
-0.6204727	F#, G, A-,
-1.2312188	Fm, G, A-,
-2.193112	C, Am, A-,
-0.2661379	Dm, Am, A-,
-1.0036371	Em, Am, A-,
-0.34198982	A-, Am, A-,
-0.98939526	C, B-, A-,
-1.067447	B-, B-, A-,
-0.4324045	Cm, B-, A-,
-1.2200876	A-, B-, A-,
-0.47348633	E-, B-, A-,
-0.7848767	Fm, B-, A-,
-1.3306001	Am, D, A-,
-0.75002784	B-, Gsus4, A-,
-0.9252787	<s> Cm, A-,
-0.6391624	C, Cm, A-,
-1.3344178	G, Cm, A-,
-1.0308211	G7, Cm, A-,
-0.79256576	B-, Cm, A-,
-0.09064975	Gsus4, Cm, A-,
-1.1217015	Cm, Cm, A-,
-0.6280633	A-, Cm, A-,
-1.267598	E-, Cm, A-,
-0.613327	Fm, Cm, A-,
-0.71243864	A-/C, Cm, A-,
-0.30308396	Ddim, Cm, A-,
-1.8028414	B-, A-, A-,
-0.08357019	F, E-, A-,
-0.9554272	G, E-, A-,
-1.397467	Cm, Fm, A-,
-0.2554164	A-, Fm, A-,
-0.2933385	Dm, CmM7, A-,
-0.7242847	Fmaj7/C, A-/C, A-,
-0.37452397	E-, B-/D, A-,
-2.1500075	B-, C, B-
-2.3394473	A-, Cm, B-
-1.9370446	B-, A-, B-
-1.9137758	Cm, A-, B-
-1.0280222	G, E-, B-
-1.0389217	Dm, C, C/E,
-2.201456	C, F, C/E,
-2.2822468	G, F, C/E,
-0.3047249	Dm7, F, C/E,
-1.2674702	Am, F, C/E,
-0.37493074	C/E, F, C/E,
-0.34194025	F#m7, F, C/E,
-1.8670783	Dm, G, C/E,
-0.5700273	C/G, G, C/E,
-1.0701472	Am, Dm7, C/E,
-2.3053615	C, Am, C/E,
-1.0776154	F, Am, C/E,
-1.6529136	G, Am, C/E,
-0.8418643	Am7, Dm, C/E,
-1.2567298	Em, Dm, C/E,
-1.5147307	F, C/E, C/E,
-0.63772744	Am7, FM9, C/E,
-3.0749438	C, F, C/E
-1.7872977	<s> C, F/A,
-2.134182	C, C, F/A,
-1.540118	G, C, F/A,
-0.11288279	F/A, C, F/A,
-1.6505821	F/C, C, F/A,
-1.8742614	Dm, G, F/A,
-0.60574776	F/A, G, F/A,
-1.1683992	C, B-, F/A,
-0.8898672	Dm, B-, F/A,
-1.8265003	Cm, B-, F/A,
-0.30666488	Am/C, B-, F/A,
-1.4442909	<s> Cm, F/A,
-0.19812886	G/B, CmM7/B, F/A,
-1.9713647	<s> C, E-,
-1.8394376	F, C, E-,
-2.7866912	G, C, E-,
-1.5003425	B-, C, E-,
-2.5174065	C, F, E-,
-1.6580136	F, F, E-,
-1.669735	B-, F, E-,
-0.2082904	Cm, F, E-,
-0.54475445	A-, F, E-,
-1.395843	E-, F, E-,
-0.6737803	CmM7, F, E-,
-2.6409361	C, G, E-,
-2.1917703	F, G, E-,
-1.9199055	Am, G, E-,
-0.35129145	Cm, Dm, E-,
-1.0328282	Cm, B-, E-,
-0.26992208	B, B-, E-,
-0.9493944	<s> Cm, E-,
-1.4726328	F, Cm, E-,
-0.932711	G, Cm, E-,
-0.49707788	G7, Cm, E-,
-1.4855884	B-, Cm, E-,
-1.048205	Cm, Cm, E-,
-1.2922995	A-, Cm, E-,
-0.26772353	E-, Cm, E-,
-0.8055199	Fm, Cm, E-,
-0.56515044	A-7, Cm, E-,
-0.09204801	B-/D, Cm, E-,
-0.7394761	F, A-, E-,
-0.8737129	G, A-, E-,
-0.974554	B-, A-, E-,
-0.49565566	Gsus4, A-, E-,
-1.4429414	Cm, A-, E-,
-0.7401554	B-/D, A-, E-,
-1.363072	A-, E-, E-,
-0.73677343	E-, E-, E-,
-0.4507835	Fm, E-, E-,
-1.5900989	Cm, Fm, E-,
-0.3355701	G-, Fm, E-,
-0.21317741	E-, Dm9, E-,
-0.06339844	D-, Cm/E-, E-,
-2.2366135	C, C, Gm7,
-1.4098479	F, C, Gm7,
-2.8074362	G, C, B7,
-1.1822488	Dm7, Am, B7,
-0.27565196	D7, Am, B7,
-0.40579748	B7, Em, B7,
-2.9905472	G, C, C7,
-2.6945355	C, F, C7,
-1.7410264	G, F, C7,
-0.34955135	C7, F, C7,
-2.2028072	C, G, C7,
-1.1374192	C7, G, C7,
-0.32457975	B7, G7, C7,
-0.21707597	C7, F7, C7,
-1.3060006	F, C7, C7,
-0.82994527	G, C7, C7,
-0.14440578	A-, G, F#,
-1.933081	E-, A-, F#,
-1.7394599	F, C/E, F#o7/E-,
-0.16146237	C/E, F#o7/E-, G/D,
-0.6336461	Am, Dm, Bm7,
-0.33286276	Bm7, C, G7/B,
-1.7368146	<s> C, G/B,
-2.0794258	C, C, G/B,
-1.592149	F, C, G/B,
-1.016072	Am7, C, G/B,
-2.1020894	G, C, G/B,
-1.4815426	Am, C, G/B,
-0.23188244	G9, C, G/B,
-0.72618186	C, Cm, G/B,
-1.9606655	B-, Cm, G/B,
-0.31964886	A, Cm, G/B,
-0.76913226	A-7, Cm, G/B,
-0.64189005	Am7, FM9, G/B,
-2.749268	G, C, Fm,
-0.7194386	Cm, Am7, Fm,
-2.6279924	C, G, Fm,
-1.6644902	G, G, Fm,
-0.49291888	Fm, G, Fm,
-1.3666737	Em, Am, Fm,
-1.6362338	G/B, Am, Fm,
-1.009115	Am, D, Fm,
-1.3582422	B-, Cm, Fm,
-1.5420287	E-, Cm, Fm,
-0.91417277	Fm, Cm, Fm,
-0.48703912	Gm, Cm, Fm,
-0.10193964	Fm, A-, Fm,
-0.520158	A-, E-, Fm,
-0.9579047	E-, E-, Fm,
-0.9914335	Cm, Gm, Fm,
-0.2936037	Gm, Gm, Fm,
-0.7363016	Cm, Gm/B-, Fm,
-0.5635459	Cm, Fm/C, Fm,
-0.13674046	A-, E-/G, Fm,
-0.1939163	B-, G-, Fm,
-1.9032285	<s> C, F/C,
-1.6779655	C, C, F/C,
-1.6999676	G, C, F/C,
-1.7967718	Am, C, F/C,
-1.6889744	Dm, C, F/C,
-0.15642266	F/C, C, F/C,
-1.0416553	F#, G, F/C,
-1.2041125	E, Am, F/C,
-1.3511484	C, F/C, F/C,
-0.13871522	<s> Cmaj7, F/C,
-0.15926448	C, Cmaj7, F/C,
-0.049835537	Gsus4, Cmaj7, F/C,
-0.2148179	F, Bo7/A-, F/C,
-1.9512002	F/C, C, E/B,
-0.21646456	A-, F#, B,
-1.8817384	C, F/C, B,
-0.16059113	C, E/B, B,
-0.23784797	E/B, B, E-/B-,
-1.662293	G/B, Am, E/G#,
-0.57143646	E/G#, Am, E/G#,
-0.18725395	C, Am7, G11,
-2.1343474	Dm, G, G11,
-0.33090302	Am7, Dm7, G11,
-0.44678837	Em7, Dm7, G11,
-0.57640004	Dm7/A, Am, G11,
-0.84494406	Dm7/A, C/G, G11,
-0.2730885	Dm7, C/E, G11,
-0.56932485	Am, Fm, G11,
-1.7515472	<s> C, Gm,
-1.5317546	F, C, Gm,
-2.69292	G, C, Gm,
-1.4776336	B-, C, Gm,
-0.32069483	Cm, C, Gm,
-0.7033203	Gm, C, Gm,
-1.8534282	C, F, Gm,
-0.9424115	Dm, Dm, Gm,
-0.68180203	Cm, Dm, Gm,
-0.4136652	Gm, Dm, Gm,
-0.9356469	Gm/D, Dm, Gm,
-1.5297554	G, Cm, Gm,
-1.4747481	B-, Cm, Gm,
-0.89461565	Cm, Cm, Gm,
-0.90203375	Fm, Cm, Gm,
-0.40526265	Gm, Cm, Gm,
-0.9296911	B-, F/A, Gm,
-0.11268552	Cm, Fm, Gm,
-1.5353187	Cm, Gm, Gm,
-0.15878157	<s> B-7, Gm,
-1.2009915	Gsus4, C, Cmaj7,
-1.614365	B-, F, Cmaj7,
-0.47183928	F/C, Gsus4, Cmaj7,
-1.7673094	G, F, Bm/F#,
-1.1635559	C/G, F, F#o7,
-1.5545784	C7, F, F#o7,
-0.55977297	E7, C/G, F#o7,
-0.0882276	F, Bm/F#, F#o7,
-0.8370807	F#o7, C/G, A7,
-1.1513247	C, Gm, A7,
-0.5549874	Cm, Gm/B-, A7,
-0.16022858	G7, B--7, A7,
-0.86748713	Am7, F, G#o7,
-0.86283356	A7, F, G#o7,
-1.1173156	A7, F, Bo7/A-,
-0.34866807	G7/F, C/G, Bo7/A-,
-3.0619485	F, C, D-,
-1.2109116	E, Am, D-,
-1.3691645	<s> Cm, D-,
-2.0311613	B-, Cm, D-,
-0.9835916	E-, Cm, D-,
-1.8271128	Cm, A-, D-,
-0.24848908	Am, D-, C/G
-1.9909428	B-, F, A-
-1.8515826	A-, B-, A-
-1.620515	E-, B-, A-
-2.074715	Cm, F, CmM7,
-0.57107353	A-, F, CmM7,
-0.71327156	CmM7, F, CmM7,
-1.7328424	C, Dm, CmM7,
-1.1459149	B-/D, A-, CmM7,
-0.7672692	F, CmM7, CmM7,
-0.32936624	CmM7, A-, B-m7,
-0.8242676	Dm, Em, E-m,
-2.2376323	F, C, Em/G,
-1.7456278	G, Am, Em/G,
-2.0827203	Cm, F, Cm
-1.7261301	E-, F, Cm
-1.8527545	Cm, G, Cm
-1.9940722	Cm, B-, Cm
-2.3241751	A-, Cm, Cm
-0.55623317	A-, A-, Cm
-1.8830262	E-, A-, Cm
-1.6167623	Fm, Gm, Cm
-1.019888	Cm, A-7, Cm
-2.1634214	Dm, G, F#o7/C,
-1.4413924	Em, Dm, C#dim,
-2.4272096	C, C, Dm7/F,
-0.6524387	Dm7/F, C, Dm7/F,
-2.4840853	C, F, Dm7/F,
-1.2422816	G, Am, Dm7/F,
-0.9417499	C, Dm7/F, Dm7/F,
-0.8347636	E, Am, D/F#,
-1.8776239	F/A, G, Gm/B-,
-0.32721737	Am7, Cm, Gm/B-,
-0.32721737	A7, Cm, Gm/B-,
-2.2357678	Cm, B-, F/A
-1.9508709	A-, Cm, Fmaj7/C,
-0.48046988	A-/C, Cm, Fmaj7/C,
-0.21251248	Cm, Fmaj7/C, A-/C,
-0.8213001	Cm, Fmaj7/C, A-/C
-0.63399035	Dm, Dm, Gm/D,
-1.2700111	Cm, Dm, Gm/D,
-0.6133343	Gm/D, Dm, Gm/D,
-1.7938203	Cm, E-, Gm/D,
-0.8320501	Dm, Gm/D, Gm/D,
-1.4882364	Cm, Cm, Fm/C,
-1.8030945	E-, Cm, Fm/C,
-1.9655058	Gm, Cm, Fm/C,
-0.5800351	Fm/C, Cm, Fm/C
-2.0679476	<s> C, Fmaj7/A,
-2.6696336	F, C, Fmaj7/A,
-1.1277498	Dm7, C, Fmaj7/A,
-1.46733	Cm, A-, E-/G,
-1.7534136	F, C, G+11,
-2.0816743	<s> C, E7,
-1.484172	G7, C, E7,
-2.0976026	F, G, E7,
-0.8318879	C, Ddim, E7,
-0.7855869	B7, Em, E-7,
-1.3464183	D7, G7, B--7,
-1.8867173	G7, C, F#dim
-0.9650746	C/E, Dm7, B-/F,
-0.08820683	<s> B-/F, Em7/G,
-0.10038727	Dm7, B-/F, Em7/G,
-0.36108243	Em7/G, Dm, G7/F,
-0.3492734	Bo7/A-, C/G, F#m7,
-1.7394599	F, C/E, Dm7
-1.3789624	<s> Cm, Gm7/B-,
-0.7389432	C, Cm, Gm7/B-,
-1.6182349	G, Cm, Gm7/B-,
-0.14086379	Cm, Gm7/B-, FmM7/A-,
-1.3588977	Dm7, C, Ddim,
-1.5668999	G11, C, Ddim,
-0.14351359	Ddim, C, Ddim,
-1.7218182	A-, B-, Ddim,
-0.35225922	E7/G#, Am7, Dm7/A,
-0.27565196	G11, Am, Dm7/A,
-0.95839274	E7, Am, Dm7/A,
-0.35529983	Dm7/A, C/G, Dm7/A,
-0.6181203	Dm7, G11, E7/G#,
-1.200661	Dm7/A, C/G, Dm7/A
-0.25913832	FM9, C, FM9,
-1.1546977	C, Am7, FM9,
-0.5026125	C/E, Am7, FM9,
-0.8776367	G/B, Am7, FM9,
-0.119432434	FM9, Am7, FM9,
-1.9183394	Dm, G, FM9,
-0.6898222	G, C/E, FM9,
-0.78243965	Dm, C/E, FM9,
-0.90237427	C, FM9, FM9
-3.0300603	F, C, A-7,
-1.4007199	E-, F, A-7,
-1.8471016	F, Am, A-7,
-0.74135953	G7, Cm, A-7,
-1.4686913	Cm, Cm, A-7,
-1.0071545	A-7, Cm, A-7,
-0.33995143	CmM7/B, F/A, A-7,
-0.78994274	E-, E-, A-7,
-1.5113183	G, Am, C7/B-,
-2.5486393	Am, F, G7
-1.5751264	Cm, Cm, Gm
-2.0679476	<s> C, Am9,
-2.9223669	G, C, Am9,
-0.2787178	A9, C, Am9,
-1.5569029	Dm, C, Bm,
-1.10133	C, Em, A9,
-0.19971208	C, Bm, A9,
-1.0319176	G, E-, Dm9,
-0.43139085	Em, A9, Dm9,
-0.95911145	G11, C, Em7,
-0.25305548	A9, Dm9, Em7,
-0.0938543	Cm, D-, Cm/E-,
-1.87806	Cm, B-, G-,
-3.1011667	F, C, Gsus4
-1.0529424	Am7, C, G9,
-2.9616835	G, C, G9,
-1.0164821	A, Dm, Am/C,
-0.8551822	Em7, Dm7, G11
-0.6031129	Cm, G/B, CmM7/B,
-2.3518507	A-, Cm, B-/D,
-1.3225554	F, E-, B-/D,
-0.8662381	Cm, E-, B-/D,
-1.2253792	A-, E-, B-/D,

\end\
