\data\
ngram 1=114
ngram 2=539
ngram 3=1262
ngram 4=1977
ngram 5=2565

\1-grams:
-3.0330803	<unk>	0
0	<s>	-0.8536464
-1.425819	</s>	0
-1.1164863	C,	-0.62516016
-1.2234703	F,	-0.55569565
-1.7668828	Am7,	-0.3091105
-1.5491892	C	-1.0570282
-1.3298528	G,	-0.5546091
-1.6816164	Dm7,	-0.35932076
-1.3657365	Am,	-0.4752091
-2.1063309	E,	-0.2831199
-1.8730835	D7,	-0.43996018
-1.6445365	G7,	-0.5024909
-2.8180563	Em/B,	-0.18651102
-2.4622	Am/E,	-0.18651102
-1.3848552	Dm,	-0.5024818
-1.5787054	B-,	-0.4675841
-1.7668828	D,	-0.35375145
-1.9378355	A,	-0.31518874
-2.4622	Am	-0.4142045
-1.8730835	Gsus4,	-0.30942428
-1.816745	Em,	-0.31367436
-2.1063309	F7,	-0.26389363
-2.0139625	F	-0.57990694
-1.816745	C/G,	-0.24477346
-1.816745	G	-0.784027
-1.3657365	Cm,	-0.5400042
-1.5491892	A-,	-0.42872447
-2.1063309	B-	-0.48299697
-1.816745	C/E,	-0.32033554
-2.8180563	C/E	-0.18651102
-2.0139625	F/A,	-0.34801212
-1.6816164	E-,	-0.43706056
-2.8180563	Gm7,	-0.18651102
-2.2238045	B7,	-0.3084151
-1.8730835	C7,	-0.4463028
-2.4622	F#,	-0.18651102
-2.8180563	F#o7/E-,	-0.18651102
-2.8180563	G/D,	-0.18651102
-2.8180563	Bm7,	-0.18651102
-2.8180563	G7/B,	-0.18651102
-2.2238045	G/B,	-0.25000077
-1.5787054	Fm,	-0.44764408
-1.8730835	F/C,	-0.4351623
-2.8180563	E/B,	-0.18651102
-2.2238045	B,	-0.18651102
-2.8180563	E-/B-,	-0.18651102
-2.8180563	E/G#,	-0.18651102
-1.8730835	G11,	-0.48526305
-1.816745	Gm,	-0.35272858
-2.1063309	Cmaj7,	-0.3084151
-2.8180563	Bm/F#,	-0.18651102
-2.2238045	F#o7,	-0.3084151
-2.1063309	A7,	-0.28560358
-2.8180563	G#o7,	-0.18651102
-2.4622	Bo7/A-,	-0.18651102
-2.1063309	D-,	-0.28560358
-2.8180563	C/G	-0.18651102
-2.4622	A-	-0.4142045
-2.1063309	CmM7,	-0.28114307
-2.8180563	B-m7,	-0.18651102
-2.8180563	E-m,	-0.18651102
-2.4622	Em/G,	-0.18651102
-1.8730835	Cm	-0.726035
-2.8180563	F#o7/C,	-0.18651102
-2.8180563	C#dim,	-0.18651102
-2.1063309	Dm7/F,	-0.36032432
-2.8180563	D/F#,	-0.18651102
-2.4622	Gm/B-,	-0.18651102
-2.8180563	F/A	-0.18651102
-2.8180563	Fmaj7/C,	-0.18651102
-2.8180563	A-/C,	-0.18651102
-2.8180563	A-/C	-0.18651102
-2.2238045	Gm/D,	-0.3084151
-2.8180563	Fm/C,	-0.18651102
-2.8180563	Fm/C	-0.18651102
-2.8180563	Fmaj7/A,	-0.18651102
-2.8180563	E-/G,	-0.18651102
-2.4622	G+11,	-0.4142045
-2.2238045	E7,	-0.3084151
-2.8180563	E-7,	-0.18651102
-2.8180563	B--7,	-0.18651102
-2.8180563	F#dim	-0.18651102
-2.4622	B-/F,	-0.4142045
-2.8180563	Em7/G,	-0.18651102
-2.8180563	G7/F,	-0.18651102
-2.8180563	F#m7,	-0.18651102
-2.8180563	Dm7	-0.18651102
-2.8180563	Gm7/B-,	-0.18651102
-2.8180563	FmM7/A-,	-0.18651102
-2.2238045	Ddim,	-0.28560358
-2.2238045	Dm7/A,	-0.3084151
-2.8180563	E7/G#,	-0.18651102
-2.8180563	Dm7/A	-0.18651102
-2.0139625	FM9,	-0.29305306
-2.8180563	FM9	-0.18651102
-1.8730835	A-7,	-0.3353238
-2.8180563	C7/B-,	-0.18651102
-2.8180563	G7	-0.18651102
-2.8180563	B-7,	-0.18651102
-2.8180563	Gm	-0.18651102
-2.8180563	Am9,	-0.18651102
-2.8180563	Bm,	-0.18651102
-2.4622	A9,	-0.18651102
-2.4622	Dm9,	-0.18651102
-2.4622	Em7,	-0.18651102
-2.8180563	Cm/E-,	-0.18651102
-2.8180563	G-,	-0.18651102
-2.8180563	Gsus4	-0.18651102
-2.8180563	G9,	-0.18651102
-2.8180563	Am/C,	-0.18651102
-2.8180563	G11	-0.18651102
-2.8180563	CmM7/B,	-0.18651102
-2.4622	B-/D,	-0.18651102

\2-grams:
-0.03829642	C </s>	0
-0.20124117	Am </s>	0
-0.1268039	F </s>	0
-0.07482144	G </s>	0
-0.16527273	B- </s>	0
-0.42764702	C/E </s>	0
-0.42764702	C/G </s>	0
-0.20124117	A- </s>	0
-0.086645715	Cm </s>	0
-0.42764702	F/A </s>	0
-0.42764702	A-/C </s>	0
-0.42764702	Fm/C </s>	0
-0.42764702	F#dim </s>	0
-0.42764702	Dm7 </s>	0
-0.42764702	Dm7/A </s>	0
-0.42764702	FM9 </s>	0
-0.42764702	G7 </s>	0
-0.42764702	Gm </s>	0
-0.42764702	Gsus4 </s>	0
-0.42764702	G11 </s>	0
-0.24135779	<s> C,	-0.58880347
-1.0435146	C, C,	-0.2966495
-0.839312	F, C,	-0.3392013
-0.9753811	Am7, C,	-0.16266537
-0.6532777	G, C,	-0.39264652
-0.9585822	Dm7, C,	-0.20111845
-1.0339462	Am, C,	-0.20686151
-0.58352166	G7, C,	-0.25812864
-0.779491	Am/E, C,	-0.16266532
-0.84980005	Dm, C,	-0.23355728
-0.8616349	B-, C,	-0.26402998
-0.8946469	D, C,	-0.16266532
-0.7498557	Gsus4, C,	-0.16266532
-0.9769941	Em, C,	-0.16266532
-0.54131424	F7, C,	-0.22170198
-1.5920695	Cm, C,	-0.16266532
-1.157492	A-, C,	-0.24330992
-0.932584	C/E, C,	-0.16266537
-0.7672146	F/A, C,	-0.16266537
-1.4210176	E-, C,	-0.16266532
-0.39912298	G/D, C,	-0.16266532
-0.64908755	Bm7, C,	-0.16266532
-0.99484503	G/B, C,	-0.16266532
-1.1377783	Fm, C,	-0.24330992
-0.3429936	F/C, C,	-0.31023532
-0.21424969	G11, C,	-0.1732728
-0.9736149	Gm, C,	-0.24330992
-0.90351844	F#o7, C,	-0.16266532
-0.39912298	G#o7, C,	-0.16266532
-0.45970663	D-, C,	-0.29004568
-0.64908755	B-m7, C,	-0.16266532
-0.39912298	F#o7/C, C,	-0.16266532
-0.31804648	Dm7/F, C,	-0.20923519
-0.8630941	Gm/B-, C,	-0.16266532
-0.19100064	G+11, C,	-0.24330992
-0.64908755	FmM7/A-, C,	-0.16266532
-0.8965244	Ddim, C,	-0.16266532
-0.64565754	FM9, C,	-0.18140195
-0.76463705	A-7, C,	-0.16266532
-0.779491	A9, C,	-0.16266532
-0.39912298	G9, C,	-0.16266532
-1.2455595	<s> F,	-0.31277028
-0.95413595	C, F,	-0.36884433
-1.4228964	F, F,	-0.19664417
-1.010383	Am7, F,	-0.16266537
-0.86678094	G, F,	-0.38939142
-1.0861	Dm7, F,	-0.16266537
-0.8730584	Am, F,	-0.28607836
-1.1552767	E, F,	-0.16266532
-1.477005	G7, F,	-0.16266532
-0.6706527	Em/B, F,	-0.16266532
-0.9957607	Dm, F,	-0.21468547
-0.9499202	B-, F,	-0.22698613
-0.9206035	D, F,	-0.22170198
-0.68918145	A, F,	-0.29004568
-1.2335063	Gsus4, F,	-0.16266532
-0.91144377	Em, F,	-0.18140195
-0.890788	C/G, F,	-0.20923519
-1.2639419	Cm, F,	-0.20108473
-1.5115916	A-, F,	-0.16266532
-0.805691	C/E, F,	-0.29004568
-0.89576995	E-, F,	-0.20923519
-0.6706527	Gm7, F,	-0.16266532
-0.47664848	C7, F,	-0.20554842
-0.9009167	Gm, F,	-0.22170198
-0.47067168	A7, F,	-0.16266537
-0.43390974	CmM7, F,	-0.22170198
-0.6706527	Em/G, F,	-0.16266532
-0.41111892	D/F#, F,	-0.16266532
-0.41111892	F#m7, F,	-0.16266532
-0.41111892	C7/B-, F,	-0.16266532
-0.41111892	Am9, F,	-0.16266532
-0.8088692	B-/D, F,	-0.16266532
-2.3075147	<s> Am7,	-0.16266532
-1.908223	C, Am7,	-0.22170198
-2.1245286	F, Am7,	-0.16266532
-1.4366146	C/G, Am7,	-0.16266532
-2.0726469	Cm, Am7,	-0.16266532
-1.6054406	C/E, Am7,	-0.16266532
-0.6685327	G/B, Am7,	-0.16266532
-0.443371	E7/G#, Am7,	-0.16266532
-0.70799446	FM9, Am7,	-0.18783154
-1.700754	C, C	-0.31277028
-1.4333632	F, C	-0.4096803
-1.478149	Am7, C	-0.16266532
-1.4526212	G, C	-0.31277028
-1.5495219	Dm7, C	-0.16266532
-1.5335426	Am, C	-0.18783154
-1.2211013	G7, C	-0.29004568
-1.3700585	B-, C	-0.18783154
-1.4961977	D, C	-0.16266532
-1.3671095	Gsus4, C	-0.16266532
-1.0695288	F7, C	-0.16266532
-1.6381925	Fm, C	-0.16266532
-1.3756489	F/C, C	-0.16266532
-1.4805486	Gm, C	-0.16266532
-1.1517731	Dm7/F, C	-0.16266532
-1.2596931	<s> G,	-0.4300013
-1.0786815	C, G,	-0.45339388
-0.94732976	F, G,	-0.3802613
-1.2157415	G, G,	-0.24245717
-0.7259869	Dm7, G,	-0.22588128
-1.2290499	Am, G,	-0.21399981
-0.65816104	Dm, G,	-0.37672162
-1.3974111	B-, G,	-0.29004568
-0.6470087	D, G,	-0.1775894
-1.0408454	Em, G,	-0.16266532
-1.020858	F7, G,	-0.16266532
-0.9164978	C/G, G,	-0.16266532
-1.3913554	Cm, G,	-0.25223726
-1.2326775	A-, G,	-0.18783154
-0.9888704	C/E, G,	-0.22588128
-0.49582416	F/A, G,	-0.21473181
-1.2820845	E-, G,	-0.16266532
-0.8892452	C7, G,	-0.16266532
-0.68819875	F#, G,	-0.16266532
-0.68819875	Bm7, G,	-0.16266532
-0.81486064	Fm, G,	-0.20108473
-0.42068374	E-/B-, G,	-0.16266532
-0.68819875	B-m7, G,	-0.16266532
-0.42068374	Fmaj7/A, G,	-0.16266532
-0.68819875	FmM7/A-, G,	-0.16266532
-2.2639506	<s> Dm7,	-0.16266532
-1.6366713	C, Dm7,	-0.23521847
-2.0685806	F, Dm7,	-0.16266532
-1.5285269	Am7, Dm7,	-0.16266532
-2.0283873	G, Dm7,	-0.16266532
-1.4139485	Am, Dm7,	-0.1775894
-0.88629985	Am/E, Dm7,	-0.16266532
-2.0209162	Cm, Dm7,	-0.16266532
-1.5754324	C/E, Dm7,	-0.16266532
-1.6912912	Fm, Dm7,	-0.16266532
-0.7255723	Em7, Dm7,	-0.16266532
-1.7389443	<s> Am,	-0.16266537
-1.0581121	C, Am,	-0.35503733
-1.3872634	F, Am,	-0.191897
-1.4044288	G, Am,	-0.19664417
-1.1265857	Dm7, Am,	-0.16266532
-1.3371826	Am, Am,	-0.16266532
-0.6785626	E, Am,	-0.16266537
-1.2641178	D7, Am,	-0.16266532
-1.1886257	G7, Am,	-0.16266532
-0.6933449	Em/B, Am,	-0.16266532
-1.7061888	Dm, Am,	-0.16266532
-1.6670717	B-, Am,	-0.16266532
-1.4148368	D, Am,	-0.16266532
-0.94115907	Em, Am,	-0.19541223
-1.4029529	Cm, Am,	-0.2614053
-1.6096315	A-, Am,	-0.16266532
-0.42345566	G7/B, Am,	-0.16266532
-1.0839959	G/B, Am,	-0.16266532
-0.42345566	E/G#, Am,	-0.16266532
-1.2385597	G11, Am,	-0.16266532
-0.6933449	Em/G, Am,	-0.16266532
-0.3542612	E7, Am,	-0.16266537
-0.96472764	Dm7/A, Am,	-0.16266532
-2.4466515	C, E,	-0.16266532
-1.6323453	F, E,	-0.20923519
-1.6337907	Am7, E,	-0.16266532
-1.7128106	G, E,	-0.24330992
-2.034738	C, D7,	-0.24330992
-2.188765	F, D7,	-0.16266532
-1.5855248	Am7, D7,	-0.16266532
-1.7224358	Am, D7,	-0.16266532
-1.462432	C/G, D7,	-0.16266532
-1.0258397	A7, D7,	-0.16266532
-0.4462921	E-7, D7,	-0.16266532
-1.8129683	<s> G7,	-0.24330992
-1.6284753	C, G7,	-0.316006
-1.5615422	F, G7,	-0.1775894
-2.0050395	G, G7,	-0.16266532
-1.9318986	Am, G7,	-0.16266532
-0.27675676	D7, G7,	-0.32817477
-1.664031	G7, G7,	-0.16266532
-1.8365254	B-, G7,	-0.16266532
-1.7222427	Cm, G7,	-0.16266532
-1.7384404	E-, G7,	-0.16266532
-1.0068784	B7, G7,	-0.16266532
-0.83246017	A-7, G7,	-0.29004568
-1.6300949	C, Em/B,	-0.37200934
-1.4219786	F, Am/E,	-0.25477836
-1.7599958	Dm7, Am/E,	-0.16266532
-2.0806983	<s> Dm,	-0.16266532
-1.4227966	C, Dm,	-0.36595312
-1.3927653	F, Dm,	-0.18414584
-1.0528991	Am7, Dm,	-0.16266537
-1.6190534	G, Dm,	-0.22170198
-1.3430862	Am, Dm,	-0.2614053
-1.269526	D7, Dm,	-0.16266532
-0.8440263	Am/E, Dm,	-0.16266532
-1.3714492	Dm, Dm,	-0.16266532
-1.6800178	B-, Dm,	-0.16266532
-0.5840164	A, Dm,	-0.16266532
-0.94458985	Em, Dm,	-0.17089312
-1.4088699	Cm, Dm,	-0.1775894
-1.6220276	A-, Dm,	-0.16266532
-1.1064672	C/E, Dm,	-0.16266532
-1.0427924	Gm, Dm,	-0.16266532
-0.9683949	Cmaj7, Dm,	-0.16266532
-0.4248483	E-m, Dm,	-0.16266532
-0.4248483	C#dim, Dm,	-0.16266532
-0.35515755	Gm/D, Dm,	-0.22170198
-0.4248483	Em7/G, Dm,	-0.16266532
-0.69594103	Em7, Dm,	-0.16266532
-1.8994906	<s> B-,	-0.16266532
-1.1950895	C, B-,	-0.33096567
-1.5455085	F, B-,	-0.20554842
-1.4590394	G, B-,	-0.1775894
-1.2795178	E, B-,	-0.16266532
-1.4219451	Dm, B-,	-0.24330992
-1.3765435	B-, B-,	-0.20111845
-1.1241901	Cm, B-,	-0.31970465
-1.0013124	A-, B-,	-0.21045506
-0.8431822	E-, B-,	-0.24330992
-0.737752	Fm, B-,	-0.42444003
-0.8743567	B, B-,	-0.16266532
-1.2925817	A-7, B-,	-0.16266532
-0.43615308	Am/C, B-,	-0.16266532
-2.2384799	C, D,	-0.16266532
-1.840483	F, D,	-0.16266532
-2.0792236	G, D,	-0.16266532
-1.4281737	Am, D,	-0.1750662
-1.321431	E, D,	-0.16266532
-1.1199011	D, D,	-0.29004568
-1.2354137	A, D,	-0.16266532
-1.557465	Em, D,	-0.16266532
-1.6054406	C/E, D,	-0.16266532
-2.2248375	F, A,	-0.16266532
-0.84584075	E, A,	-0.16266532
-2.010846	Dm, A,	-0.16266532
-1.9674803	B-, A,	-0.16266532
-1.6107194	D, A,	-0.16266532
-1.1892405	G/B, A,	-0.16266532
-2.4307725	F, Am	-0.16266532
-1.391574	E, Am	-0.16266532
-1.9671838	<s> Gsus4,	-0.16266532
-2.034738	C, Gsus4,	-0.29004568
-1.3599492	D7, Gsus4,	-0.16266532
-1.9427257	B-, Gsus4,	-0.16266537
-1.4477735	Gsus4, Gsus4,	-0.16266532
-1.8694537	A-, Gsus4,	-0.16266532
-0.9329968	F/C, Gsus4,	-0.2614053
-1.4371854	C, Em,	-0.23255445
-1.4781513	F, Em,	-0.28163227
-2.1070628	G, Em,	-0.16266532
-1.2202712	Am, Em,	-0.35749322
-1.5789992	Dm, Em,	-0.16266537
-0.36790502	B7, Em,	-0.24330992
-0.8985808	B, Em,	-0.16266532
-0.8985808	A9, Em,	-0.16266532
-1.6988318	C, F7,	-0.4096803
-2.172084	Am, F7,	-0.16266532
-1.2701339	G7, F7,	-0.24330992
-0.9388984	C7, F7,	-0.18783154
-2.0782256	C, F	-0.29004568
-1.5215183	G, F	-0.31277028
-1.7518865	Am, F	-0.29004568
-0.74262947	Gm7, F	-0.16266532
-1.5728205	C7, F	-0.16266532
-1.435465	Am, C/G,	-0.31277028
-1.9617752	Dm, C/G,	-0.16266532
-1.340692	F/A, C/G,	-0.16266532
-0.36790502	F#o7, C/G,	-0.22170198
-0.73401713	Bo7/A-, C/G,	-0.16266532
-1.0232803	E7, C/G,	-0.16266532
-0.4448291	G7/F, C/G,	-0.16266532
-0.36790502	Dm7/A, C/G,	-0.22170198
-1.7736723	C, G	-0.31277028
-1.8562905	F, G	-0.29004568
-2.1070628	G, G	-0.16266532
-1.2037785	Dm7, G	-0.29004568
-1.7084271	Am, G	-0.29004568
-1.2848929	Dm, G	-0.31277028
-2.1010227	Cm, G	-0.16266532
-1.2926537	Fm, G	-0.29004568
-0.94906294	<s> Cm,	-0.22698613
-1.7886655	C, Cm,	-0.16266537
-1.1896492	F, Cm,	-0.19442417
-1.3921281	Am7, Cm,	-0.16266532
-1.1547838	G, Cm,	-0.22265911
-1.4596215	Dm7, Cm,	-0.16266532
-1.5393041	Am, Cm,	-0.24330992
-0.6013614	G7, Cm,	-0.25223726
-0.89914423	B-, Cm,	-0.2588712
-1.150425	A, Cm,	-0.16266532
-0.6111133	Gsus4, Cm,	-0.31277028
-0.999362	Cm, Cm,	-0.19113183
-0.69147563	A-, Cm,	-0.24224156
-0.82509035	E-, Cm,	-0.1931241
-0.940069	Fm, Cm,	-0.16266532
-0.75193155	Gm, Cm,	-0.25453088
-0.9601787	A7, Cm,	-0.16266532
-0.9380847	Gm/B-, Cm,	-0.16266532
-0.6933449	A-/C, Cm,	-0.16266532
-0.6933449	Fm/C, Cm,	-0.16266532
-0.48192084	Ddim, Cm,	-0.29004568
-0.68386185	A-7, Cm,	-0.2614053
-0.8403798	B-/D, Cm,	-0.16266532
-1.8906271	<s> A-,	-0.29004568
-2.075031	C, A-,	-0.16266532
-1.6753291	F, A-,	-0.22170198
-1.3422568	G, A-,	-0.20923519
-1.386824	Am, A-,	-0.20923519
-0.9936378	B-, A-,	-0.21468547
-1.4961977	D, A-,	-0.16266532
-1.3671095	Gsus4, A-,	-0.16266532
-0.93528557	Cm, A-,	-0.30449966
-1.7203954	A-, A-,	-0.16266532
-1.3424894	E-, A-,	-0.16266537
-1.2548726	Fm, A-,	-0.29004568
-1.0725919	CmM7, A-,	-0.16266532
-0.71456194	A-/C, A-,	-0.16266532
-0.8704475	B-/D, A-,	-0.16266532
-2.4466515	C, B-	-0.16266532
-2.2377462	Cm, B-	-0.16266532
-1.4827702	A-, B-	-0.29004568
-1.8915375	E-, B-	-0.16266532
-2.2728834	C, C/E,	-0.16266532
-1.3858584	F, C/E,	-0.23654608
-1.774756	G, C/E,	-0.16266537
-1.6471046	Dm7, C/E,	-0.16266532
-1.6033783	Am, C/E,	-0.18783154
-1.5789992	Dm, C/E,	-0.16266532
-1.6212599	C/E, C/E,	-0.16266532
-1.3319947	FM9, C/E,	-0.16266532
-2.4986632	F, C/E	-0.16266532
-1.6893882	C, F/A,	-0.2932903
-1.8168622	G, F/A,	-0.29004568
-1.2522897	B-, F/A,	-0.2614053
-2.199324	Cm, F/A,	-0.16266532
-0.449233	CmM7/B, F/A,	-0.16266532
-1.7409122	C, E-,	-0.22588128
-1.2962734	F, E-,	-0.20686151
-1.6383805	G, E-,	-0.16266532
-1.8972197	Dm, E-,	-0.16266532
-1.5058662	B-, E-,	-0.16266537
-0.9836887	Cm, E-,	-0.39077672
-0.91358846	A-, E-,	-0.22170198
-1.2538338	E-, E-,	-0.16266532
-1.2760577	Fm, E-,	-0.16266532
-0.7255723	Dm9, E-,	-0.16266532
-0.4404694	Cm/E-, E-,	-0.16266532
-2.1926959	C, Gm7,	-0.24330992
-2.5036516	C, B7,	-0.16266532
-1.7834804	Am, B7,	-0.29004568
-1.6517463	Em, B7,	-0.16266532
-1.8512957	<s> C7,	-0.24330992
-2.3102486	C, C7,	-0.16266532
-1.7698002	F, C7,	-0.1732728
-1.7883428	G, C7,	-0.20923519
-1.7267948	G7, C7,	-0.16266532
-1.1128187	F7, C7,	-0.16266532
-1.0617131	C7, C7,	-0.29004568
-2.3444133	G, F#,	-0.16266532
-2.0087266	A-, F#,	-0.16266532
-1.760632	C/E, F#o7/E-,	-0.16266532
-0.45577386	F#o7/E-, G/D,	-0.16266532
-2.1802413	Dm, Bm7,	-0.16266532
-2.6818762	C, G7/B,	-0.16266532
-1.5313753	C, G/B,	-0.30812922
-1.5400102	Cm, G/B,	-0.29004568
-1.3784604	FM9, G/B,	-0.16266532
-2.2058418	<s> Fm,	-0.16266532
-2.0983481	C, Fm,	-0.16266532
-1.4902062	Am7, Fm,	-0.16266532
-1.6100127	G, Fm,	-0.16266537
-1.6327161	Am, Fm,	-0.16266532
-1.5075295	D, Fm,	-0.16266532
-1.4593532	Cm, Fm,	-0.20111845
-1.7364602	A-, Fm,	-0.16266537
-1.3490189	E-, Fm,	-0.16266537
-1.0755746	Gm, Fm,	-0.29004568
-0.98107076	Gm/B-, Fm,	-0.16266532
-0.7172885	Fm/C, Fm,	-0.16266532
-0.43615308	E-/G, Fm,	-0.16266532
-0.43615308	G-, Fm,	-0.16266532
-2.355941	<s> F/C,	-0.16266532
-1.5808399	C, F/C,	-0.31116906
-2.1368096	G, F/C,	-0.16266532
-2.065909	Am, F/C,	-0.16266532
-1.4358381	F/C, F/C,	-0.16266532
-0.36883005	Cmaj7, F/C,	-0.18783154
-0.736869	Bo7/A-, F/C,	-0.16266532
-2.6818762	C, E/B,	-0.16266532
-0.74846745	F#, B,	-0.16266532
-1.4693805	F/C, B,	-0.16266532
-0.4521939	E/B, B,	-0.16266532
-0.93044716	B, E-/B-,	-0.16266532
-1.8247021	Am, E/G#,	-0.29004568
-1.5855248	Am7, G11,	-0.16266532
-2.1368096	G, G11,	-0.16266532
-1.2094473	Dm7, G11,	-0.16266532
-2.065909	Am, G11,	-0.16266532
-1.462432	C/G, G11,	-0.16266532
-1.6376773	C/E, G11,	-0.16266532
-1.751798	Fm, G11,	-0.16266532
-1.5736245	C, Gm,	-0.25223726
-2.1554604	F, Gm,	-0.16266532
-1.2848929	Dm, Gm,	-0.30506253
-1.3807399	Cm, Gm,	-0.32371742
-1.340692	F/A, Gm,	-0.16266532
-1.7358629	Fm, Gm,	-0.16266532
-1.5637331	Gm, Gm,	-0.16266532
-0.4448291	B-7, Gm,	-0.16266532
-2.4405098	<s> Cmaj7,	-0.16266532
-2.4466515	C, Cmaj7,	-0.16266532
-2.3074443	F, Cmaj7,	-0.16266532
-1.4823546	Gsus4, Cmaj7,	-0.16266532
-2.4986632	F, Bm/F#,	-0.16266532
-1.9453156	F, F#o7,	-0.16266532
-1.519184	C/G, F#o7,	-0.16266532
-0.4521939	Bm/F#, F#o7,	-0.16266532
-1.5042857	C/G, A7,	-0.16266532
-1.6195643	Gm, A7,	-0.16266532
-1.0344237	Gm/B-, A7,	-0.16266532
-0.45071092	B--7, A7,	-0.16266532
-1.9955379	F, G#o7,	-0.29004568
-2.4307725	F, Bo7/A-,	-0.16266532
-1.5403024	C/G, Bo7/A-,	-0.16266532
-2.4466515	C, D-,	-0.16266532
-2.172084	Am, D-,	-0.16266532
-1.715035	Cm, D-,	-0.18783154
-1.9418545	A-, D-,	-0.16266532
-1.0551615	D-, C/G	-0.16266532
-2.4307725	F, A-	-0.16266532
-1.5971974	B-, A-	-0.29004568
-1.8112959	F, CmM7,	-0.24330992
-2.066176	Dm, CmM7,	-0.16266532
-1.9418545	A-, CmM7,	-0.16266532
-1.1312078	CmM7, CmM7,	-0.16266532
-2.0418146	A-, B-m7,	-0.16266532
-1.6960503	Em, E-m,	-0.16266532
-2.5955634	C, Em/G,	-0.16266532
-2.2788055	Am, Em/G,	-0.16266532
-1.8726951	F, Cm	-0.29004568
-2.1368096	G, Cm	-0.16266532
-1.9427257	B-, Cm	-0.16266532
-2.131383	Cm, Cm	-0.16266532
-1.4562228	A-, Cm	-0.29004568
-1.5770326	Gm, Cm	-0.16266532
-1.3469641	A-7, Cm	-0.16266532
-2.3993971	G, F#o7/C,	-0.16266532
-2.1802413	Dm, C#dim,	-0.16266532
-2.1017196	C, Dm7/F,	-0.22170198
-2.3074443	F, Dm7/F,	-0.16266532
-2.172084	Am, Dm7/F,	-0.16266532
-1.210389	Dm7/F, Dm7/F,	-0.16266532
-2.3356848	Am, D/F#,	-0.16266532
-2.3444133	G, Gm/B-,	-0.16266532
-1.8724681	Cm, Gm/B-,	-0.16266537
-2.1328936	B-, F/A	-0.16266532
-1.89087	Cm, Fmaj7/C,	-0.24330992
-0.75557816	Fmaj7/C, A-/C,	-0.16266532
-0.75557816	Fmaj7/C, A-/C	-0.16266532
-1.5026253	Dm, Gm/D,	-0.18140195
-1.9151101	E-, Gm/D,	-0.16266532
-1.0446941	Gm/D, Gm/D,	-0.16266532
-1.7580932	Cm, Fm/C,	-0.24330992
-2.4017441	Cm, Fm/C	-0.16266532
-2.06254	C, Fmaj7/A,	-0.18783154
-2.0418146	A-, E-/G,	-0.16266532
-2.5209699	<s> G+11,	-0.16266532
-2.5955634	C, G+11,	-0.16266532
-2.1265576	C, E7,	-0.24330992
-2.2816403	G, E7,	-0.16266532
-1.0439326	Ddim, E7,	-0.16266532
-1.6960503	Em, E-7,	-0.16266532
-1.8231728	G7, B--7,	-0.16266532
-2.6818762	C, F#dim	-0.16266532
-2.5209699	<s> B-/F,	-0.16266532
-1.7599958	Dm7, B-/F,	-0.16266532
-0.21092092	B-/F, Em7/G,	-0.29004568
-2.1802413	Dm, G7/F,	-0.16266532
-1.5571743	C/G, F#m7,	-0.16266532
-1.760632	C/E, Dm7	-0.16266532
-1.7580932	Cm, Gm7/B-,	-0.18783154
-0.45577386	Gm7/B-, FmM7/A-,	-0.16266532
-2.4728026	<s> Ddim,	-0.16266532
-2.012586	C, Ddim,	-0.18140195
-2.0515351	B-, Ddim,	-0.16266532
-1.6511499	Am7, Dm7/A,	-0.16266532
-1.7834804	Am, Dm7/A,	-0.29004568
-1.519184	C/G, Dm7/A,	-0.16266532
-1.3551716	G11, E7/G#,	-0.16266532
-1.5571743	C/G, Dm7/A	-0.16266532
-2.410453	<s> FM9,	-0.16266532
-2.3962722	C, FM9,	-0.16266537
-0.81277233	Am7, FM9,	-0.21468547
-2.2032154	G, FM9,	-0.16266532
-1.1994586	C/E, FM9,	-0.29004568
-1.4026629	FM9, FM9	-0.16266532
-2.355941	<s> A-7,	-0.16266532
-2.3102486	C, A-7,	-0.16266532
-2.188765	F, A-7,	-0.16266532
-2.065909	Am, A-7,	-0.16266532
-1.6802925	Cm, A-7,	-0.22170198
-1.3486879	F/A, A-7,	-0.16266532
-1.8276442	E-, A-7,	-0.16266532
-2.3356848	Am, C7/B-,	-0.16266532
-2.4986632	F, G7	-0.16266532
-2.561783	<s> B-7,	-0.16266532
-2.4017441	Cm, Gm	-0.16266532
-2.06254	C, Am9,	-0.18783154
-2.6818762	C, Bm,	-0.16266532
-1.6762947	Em, A9,	-0.16266532
-0.45421892	Bm, A9,	-0.16266532
-1.9493712	E-, Dm9,	-0.16266532
-0.925825	A9, Dm9,	-0.16266532
-2.5955634	C, Em7,	-0.16266532
-0.75248253	Dm9, Em7,	-0.16266532
-1.0551615	D-, Cm/E-,	-0.16266532
-2.1328936	B-, G-,	-0.16266532
-2.6818762	C, Gsus4	-0.16266532
-2.1926959	C, G9,	-0.29004568
-2.1802413	Dm, Am/C,	-0.16266532
-1.7816063	Dm7, G11	-0.16266532
-1.2288198	G/B, CmM7/B,	-0.16266532
-2.3447094	Cm, B-/D,	-0.16266532
-1.306343	E-, B-/D,	-0.18140195

\3-grams:
-0.018216137	C, C </s>	0
-0.014511288	F, C </s>	0
-0.025965901	Am7, C </s>	0
-0.018216137	G, C </s>	0
-0.025965901	Dm7, C </s>	0
-0.024462035	Am, C </s>	0
-0.019216664	G7, C </s>	0
-0.024462035	B-, C </s>	0
-0.025965901	D, C </s>	0
-0.025965901	Gsus4, C </s>	0
-0.025965901	F7, C </s>	0
-0.025965901	Fm, C </s>	0
-0.025965901	F/C, C </s>	0
-0.025965901	Gm, C </s>	0
-0.025965901	Dm7/F, C </s>	0
-0.12783858	F, Am </s>	0
-0.12783858	E, Am </s>	0
-0.06040592	C, F </s>	0
-0.057114486	G, F </s>	0
-0.06040592	Am, F </s>	0
-0.08307757	Gm7, F </s>	0
-0.08307757	C7, F </s>	0
-0.034807228	C, G </s>	0
-0.036758363	F, G </s>	0
-0.050033823	G, G </s>	0
-0.036758363	Dm7, G </s>	0
-0.036758363	Am, G </s>	0
-0.034807228	Dm, G </s>	0
-0.050033823	Cm, G </s>	0
-0.036758363	Fm, G </s>	0
-0.106591664	C, B- </s>	0
-0.106591664	Cm, B- </s>	0
-0.07691803	A-, B- </s>	0
-0.106591664	E-, B- </s>	0
-0.24469188	F, C/E </s>	0
-0.24469188	D-, C/G </s>	0
-0.12783858	F, A- </s>	0
-0.09160677	B-, A- </s>	0
-0.04227306	F, Cm </s>	0
-0.05767637	G, Cm </s>	0
-0.05767637	B-, Cm </s>	0
-0.05767637	Cm, Cm </s>	0
-0.04227306	A-, Cm </s>	0
-0.05767637	Gm, Cm </s>	0
-0.05767637	A-7, Cm </s>	0
-0.24469188	B-, F/A </s>	0
-0.24469188	Fmaj7/C, A-/C </s>	0
-0.24469188	Cm, Fm/C </s>	0
-0.24469188	C, F#dim </s>	0
-0.24469188	C/E, Dm7 </s>	0
-0.24469188	C/G, Dm7/A </s>	0
-0.24469188	FM9, FM9 </s>	0
-0.24469188	F, G7 </s>	0
-0.24469188	Cm, Gm </s>	0
-0.24469188	C, Gsus4 </s>	0
-0.24469188	Dm7, G11 </s>	0
-1.3070724	<s> C, C,	-0.28210396
-0.75630623	C, C, C,	-0.269513
-1.0134419	F, C, C,	-0.15790097
-1.1779056	G, C, C,	-0.19780995
-1.105131	Am, C, C,	-0.122708715
-0.969618	G7, C, C,	-0.1661948
-0.9532912	Dm, C, C,	-0.15716521
-1.019293	B-, C, C,	-0.19780995
-0.9041871	D, C, C,	-0.122708715
-0.9041871	Gsus4, C, C,	-0.122708715
-0.8781172	F7, C, C,	-0.122708715
-0.9840977	A-, C, C,	-0.122708715
-0.424284	Fm, C, C,	-0.24086854
-1.1385581	F/C, C, C,	-0.122708715
-0.42642513	F#o7/C, C, C,	-0.122708715
-0.66073704	A-7, C, C,	-0.122708715
-0.34474272	<s> F, C,	-0.14305292
-0.6001521	C, F, C,	-0.3207583
-0.6796621	F, F, C,	-0.1371424
-0.69105226	Am7, F, C,	-0.122708715
-0.6690299	G, F, C,	-0.18113668
-0.70541096	Am, F, C,	-0.14937316
-0.8190824	B-, F, C,	-0.15863799
-0.7825326	D, F, C,	-0.122708715
-0.2507018	A, F, C,	-0.19780995
-0.38515797	Gsus4, F, C,	-0.122708715
-0.8184305	C/G, F, C,	-0.122708715
-0.4977955	C/E, F, C,	-0.122708715
-0.72847843	E-, F, C,	-0.122708715
-0.59218997	Gm7, F, C,	-0.122708715
-0.6835598	C7, F, C,	-0.19780995
-0.48084232	Gm, F, C,	-0.21452467
-0.38515797	C7/B-, F, C,	-0.122708715
-0.6402192	F, Am7, C,	-0.122708715
-0.86886084	G/B, Am7, C,	-0.122708715
-0.22972363	<s> G, C,	-0.19780995
-0.5455853	C, G, C,	-0.2726848
-0.48851103	F, G, C,	-0.27493086
-0.5033437	G, G, C,	-0.22188985
-0.48550773	Dm7, G, C,	-0.122708715
-0.6506777	Am, G, C,	-0.122708715
-0.36791286	Dm, G, C,	-0.2617731
-0.22102965	B-, G, C,	-0.122708715
-0.44577238	D, G, C,	-0.14829144
-0.510073	Em, G, C,	-0.122708715
-0.33238032	F7, G, C,	-0.122708715
-0.48550773	C/E, G, C,	-0.122708715
-0.6130002	F/A, G, C,	-0.19780995
-0.510073	E-, G, C,	-0.122708715
-0.6366191	C7, G, C,	-0.122708715
-0.6366191	F#, G, C,	-0.122708715
-0.33238032	Bm7, G, C,	-0.122708715
-0.74740857	Fm, G, C,	-0.122708715
-0.33238032	E-/B-, G, C,	-0.122708715
-0.33238032	B-m7, G, C,	-0.122708715
-0.510073	FmM7/A-, G, C,	-0.122708715
-0.4111212	<s> Dm7, C,	-0.122708715
-0.8187816	C, Dm7, C,	-0.13959533
-0.4111212	F, Dm7, C,	-0.122708715
-0.77540505	<s> Am, C,	-0.122708715
-0.9448813	C, Am, C,	-0.28918093
-0.87158984	F, Am, C,	-0.122708715
-0.93061554	G, Am, C,	-0.1661948
-0.8993871	Dm7, Am, C,	-0.122708715
-0.9368284	E, Am, C,	-0.122708715
-0.8486595	G/B, Am, C,	-0.122708715
-0.5966601	<s> G7, C,	-0.122708715
-0.3322765	C, G7, C,	-0.21393918
-0.41566378	F, G7, C,	-0.24086854
-0.4741819	Am, G7, C,	-0.122708715
-0.27746361	D7, G7, C,	-0.1371424
-0.30821326	G7, G7, C,	-0.122708715
-0.30821326	B-, G7, C,	-0.122708715
-0.3699297	Dm7, Am/E, C,	-0.122708715
-0.92751175	C, Dm, C,	-0.122708715
-0.6144675	F, Dm, C,	-0.122708715
-0.8542135	Am, Dm, C,	-0.122708715
-0.59624225	Am/E, Dm, C,	-0.122708715
-0.6728763	Em, Dm, C,	-0.15863799
-0.59624225	C/E, Dm, C,	-0.122708715
-0.59624225	Gm, Dm, C,	-0.122708715
-0.3876693	Cmaj7, Dm, C,	-0.122708715
-0.600743	<s> B-, C,	-0.122708715
-0.5874735	C, B-, C,	-0.22555327
-0.69313425	F, B-, C,	-0.122708715
-0.81291807	G, B-, C,	-0.122708715
-0.8581964	B-, B-, C,	-0.122708715
-0.7968096	A-, B-, C,	-0.122708715
-0.7286265	E-, B-, C,	-0.122708715
-0.7805791	F, D, C,	-0.122708715
-0.6128986	G, D, C,	-0.122708715
-0.6128986	E, D, C,	-0.122708715
-0.5551503	<s> Gsus4, C,	-0.122708715
-0.3617937	D7, Gsus4, C,	-0.122708715
-0.5341453	F/C, Gsus4, C,	-0.122708715
-1.0157655	C, Em, C,	-0.122708715
-1.0071828	Am, Em, C,	-0.122708715
-0.14109388	C, F7, C,	-0.37901396
-0.31069463	G7, F7, C,	-0.122708715
-1.3728076	F, Cm, C,	-0.122708715
-0.5446059	F, A-, C,	-0.122708715
-0.9769081	Am, A-, C,	-0.122708715
-0.9078292	B-, A-, C,	-0.122708715
-0.6261552	C, C/E, C,	-0.122708715
-1.0372766	F, C/E, C,	-0.122708715
-0.7341438	G, C/E, C,	-0.122708715
-0.6902993	C, F/A, C,	-0.14829144
-0.8065891	B-, F/A, C,	-0.122708715
-1.1663055	F, E-, C,	-0.122708715
-0.23158911	F#o7/E-, G/D, C,	-0.122708715
-0.50799614	Dm, Bm7, C,	-0.122708715
-0.8320474	C, G/B, C,	-0.24086854
-0.6855671	Am, Fm, C,	-0.122708715
-0.4407286	D, Fm, C,	-0.122708715
-0.20444258	<s> F/C, C,	-0.122708715
-0.30162704	C, F/C, C,	-0.203904
-0.20444258	G, F/C, C,	-0.122708715
-0.20444258	Am, F/C, C,	-0.122708715
-0.20444258	F/C, F/C, C,	-0.122708715
-0.20444258	Bo7/A-, F/C, C,	-0.122708715
-0.13534473	Am7, G11, C,	-0.122708715
-0.13534473	G, G11, C,	-0.122708715
-0.2395458	Dm7, G11, C,	-0.122708715
-0.13534473	Am, G11, C,	-0.122708715
-0.13534473	C/G, G11, C,	-0.122708715
-0.13534473	Fm, G11, C,	-0.122708715
-0.54121333	C, Gm, C,	-0.24086854
-0.63965714	F, Gm, C,	-0.122708715
-0.6160663	F, F#o7, C,	-0.122708715
-0.16004609	F, G#o7, C,	-0.24086854
-0.25886527	C, D-, C,	-0.122708715
-0.25886527	A-, D-, C,	-0.122708715
-0.50799614	A-, B-m7, C,	-0.122708715
-0.23158911	G, F#o7/C, C,	-0.122708715
-0.27395248	C, Dm7/F, C,	-0.24086854
-0.1917953	F, Dm7/F, C,	-0.122708715
-0.1917953	Am, Dm7/F, C,	-0.122708715
-0.1917953	Dm7/F, Dm7/F, C,	-0.122708715
-0.7025128	Cm, Gm/B-, C,	-0.122708715
-0.12186281	<s> G+11, C,	-0.122708715
-0.12186281	C, G+11, C,	-0.122708715
-0.50799614	Gm7/B-, FmM7/A-, C,	-0.122708715
-0.4597833	C, Ddim, C,	-0.15716521
-0.5856704	C, FM9, C,	-0.122708715
-0.32986292	G, FM9, C,	-0.122708715
-0.219575	C/E, FM9, C,	-0.24086854
-0.36590207	C, A-7, C,	-0.122708715
-0.36590207	Am, A-7, C,	-0.122708715
-0.5679168	Em, A9, C,	-0.122708715
-0.16004609	C, G9, C,	-0.24086854
-0.3621259	<s> C, F,	-0.6745319
-0.96344167	C, C, F,	-0.19586243
-0.7925991	F, C, F,	-0.27106416
-0.7433965	Am7, C, F,	-0.122708715
-0.71964675	G, C, F,	-0.32074246
-0.91360384	Dm7, C, F,	-0.122708715
-0.85816365	Am, C, F,	-0.24086854
-0.7396337	G7, C, F,	-0.17732017
-0.6333539	Am/E, C, F,	-0.122708715
-0.92430055	Dm, C, F,	-0.122708715
-0.9559697	B-, C, F,	-0.19780995
-0.8573011	D, C, F,	-0.122708715
-0.8573011	Gsus4, C, F,	-0.122708715
-0.64615023	A-, C, F,	-0.24086854
-0.7433965	C/E, C, F,	-0.122708715
-0.4102509	G/B, C, F,	-0.122708715
-1.0819491	F/C, C, F,	-0.122708715
-0.923711	G11, C, F,	-0.122708715
-0.41087407	Gm, C, F,	-0.122708715
-0.41087407	G+11, C, F,	-0.24086854
-0.4102509	FmM7/A-, C, F,	-0.122708715
-1.502807	C, F, F,	-0.13959533
-1.0282716	G, F, F,	-0.14305292
-0.7395257	Gm7, F, F,	-0.122708715
-0.99667794	CmM7, F, F,	-0.122708715
-0.42074552	C/G, Am7, F,	-0.122708715
-0.88734204	G/B, Am7, F,	-0.122708715
-0.763741	<s> G, F,	-0.122708715
-0.59458584	C, G, F,	-0.31391445
-0.8699583	F, G, F,	-0.24477601
-0.77899945	G, G, F,	-0.122708715
-0.59492904	Am, G, F,	-0.20144002
-0.87571925	Dm, G, F,	-0.21452467
-0.8159668	D, G, F,	-0.122708715
-0.9556925	Cm, G, F,	-0.122708715
-0.535429	C/E, G, F,	-0.17778246
-0.92959833	F/A, G, F,	-0.122708715
-0.765622	C7, G, F,	-0.122708715
-0.765622	F#, G, F,	-0.122708715
-0.3916383	Fmaj7/A, G, F,	-0.122708715
-1.1322296	C, Dm7, F,	-0.122708715
-0.67244655	C/E, Dm7, F,	-0.122708715
-0.707218	<s> Am, F,	-0.122708715
-0.5611431	C, Am, F,	-0.275632
-0.77693385	F, Am, F,	-0.19780995
-0.8425701	G, Am, F,	-0.17778246
-0.7690302	Am, Am, F,	-0.122708715
-0.60501546	Em/B, Am, F,	-0.122708715
-0.39307564	B-, Am, F,	-0.122708715
-0.8859133	Em, Am, F,	-0.122708715
-0.5714602	Cm, Am, F,	-0.24086854
-0.7690302	G/B, Am, F,	-0.122708715
-0.707218	E7, Am, F,	-0.122708715
-0.6897501	C, E, F,	-0.122708715
-1.0724654	F, G7, F,	-0.122708715
-0.63857126	C, Em/B, F,	-0.122708715
-0.7844563	C, Dm, F,	-0.28210396
-0.9558037	F, Dm, F,	-0.122708715
-0.83110565	Dm, Dm, F,	-0.122708715
-0.87970686	A, Dm, F,	-0.122708715
-0.9878271	Em, Dm, F,	-0.122708715
-0.41812292	Em7, Dm, F,	-0.122708715
-0.68137	C, B-, F,	-0.16529505
-0.7282822	F, B-, F,	-0.17778246
-0.54481137	G, B-, F,	-0.122708715
-0.40941915	E, B-, F,	-0.122708715
-0.63260126	B-, B-, F,	-0.24086854
-0.76358366	E-, B-, F,	-0.122708715
-0.7941108	F, D, F,	-0.122708715
-0.5921236	Am, D, F,	-0.15716521
-0.51546717	D, D, F,	-0.122708715
-0.34384787	F, A, F,	-0.122708715
-0.34384787	D, A, F,	-0.122708715
-0.28638673	C, Gsus4, F,	-0.24086854
-0.5229818	C, Em, F,	-0.14829144
-0.618861	G, Em, F,	-0.122708715
-0.7248125	Dm, Em, F,	-0.122708715
-0.2396406	Am, C/G, F,	-0.122708715
-0.6115078	E7, C/G, F,	-0.122708715
-1.0306337	<s> Cm, F,	-0.122708715
-0.91157025	F, Cm, F,	-0.14829144
-0.8578253	G7, Cm, F,	-0.24086854
-1.1290418	B-, Cm, F,	-0.122708715
-1.3049362	A-, Cm, F,	-0.122708715
-1.0031751	B-/D, A-, F,	-0.122708715
-0.78071624	F, C/E, F,	-0.24086854
-0.6742952	G, C/E, F,	-0.122708715
-0.34426954	Am, C/E, F,	-0.15716521
-0.5787924	C/E, C/E, F,	-0.122708715
-0.5432723	C, E-, F,	-0.14829144
-0.6612431	F, E-, F,	-0.122708715
-0.61330193	Dm, E-, F,	-0.122708715
-0.6549682	Cm, E-, F,	-0.22188985
-0.3981435	Dm9, E-, F,	-0.122708715
-0.34997967	C, Gm7, F,	-0.19780995
-0.28788984	<s> C7, F,	-0.24086854
-0.2661202	C, C7, F,	-0.122708715
-0.42667568	F, C7, F,	-0.17778246
-0.57089627	G, C7, F,	-0.122708715
-0.2661202	G7, C7, F,	-0.122708715
-0.18156652	C7, C7, F,	-0.122708715
-0.9788371	C, Gm, F,	-0.122708715
-0.61514163	F, Gm, F,	-0.122708715
-0.39926353	F/A, Gm, F,	-0.122708715
-0.26357925	C/G, A7, F,	-0.122708715
-0.26357925	Gm, A7, F,	-0.122708715
-0.27159226	F, CmM7, F,	-0.19780995
-0.2475065	A-, CmM7, F,	-0.122708715
-0.2475065	CmM7, CmM7, F,	-0.122708715
-0.33801043	Am, Em/G, F,	-0.122708715
-0.23715623	Am, D/F#, F,	-0.122708715
-0.23715623	C/G, F#m7, F,	-0.122708715
-0.23715623	Am, C7/B-, F,	-0.122708715
-0.21974728	C, Am9, F,	-0.15716521
-0.3776037	Cm, B-/D, F,	-0.122708715
-2.1463957	<s> C, Am7,	-0.122708715
-0.7992413	G11, C, Am7,	-0.19780995
-1.0643125	FM9, C, Am7,	-0.122708715
-1.7611407	C, F, Am7,	-0.19780995
-0.99972624	F#o7, C/G, Am7,	-0.122708715
-1.7244326	B-, Cm, Am7,	-0.122708715
-0.4821992	FM9, C/E, Am7,	-0.122708715
-0.5074422	C, G/B, Am7,	-0.24395905
-0.33733162	FM9, G/B, Am7,	-0.122708715
-0.2517163	G11, E7/G#, Am7,	-0.122708715
-0.34960175	<s> FM9, Am7,	-0.122708715
-0.6219194	C, FM9, Am7,	-0.122708715
-0.549929	Am7, FM9, Am7,	-0.24086854
-1.7430353	C, C, C	-0.122708715
-1.8728782	F, C, C	-0.122708715
-1.899889	G, C, C	-0.122708715
-1.2366172	G11, C, C	-0.122708715
-1.5081567	C, F, C	-0.15716521
-1.3976779	G, F, C	-0.24086854
-1.3831556	B-, F, C	-0.122708715
-0.9990105	D, F, C	-0.122708715
-0.9990105	Gm, F, C	-0.122708715
-0.74698514	F, Am7, C	-0.122708715
-1.4271246	C, G, C	-0.24086854
-1.401456	F, G, C	-0.24086854
-1.5786606	Dm, G, C	-0.122708715
-1.2500964	F/A, G, C	-0.122708715
-1.3721305	C, Dm7, C	-0.122708715
-1.691162	C, Am, C	-0.122708715
-1.4440775	G, Am, C	-0.122708715
-1.1414955	E, Am, C	-0.122708715
-0.86233556	C, G7, C	-0.24086854
-0.9896521	F, G7, C	-0.122708715
-1.4959223	C, B-, C	-0.122708715
-1.2984103	A-, B-, C	-0.122708715
-1.2286421	E-, B-, C	-0.122708715
-0.74924856	E, D, C	-0.122708715
-1.0654866	F/C, Gsus4, C	-0.122708715
-0.8158972	G7, F7, C	-0.122708715
-0.92099386	G, Fm, C	-0.122708715
-0.9619842	C, F/C, C	-0.24086854
-1.2739812	C, Gm, C	-0.122708715
-0.919307	C, Dm7/F, C	-0.122708715
-0.86613214	<s> C, G,	-0.3992997
-0.9192713	C, C, G,	-0.24395905
-0.91675824	F, C, G,	-0.25893736
-0.8224749	G, C, G,	-0.24525128
-0.91573083	Am, C, G,	-0.122708715
-1.1799188	Dm, C, G,	-0.122708715
-1.0370456	B-, C, G,	-0.122708715
-0.92137575	D, C, G,	-0.122708715
-0.92137575	Gsus4, C, G,	-0.122708715
-0.67046636	Em, C, G,	-0.122708715
-0.6776948	A-, C, G,	-0.122708715
-0.7918281	C/E, C, G,	-0.122708715
-0.8187912	Fm, C, G,	-0.122708715
-0.43207103	G#o7, C, G,	-0.122708715
-0.94304514	Dm7/F, C, G,	-0.122708715
-0.8187912	G+11, C, G,	-0.122708715
-0.7290671	<s> F, G,	-0.19780995
-0.82243794	C, F, G,	-0.31021717
-0.7446099	F, F, G,	-0.122708715
-0.64414614	G, F, G,	-0.29594487
-0.8521452	Am, F, G,	-0.1926631
-0.40890482	E, F, G,	-0.122708715
-0.6358989	Dm, F, G,	-0.19780995
-0.89333725	B-, F, G,	-0.24086854
-0.5067435	D, F, G,	-0.19780995
-0.47149047	Em, F, G,	-0.21452467
-0.95819795	Cm, F, G,	-0.122708715
-0.99579626	E-, F, G,	-0.122708715
-0.7273117	C7, F, G,	-0.15716521
-0.40890482	Em/G, F, G,	-0.122708715
-1.3334216	C, G, G,	-0.17778246
-1.2810013	F, G, G,	-0.19780995
-0.8841362	G, G, G,	-0.17701228
-1.1992201	Am, G, G,	-0.122708715
-0.7032447	Em, G, G,	-0.122708715
-1.1115508	Fm, G, G,	-0.122708715
-0.7200077	C, Dm7, G,	-0.24086854
-0.544506	G, Dm7, G,	-0.122708715
-0.72736835	Am, Dm7, G,	-0.122708715
-0.3549441	Cm, Dm7, G,	-0.122708715
-0.544506	Fm, Dm7, G,	-0.122708715
-0.9116355	C, Am, G,	-0.16529505
-0.92459023	F, Am, G,	-0.17778246
-1.0378381	G, Am, G,	-0.24086854
-0.45225072	D, Am, G,	-0.122708715
-1.0848157	Em, Am, G,	-0.122708715
-0.40687546	C, Dm, G,	-0.23222174
-0.5312752	F, Dm, G,	-0.13959533
-0.5931153	Am7, Dm, G,	-0.122708715
-0.42543224	G, Dm, G,	-0.17778246
-0.50138134	Am, Dm, G,	-0.19780995
-0.5124808	D7, Dm, G,	-0.122708715
-0.5124808	Am/E, Dm, G,	-0.122708715
-0.6398444	Dm, Dm, G,	-0.122708715
-0.67050296	A, Dm, G,	-0.122708715
-0.7376803	Em, Dm, G,	-0.122708715
-0.5124808	C/E, Dm, G,	-0.122708715
-0.33397812	E-m, Dm, G,	-0.122708715
-0.5124808	C#dim, Dm, G,	-0.122708715
-1.0501827	G, B-, G,	-0.122708715
-0.4588381	Dm, B-, G,	-0.24086854
-0.33031145	C, D, G,	-0.122708715
-0.63246065	F, D, G,	-0.122708715
-0.33031145	A, D, G,	-0.122708715
-0.33031145	Em, D, G,	-0.122708715
-0.33031145	C/E, D, G,	-0.122708715
-0.6599752	G, Em, G,	-0.122708715
-0.42598075	B, Em, G,	-0.122708715
-0.42258015	Am, F7, G,	-0.122708715
-0.4025915	Dm, C/G, G,	-0.122708715
-0.4025915	F/A, C/G, G,	-0.122708715
-1.0706875	<s> Cm, G,	-0.122708715
-0.9441118	F, Cm, G,	-0.19780995
-1.0031648	G, Cm, G,	-0.122708715
-1.3806404	A-, Cm, G,	-0.122708715
-0.4526662	C, A-, G,	-0.122708715
-0.6363405	G, A-, G,	-0.24086854
-0.4526662	D, A-, G,	-0.122708715
-0.64446104	C, C/E, G,	-0.122708715
-0.871401	F, C/E, G,	-0.19780995
-0.64446104	C/E, C/E, G,	-0.122708715
-0.29949334	C, F/A, G,	-0.20654212
-0.18647021	G, F/A, G,	-0.19780995
-0.43206918	B-, F/A, G,	-0.19780995
-0.27413708	Cm, F/A, G,	-0.122708715
-0.8537267	B-, E-, G,	-0.122708715
-1.1227915	Cm, E-, G,	-0.24086854
-0.8819944	F, C7, G,	-0.122708715
-0.561318	G, C7, G,	-0.122708715
-0.3967086	F7, C7, G,	-0.122708715
-0.34354255	G, F#, G,	-0.122708715
-0.5269893	Dm, Bm7, G,	-0.122708715
-0.37912205	C, Fm, G,	-0.122708715
-0.6789299	G, Fm, G,	-0.122708715
-0.8284066	Cm, Fm, G,	-0.122708715
-0.6789299	E-, Fm, G,	-0.122708715
-0.49195966	Gm, Fm, G,	-0.24086854
-0.24153616	B, E-/B-, G,	-0.122708715
-0.5269893	A-, B-m7, G,	-0.122708715
-0.22371627	C, Fmaj7/A, G,	-0.15716521
-0.5269893	Gm7/B-, FmM7/A-, G,	-0.122708715
-1.7062004	C, C, Dm7,	-0.122708715
-1.270847	G, C, Dm7,	-0.16882642
-0.7522092	Dm7, C, Dm7,	-0.17778246
-1.0478084	Am, C, Dm7,	-0.122708715
-1.5069956	G7, C, Dm7,	-0.122708715
-2.0872502	C, F, Dm7,	-0.122708715
-1.0182996	C, Am7, Dm7,	-0.122708715
-0.6650705	Dm7, G, Dm7,	-0.14829144
-1.3955386	C, Am, Dm7,	-0.122708715
-1.050664	Dm7, Am, Dm7,	-0.122708715
-0.9804308	Am, Am, Dm7,	-0.122708715
-0.7382388	Dm7/A, Am, Dm7,	-0.122708715
-0.65219915	F, Am/E, Dm7,	-0.15716521
-0.7884694	Dm7, Cm, Dm7,	-0.122708715
-1.0439734	F, C/E, Dm7,	-0.24086854
-0.769045	E-/G, Fm, Dm7,	-0.122708715
-0.35482275	C, Em7, Dm7,	-0.122708715
-1.1316206	<s> C, Am,	-0.22223417
-1.1475807	C, C, Am,	-0.1661948
-1.0196195	F, C, Am,	-0.15269548
-0.81777227	G, C, Am,	-0.23365095
-0.88750553	Am, C, Am,	-0.17701228
-0.77194905	G7, C, Am,	-0.13959533
-0.6648448	Am/E, C, Am,	-0.122708715
-0.97789395	Dm, C, Am,	-0.122708715
-1.2040936	B-, C, Am,	-0.122708715
-0.91140836	D, C, Am,	-0.122708715
-0.91140836	Gsus4, C, Am,	-0.122708715
-0.78440964	C/E, C, Am,	-0.122708715
-0.42881536	G/D, C, Am,	-0.122708715
-1.1473935	F/C, C, Am,	-0.122708715
-0.2740469	D-, C, Am,	-0.24086854
-0.9336272	Dm7/F, C, Am,	-0.122708715
-0.42881536	Gm/B-, C, Am,	-0.122708715
-1.3252028	C, F, Am,	-0.19780995
-1.1588033	G, F, Am,	-0.17778246
-0.8783666	Dm7, F, Am,	-0.122708715
-0.8436041	Am, F, Am,	-0.14305292
-1.069524	B-, F, Am,	-0.19780995
-0.92883605	C, G, Am,	-0.20532787
-0.9195559	F, G, Am,	-0.23222174
-1.3000863	Am, G, Am,	-0.122708715
-1.5509475	Dm, G, Am,	-0.122708715
-0.66840583	C, Dm7, Am,	-0.14829144
-0.58451325	Am, Dm7, Am,	-0.17778246
-1.2707897	F, Am, Am,	-0.122708715
-1.3315316	G, Am, Am,	-0.122708715
-1.0263447	Dm7, Am, Am,	-0.122708715
-0.72622395	E/G#, Am, Am,	-0.122708715
-0.5223914	C, E, Am,	-0.122708715
-0.48897684	F, E, Am,	-0.122708715
-0.3521241	G, E, Am,	-0.24086854
-0.7130258	Am, D7, Am,	-0.122708715
-0.6973732	Am, G7, Am,	-0.122708715
-1.2099752	D7, G7, Am,	-0.122708715
-0.2821458	C, Em/B, Am,	-0.3348661
-0.48687944	A-, Dm, Am,	-0.122708715
-0.914804	F, B-, Am,	-0.24086854
-0.9806557	F, D, Am,	-0.122708715
-0.73501545	C, Em, Am,	-0.19780995
-0.700999	F, Em, Am,	-0.24086854
-0.25246015	Am, Em, Am,	-0.19780995
-0.45920053	Am, Cm, Am,	-0.19780995
-1.2454026	G7, Cm, Am,	-0.122708715
-1.4438664	B-, Cm, Am,	-0.122708715
-1.3468989	Cm, Cm, Am,	-0.122708715
-0.6776728	Am, A-, Am,	-0.24086854
-0.24279569	C, G7/B, Am,	-0.122708715
-0.6092885	C, G/B, Am,	-0.19944398
-0.1671008	Am, E/G#, Am,	-0.122708715
-0.4533334	C/E, G11, Am,	-0.122708715
-0.3451362	C, Em/G, Am,	-0.122708715
-0.4476587	C, E7, Am,	-0.122708715
-0.21003743	G, E7, Am,	-0.122708715
-0.21003743	Ddim, E7, Am,	-0.122708715
-0.636805	C/G, Dm7/A, Am,	-0.122708715
-2.2279096	F, C, E,	-0.122708715
-0.92021835	Am7, F, E,	-0.122708715
-1.7564135	G, F, E,	-0.122708715
-0.92021835	Dm7, F, E,	-0.122708715
-1.0357648	Gm, F, E,	-0.122708715
-1.1053562	G/B, Am7, E,	-0.122708715
-1.7053684	Dm, G, E,	-0.122708715
-0.7707751	C/G, G, E,	-0.122708715
-1.3322953	F/A, G, E,	-0.122708715
-2.0702362	F, C, D7,	-0.122708715
-0.49655074	F#o7, C, D7,	-0.122708715
-2.1368558	C, F, D7,	-0.122708715
-0.4811454	<s> Am7, D7,	-0.122708715
-1.1220012	Dm7, Am, D7,	-0.122708715
-0.7715237	G7, Am, D7,	-0.122708715
-0.5779171	F#o7, C/G, D7,	-0.24086854
-0.42343992	B--7, A7, D7,	-0.122708715
-0.25300574	Em, E-7, D7,	-0.122708715
-1.7013235	C, C, G7,	-0.122708715
-1.5985649	F, C, G7,	-0.14829144
-1.8522356	G, C, G7,	-0.122708715
-0.58885884	F7, C, G7,	-0.19780995
-1.1134462	Dm7/F, C, G7,	-0.122708715
-1.5873706	C, F, G7,	-0.24086854
-1.5735041	Am, F, G7,	-0.122708715
-0.47981426	G7, F, G7,	-0.122708715
-1.0169399	Em, F, G7,	-0.122708715
-1.395328	Cm, G, G7,	-0.122708715
-1.5193537	C, Am, G7,	-0.19780995
-0.20290992	C, D7, G7,	-0.19780995
-0.17007682	Am7, D7, G7,	-0.122708715
-0.2841951	Am, D7, G7,	-0.122708715
-0.17007682	C/G, D7, G7,	-0.122708715
-0.17007682	A7, D7, G7,	-0.122708715
-0.17007682	E-7, D7, G7,	-0.122708715
-1.3827765	D7, G7, G7,	-0.122708715
-1.3538282	C, B-, G7,	-0.24086854
-1.030053	F, Cm, G7,	-0.24086854
-1.4511981	G, Cm, G7,	-0.122708715
-1.3009307	A-, E-, G7,	-0.122708715
-0.64998406	Em, B7, G7,	-0.122708715
-0.77891064	Cm, A-7, G7,	-0.122708715
-0.38349232	E-, A-7, G7,	-0.122708715
-1.7357752	<s> C, Em/B,	-0.24086854
-1.6183379	F, C, Em/B,	-0.24086854
-1.8533326	G, C, Em/B,	-0.122708715
-1.5080236	Dm, C, Em/B,	-0.122708715
-1.5585091	B-, C, Em/B,	-0.122708715
-1.104601	D, C, Em/B,	-0.122708715
-1.5023348	C, F, Am/E,	-0.19780995
-1.2308011	F, F, Am/E,	-0.122708715
-1.6298629	G, F, Am/E,	-0.122708715
-1.4937391	Am, F, Am/E,	-0.122708715
-0.7393947	Em/B, F, Am/E,	-0.122708715
-1.066223	C/G, F, Am/E,	-0.122708715
-0.4889846	Am/E, Dm7, Am/E,	-0.122708715
-1.6561893	<s> C, Dm,	-0.122708715
-1.5672033	C, C, Dm,	-0.122708715
-1.4985629	F, C, Dm,	-0.17778246
-1.5148313	G, C, Dm,	-0.16278665
-1.118076	Dm, C, Dm,	-0.19780995
-1.174143	B-, C, Dm,	-0.122708715
-0.8856963	F/A, C, Dm,	-0.122708715
-1.3272346	C, F, Dm,	-0.28210396
-1.218602	F, F, Dm,	-0.122708715
-1.361287	G, F, Dm,	-0.17778246
-1.114873	Dm, F, Dm,	-0.122708715
-0.46822038	D/F#, F, Dm,	-0.122708715
-0.66338927	C/E, Am7, Dm,	-0.122708715
-0.9088436	G/B, Am7, Dm,	-0.122708715
-1.7440983	F, G, Dm,	-0.122708715
-1.0647576	Dm, G, Dm,	-0.24520148
-1.3456446	C, Am, Dm,	-0.19780995
-0.96135116	Am, Am, Dm,	-0.122708715
-1.0794921	E, Am, Dm,	-0.122708715
-0.46393594	G7/B, Am, Dm,	-0.122708715
-0.45671636	F, D7, Dm,	-0.122708715
-0.42830715	F, Am/E, Dm,	-0.18873805
-0.9845623	G, Dm, Dm,	-0.122708715
-1.1979346	Em, Dm, Dm,	-0.122708715
-0.9845623	Gm/D, Dm, Dm,	-0.122708715
-1.3212448	F, B-, Dm,	-0.122708715
-0.30839366	Dm, A, Dm,	-0.122708715
-0.30839366	B-, A, Dm,	-0.122708715
-0.30839366	G/B, A, Dm,	-0.122708715
-0.45255345	F, Em, Dm,	-0.18646425
-0.7393305	Dm, Em, Dm,	-0.122708715
-0.4083581	A9, Em, Dm,	-0.122708715
-1.370046	<s> Cm, Dm,	-0.122708715
-1.4474388	B-, Cm, Dm,	-0.122708715
-1.3903354	A-, Cm, Dm,	-0.122708715
-1.2164022	Gm, Cm, Dm,	-0.122708715
-1.1122223	Am, A-, Dm,	-0.122708715
-1.1584923	F, C/E, Dm,	-0.122708715
-0.6777569	Dm, C/E, Dm,	-0.122708715
-1.068507	C, Gm, Dm,	-0.122708715
-0.41216207	Dm, Gm, Dm,	-0.28210396
-0.41301662	F, Cmaj7, Dm,	-0.122708715
-0.24342683	Em, E-m, Dm,	-0.122708715
-0.24342683	Dm, C#dim, Dm,	-0.122708715
-0.25646484	Dm, Gm/D, Dm,	-0.19780995
-0.2104794	E-, Gm/D, Dm,	-0.122708715
-0.2104794	Gm/D, Gm/D, Dm,	-0.122708715
-0.16749611	B-/F, Em7/G, Dm,	-0.24086854
-0.3459352	Dm9, Em7, Dm,	-0.122708715
-1.169053	<s> C, B-,	-0.15863799
-0.9565557	C, C, B-,	-0.19780995
-1.2414672	F, C, B-,	-0.15716521
-1.3983765	G, C, B-,	-0.122708715
-1.207982	Am, C, B-,	-0.122708715
-1.2708678	G7, C, B-,	-0.122708715
-1.0390444	Dm, C, B-,	-0.24086854
-0.74438673	B-, C, B-,	-0.16278665
-1.0530133	A-, C, B-,	-0.122708715
-0.8297037	F/A, C, B-,	-0.122708715
-0.4482089	E-, C, B-,	-0.122708715
-0.4482089	B-m7, C, B-,	-0.122708715
-0.69879895	A-7, C, B-,	-0.122708715
-1.5800192	C, F, B-,	-0.19780995
-1.2451106	Am, F, B-,	-0.1661948
-0.7550267	Em/B, F, B-,	-0.122708715
-1.1091083	B-, F, B-,	-0.122708715
-1.6936983	C, G, B-,	-0.122708715
-1.6480492	F, G, B-,	-0.122708715
-1.3254694	Am, G, B-,	-0.122708715
-0.8937879	Cm, G, B-,	-0.24086854
-0.45776278	Am7, E, B-,	-0.122708715
-0.47053522	<s> Dm, B-,	-0.122708715
-0.47053522	B-, Dm, B-,	-0.122708715
-1.0530306	A, Dm, B-,	-0.122708715
-1.4999549	C, B-, B-,	-0.122708715
-1.105066	B-, B-, B-,	-0.122708715
-1.1674597	Cm, B-, B-,	-0.14829144
-0.9571041	<s> Cm, B-,	-0.19780995
-1.130478	F, Cm, B-,	-0.122708715
-0.69262594	G, Cm, B-,	-0.17778246
-0.7442876	B-, Cm, B-,	-0.18196353
-0.942276	Cm, Cm, B-,	-0.15716521
-0.97892994	A-, Cm, B-,	-0.14305292
-0.83684325	E-, Cm, B-,	-0.17778246
-0.43882617	Gm/B-, Cm, B-,	-0.122708715
-0.90636057	G, A-, B-,	-0.122708715
-0.90636057	Am, A-, B-,	-0.122708715
-0.8280037	B-, A-, B-,	-0.122708715
-0.6482939	Gsus4, A-, B-,	-0.122708715
-0.6593921	Cm, A-, B-,	-0.24628687
-0.55257124	C, E-, B-,	-0.19780995
-0.7526085	G, E-, B-,	-0.122708715
-0.5936923	Dm, E-, B-,	-0.122708715
-0.69293946	B-, E-, B-,	-0.122708715
-1.1208714	Cm, E-, B-,	-0.122708715
-0.9024908	A-, E-, B-,	-0.122708715
-0.35835385	<s> Fm, B-,	-0.122708715
-0.35835385	Am7, Fm, B-,	-0.122708715
-0.7768122	Cm, Fm, B-,	-0.122708715
-0.6384505	A-, Fm, B-,	-0.122708715
-0.47185984	Gm, Fm, B-,	-0.19780995
-0.35835385	Gm/B-, Fm, B-,	-0.122708715
-0.39337093	F#, B, B-,	-0.122708715
-0.45909876	F/A, A-7, B-,	-0.122708715
-0.24850926	Dm, Am/C, B-,	-0.122708715
-2.159654	F, C, D,	-0.122708715
-1.6925675	C, F, D,	-0.122708715
-1.1463099	C/G, F, D,	-0.122708715
-1.9608327	C, G, D,	-0.122708715
-1.3813957	C, Am, D,	-0.122708715
-1.31862	F, Am, D,	-0.122708715
-1.3863765	G, Am, D,	-0.122708715
-0.7402741	G7, Am, D,	-0.122708715
-1.0364614	F, E, D,	-0.122708715
-0.98813415	Am, D, D,	-0.122708715
-0.54897296	D, D, D,	-0.122708715
-0.70732725	E, A, D,	-0.122708715
-1.2283146	F, Em, D,	-0.122708715
-1.4154501	F, C/E, D,	-0.122708715
-0.9656473	A7, F, A,	-0.122708715
-0.822262	F, E, A,	-0.122708715
-0.7314779	G, E, A,	-0.122708715
-1.159977	A, Dm, A,	-0.122708715
-1.3415785	C, B-, A,	-0.15716521
-0.76182455	G, D, A,	-0.122708715
-0.55789065	Cm, G/B, A,	-0.24086854
-1.8411732	Am, F, Am	-0.122708715
-1.0577315	F, E, Am	-0.122708715
-1.8971297	C, C, Gsus4,	-0.122708715
-2.0702362	F, C, Gsus4,	-0.122708715
-0.8891914	C, D7, Gsus4,	-0.122708715
-1.0862894	A-, B-, Gsus4,	-0.17778246
-0.89056903	B-, Gsus4, Gsus4,	-0.122708715
-1.6187905	Cm, A-, Gsus4,	-0.122708715
-0.8369128	C, F/C, Gsus4,	-0.122708715
-0.36974797	Cmaj7, F/C, Gsus4,	-0.14829144
-1.873752	<s> C, Em,	-0.122708715
-1.5772876	C, C, Em,	-0.122708715
-1.5216895	F, C, Em,	-0.122708715
-1.7138946	G, C, Em,	-0.122708715
-1.4140246	G7, C, Em,	-0.122708715
-1.4123031	Dm, C, Em,	-0.122708715
-1.4587561	B-, C, Em,	-0.122708715
-0.74153405	Em, C, Em,	-0.122708715
-1.5303363	C, F, Em,	-0.14829144
-1.4139711	G, F, Em,	-0.24086854
-0.7080955	Dm, F, Em,	-0.14829144
-1.2858312	E-, F, Em,	-0.122708715
-0.47460854	Am9, F, Em,	-0.122708715
-1.5491327	F, G, Em,	-0.122708715
-0.8370177	<s> Am, Em,	-0.122708715
-1.4681828	C, Am, Em,	-0.122708715
-1.2545692	G, Am, Em,	-0.122708715
-0.9226085	Am, Am, Em,	-0.122708715
-0.7505654	Em, Am, Em,	-0.24086854
-1.0201516	Cm, Am, Em,	-0.122708715
-1.1632448	C, Dm, Em,	-0.19780995
-1.0272242	G, Dm, Em,	-0.122708715
-0.2167144	C, B7, Em,	-0.122708715
-0.15057845	Am, B7, Em,	-0.24086854
-0.3458865	Em, B7, Em,	-0.122708715
-0.39875647	F/C, B, Em,	-0.122708715
-0.39875647	Bm, A9, Em,	-0.122708715
-2.0404305	<s> C, F7,	-0.122708715
-1.7419642	C, C, F7,	-0.122708715
-1.8986568	G, C, F7,	-0.122708715
-1.5313814	G7, C, F7,	-0.122708715
-1.0452349	F7, C, F7,	-0.122708715
-1.3105198	Em, Am, F7,	-0.122708715
-1.2172067	C, G7, F7,	-0.122708715
-0.71418226	Cm, G7, F7,	-0.122708715
-0.7698879	<s> C7, F7,	-0.122708715
-0.91411585	F, C7, F7,	-0.122708715
-0.87425905	G, C7, F7,	-0.122708715
-1.7386461	F, C, F	-0.15716521
-2.101867	G, C, F	-0.122708715
-1.4488074	C, G, F	-0.24086854
-1.425714	F, G, F	-0.24086854
-1.3524287	Am, G, F	-0.122708715
-1.0052732	C7, G, F	-0.122708715
-1.8165653	C, Am, F	-0.122708715
-1.5434234	G, Am, F	-0.122708715
-0.6831399	C, Gm7, F	-0.122708715
-1.2036178	F, C7, F	-0.122708715
-1.6263986	C, Am, C/G,	-0.122708715
-0.7412953	Em/B, Am, C/G,	-0.122708715
-0.4715601	Em/G, Am, C/G,	-0.122708715
-0.888196	E7, Am, C/G,	-0.122708715
-0.9521702	Am7, Dm, C/G,	-0.122708715
-1.2370243	C, F/A, C/G,	-0.122708715
-0.3458865	F, F#o7, C/G,	-0.122708715
-0.2167144	C/G, F#o7, C/G,	-0.122708715
-0.2167144	Bm/F#, F#o7, C/G,	-0.122708715
-0.35727856	C/G, Bo7/A-, C/G,	-0.122708715
-0.42145073	C, E7, C/G,	-0.122708715
-0.25236055	Dm, G7/F, C/G,	-0.122708715
-0.2167144	Am7, Dm7/A, C/G,	-0.122708715
-0.15057845	Am, Dm7/A, C/G,	-0.24086854
-0.3458865	C/G, Dm7/A, C/G,	-0.122708715
-1.7821114	C, C, G	-0.122708715
-1.9211534	F, C, G	-0.122708715
-1.9451594	G, C, G	-0.122708715
-1.2029775	Dm7, C, G	-0.122708715
-1.9795419	C, F, G	-0.122708715
-1.3355427	Am, F, G	-0.24086854
-1.4831746	G, G, G	-0.122708715
-1.2046397	C, Dm7, G	-0.122708715
-0.7006897	Fm, Dm7, G	-0.122708715
-1.7937524	C, Am, G	-0.122708715
-1.4363911	F, Am, G	-0.122708715
-1.3901899	C, Dm, G	-0.122708715
-0.71696496	D7, Dm, G	-0.122708715
-1.1566234	Em, Dm, G	-0.122708715
-0.71696496	C#dim, Dm, G	-0.122708715
-1.5409573	G, Cm, G	-0.122708715
-0.8564126	G, Fm, G	-0.122708715
-0.8564126	E-, Fm, G	-0.122708715
-1.7897679	C, C, Cm,	-0.122708715
-1.681992	F, C, Cm,	-0.122708715
-1.3792446	C, F, Cm,	-0.122708715
-1.1203393	F, F, Cm,	-0.122708715
-1.4638059	G, F, Cm,	-0.122708715
-1.3378416	Am, F, Cm,	-0.122708715
-1.2377737	B-, F, Cm,	-0.122708715
-0.76362157	Cm, F, Cm,	-0.17778246
-1.147805	E-, F, Cm,	-0.122708715
-0.4475352	B-/D, F, Cm,	-0.122708715
-0.7350042	Cm, Am7, Cm,	-0.122708715
-1.4859757	C, G, Cm,	-0.122708715
-1.4296726	F, G, Cm,	-0.122708715
-0.57296634	Cm, G, Cm,	-0.13959533
-1.1111645	F/A, G, Cm,	-0.122708715
-0.689634	E-, G, Cm,	-0.122708715
-0.7551379	Fm, G, Cm,	-0.17778246
-0.689634	FmM7/A-, G, Cm,	-0.122708715
-0.7445748	G, Dm7, Cm,	-0.122708715
-1.4442527	C, Am, Cm,	-0.24086854
-0.6763353	Cm, Am, Cm,	-0.19780995
-0.32994664	<s> G7, Cm,	-0.122708715
-0.8077985	C, G7, Cm,	-0.122708715
-0.31463617	G, G7, Cm,	-0.122708715
-0.82723516	D7, G7, Cm,	-0.122708715
-0.483627	Cm, G7, Cm,	-0.122708715
-0.31463617	E-, G7, Cm,	-0.122708715
-0.21070081	A-7, G7, Cm,	-0.19780995
-0.61450964	<s> B-, Cm,	-0.122708715
-0.8812335	B-, B-, Cm,	-0.122708715
-0.53743243	Cm, B-, Cm,	-0.23365095
-0.79936105	A-, B-, Cm,	-0.15863799
-0.97164553	E-, B-, Cm,	-0.122708715
-0.20306616	Fm, B-, Cm,	-0.13959533
-0.39887896	A-7, B-, Cm,	-0.122708715
-0.68860316	E, A, Cm,	-0.122708715
-0.48871285	<s> Gsus4, Cm,	-0.122708715
-0.564654	B-, Gsus4, Cm,	-0.122708715
-0.3180761	Gsus4, Gsus4, Cm,	-0.122708715
-0.3180761	A-, Gsus4, Cm,	-0.122708715
-1.1028861	<s> Cm, Cm,	-0.122708715
-1.0455718	F, Cm, Cm,	-0.122708715
-1.075684	G, Cm, Cm,	-0.122708715
-0.64769816	Dm7, Cm, Cm,	-0.122708715
-0.79229826	Am, Cm, Cm,	-0.122708715
-1.158777	B-, Cm, Cm,	-0.122708715
-0.88496923	Cm, Cm, Cm,	-0.122708715
-1.020283	E-, Cm, Cm,	-0.122708715
-0.7507271	Gm, Cm, Cm,	-0.122708715
-0.64769816	Fm/C, Cm, Cm,	-0.122708715
-0.22801642	<s> A-, Cm,	-0.24086854
-0.6984698	F, A-, Cm,	-0.122708715
-0.7254565	G, A-, Cm,	-0.122708715
-0.67387384	B-, A-, Cm,	-0.122708715
-0.56773454	Cm, A-, Cm,	-0.24628687
-0.5285407	A-, A-, Cm,	-0.122708715
-0.61252606	E-, A-, Cm,	-0.122708715
-0.3445588	A-/C, A-, Cm,	-0.122708715
-0.661516	B-/D, A-, Cm,	-0.122708715
-0.6840434	B-, E-, Cm,	-0.122708715
-0.46651605	Cm, E-, Cm,	-0.24520148
-0.6745173	A-, E-, Cm,	-0.24086854
-0.7424175	E-, E-, Cm,	-0.122708715
-0.5865989	Fm, E-, Cm,	-0.122708715
-0.38167846	Cm/E-, E-, Cm,	-0.122708715
-0.737387	A-, Fm, Cm,	-0.122708715
-0.737387	E-, Fm, Cm,	-0.122708715
-0.40745002	Fm/C, Fm, Cm,	-0.122708715
-0.6286823	E-/G, Fm, Cm,	-0.122708715
-0.6018884	Dm, Gm, Cm,	-0.17778246
-0.283825	Cm, Gm, Cm,	-0.224112
-0.55606073	Fm, Gm, Cm,	-0.122708715
-0.36237678	B-7, Gm, Cm,	-0.122708715
-0.41143194	Gm/B-, A7, Cm,	-0.122708715
-0.40704903	G, Gm/B-, Cm,	-0.122708715
-0.52942294	Fmaj7/C, A-/C, Cm,	-0.122708715
-0.3560559	Cm, Fm/C, Cm,	-0.122708715
-0.268345	<s> Ddim, Cm,	-0.122708715
-0.268345	B-, Ddim, Cm,	-0.122708715
-0.34218937	<s> A-7, Cm,	-0.122708715
-0.34218937	F, A-7, Cm,	-0.122708715
-0.43428642	Cm, A-7, Cm,	-0.122708715
-0.44557905	E-, B-/D, Cm,	-0.15716521
-2.1004982	G, C, A-,	-0.122708715
-1.8677258	C, F, A-,	-0.122708715
-1.1341774	B-, F, A-,	-0.122708715
-1.353744	E-, F, A-,	-0.122708715
-1.6194495	C, G, A-,	-0.122708715
-1.3376842	F, G, A-,	-0.15716521
-1.0329643	D, G, A-,	-0.122708715
-0.9611142	F#, G, A-,	-0.122708715
-1.169607	Fm, G, A-,	-0.122708715
-1.5924846	C, Am, A-,	-0.122708715
-0.4677313	Dm, Am, A-,	-0.122708715
-1.1499887	Em, Am, A-,	-0.122708715
-0.4677313	A-, Am, A-,	-0.122708715
-1.056152	C, B-, A-,	-0.15716521
-0.9358073	B-, B-, A-,	-0.122708715
-0.72725207	Cm, B-, A-,	-0.14829144
-0.84305674	A-, B-, A-,	-0.122708715
-0.7793302	E-, B-, A-,	-0.122708715
-1.0818835	Fm, B-, A-,	-0.122708715
-1.1343958	Am, D, A-,	-0.122708715
-0.8739941	B-, Gsus4, A-,	-0.122708715
-0.88698894	<s> Cm, A-,	-0.122708715
-0.73531806	C, Cm, A-,	-0.122708715
-1.0289924	G, Cm, A-,	-0.122708715
-1.0015398	G7, Cm, A-,	-0.122708715
-0.96560967	B-, Cm, A-,	-0.17778246
-0.24426086	Gsus4, Cm, A-,	-0.28210396
-1.0256256	Cm, Cm, A-,	-0.122708715
-0.6089679	A-, Cm, A-,	-0.26453406
-0.97615856	E-, Cm, A-,	-0.122708715
-0.80159324	Fm, Cm, A-,	-0.122708715
-0.62707067	A-/C, Cm, A-,	-0.122708715
-0.26224032	Ddim, Cm, A-,	-0.24086854
-1.4242833	B-, A-, A-,	-0.122708715
-1.1375417	F, E-, A-,	-0.122708715
-0.9611807	G, E-, A-,	-0.122708715
-1.0601703	Cm, Fm, A-,	-0.122708715
-0.8465844	A-, Fm, A-,	-0.122708715
-0.43112066	Dm, CmM7, A-,	-0.122708715
-0.53929615	Fmaj7/C, A-/C, A-,	-0.122708715
-0.77768207	E-, B-/D, A-,	-0.122708715
-1.7740948	B-, C, B-	-0.122708715
-1.6637808	A-, Cm, B-	-0.122708715
-1.3362675	B-, A-, B-	-0.122708715
-1.472679	Cm, A-, B-	-0.122708715
-1.0608445	G, E-, B-	-0.122708715
-1.2422379	Dm, C, C/E,	-0.19780995
-1.3246814	C, F, C/E,	-0.17778246
-1.6057464	G, F, C/E,	-0.122708715
-0.8780669	Dm7, F, C/E,	-0.122708715
-1.471333	Am, F, C/E,	-0.122708715
-0.577267	C/E, F, C/E,	-0.17778246
-0.4676512	F#m7, F, C/E,	-0.122708715
-1.7298838	Dm, G, C/E,	-0.122708715
-0.77533525	C/G, G, C/E,	-0.122708715
-1.1109601	Am, Dm7, C/E,	-0.122708715
-1.7341685	C, Am, C/E,	-0.122708715
-1.3973627	F, Am, C/E,	-0.122708715
-1.1550223	G, Am, C/E,	-0.24086854
-0.9127108	Am7, Dm, C/E,	-0.122708715
-1.2798529	Em, Dm, C/E,	-0.122708715
-1.0514576	F, C/E, C/E,	-0.122708715
-1.0943817	Am7, FM9, C/E,	-0.122708715
-2.230306	C, F, C/E	-0.122708715
-1.7543895	<s> C, F/A,	-0.122708715
-1.7366712	C, C, F/A,	-0.122708715
-1.8925755	G, C, F/A,	-0.122708715
-0.92740935	F/A, C, F/A,	-0.122708715
-1.4155687	F/C, C, F/A,	-0.122708715
-1.7453572	Dm, G, F/A,	-0.122708715
-0.929728	F/A, G, F/A,	-0.24086854
-1.1763992	C, B-, F/A,	-0.14829144
-0.86620957	Dm, B-, F/A,	-0.122708715
-1.3872995	Cm, B-, F/A,	-0.122708715
-0.45485988	Am/C, B-, F/A,	-0.122708715
-1.6331631	<s> Cm, F/A,	-0.122708715
-0.2542991	G/B, CmM7/B, F/A,	-0.122708715
-2.0637443	<s> C, E-,	-0.122708715
-1.8998039	F, C, E-,	-0.122708715
-1.9251773	G, C, E-,	-0.122708715
-1.2495985	B-, C, E-,	-0.122708715
-1.5825468	C, F, E-,	-0.122708715
-1.1748724	F, F, E-,	-0.122708715
-1.3054051	B-, F, E-,	-0.122708715
-0.8135696	Cm, F, E-,	-0.24086854
-0.7190588	A-, F, E-,	-0.122708715
-1.2043675	E-, F, E-,	-0.122708715
-0.9648061	CmM7, F, E-,	-0.122708715
-1.7930267	C, G, E-,	-0.122708715
-1.7547306	F, G, E-,	-0.122708715
-1.3970543	Am, G, E-,	-0.122708715
-0.6593854	Cm, Dm, E-,	-0.19780995
-1.2018892	Cm, B-, E-,	-0.19780995
-0.4764435	B, B-, E-,	-0.122708715
-0.91199565	<s> Cm, E-,	-0.24086854
-1.0343724	F, Cm, E-,	-0.122708715
-1.0644367	G, Cm, E-,	-0.122708715
-0.54327655	G7, Cm, E-,	-0.14829144
-0.9935509	B-, Cm, E-,	-0.122708715
-0.89360136	Cm, Cm, E-,	-0.24086854
-0.93272257	A-, Cm, E-,	-0.122708715
-0.76474893	E-, Cm, E-,	-0.14305292
-0.8253824	Fm, Cm, E-,	-0.122708715
-0.5990305	A-7, Cm, E-,	-0.122708715
-0.4159026	B-/D, Cm, E-,	-0.122708715
-0.8200637	F, A-, E-,	-0.122708715
-0.86060417	G, A-, E-,	-0.122708715
-0.80792063	B-, A-, E-,	-0.122708715
-0.6196116	Gsus4, A-, E-,	-0.122708715
-0.9406096	Cm, A-, E-,	-0.122708715
-0.7904919	B-/D, A-, E-,	-0.122708715
-1.1396292	A-, E-, E-,	-0.122708715
-0.93394583	E-, E-, E-,	-0.122708715
-0.7110188	Fm, E-, E-,	-0.122708715
-1.068562	Cm, Fm, E-,	-0.122708715
-0.45740286	G-, Fm, E-,	-0.122708715
-0.35482275	E-, Dm9, E-,	-0.122708715
-0.25043064	D-, Cm/E-, E-,	-0.122708715
-1.9488041	C, C, Gm7,	-0.122708715
-1.7602581	F, C, Gm7,	-0.14829144
-2.2367768	G, C, B7,	-0.122708715
-1.1319402	Dm7, Am, B7,	-0.122708715
-0.48982766	D7, Am, B7,	-0.122708715
-0.47168967	B7, Em, B7,	-0.122708715
-2.1864479	G, C, C7,	-0.122708715
-1.9283179	C, F, C7,	-0.122708715
-1.8256056	G, F, C7,	-0.122708715
-0.92500424	C7, F, C7,	-0.1661948
-1.8619583	C, G, C7,	-0.122708715
-1.0491745	C7, G, C7,	-0.122708715
-0.48771542	B7, G7, C7,	-0.122708715
-0.3966849	C7, F7, C7,	-0.15716521
-0.98783344	F, C7, C7,	-0.122708715
-0.9352934	G, C7, C7,	-0.122708715
-0.4509355	A-, G, F#,	-0.15716521
-0.95517355	E-, A-, F#,	-0.122708715
-1.4672953	F, C/E, F#o7/E-,	-0.122708715
-0.25715798	C/E, F#o7/E-, G/D,	-0.122708715
-0.7022525	Am, Dm, Bm7,	-0.122708715
-0.5033024	Bm7, C, G7/B,	-0.122708715
-1.7007838	<s> C, G/B,	-0.122708715
-1.3996507	C, C, G/B,	-0.24086854
-1.3809098	F, C, G/B,	-0.21452467
-0.9053114	Am7, C, G/B,	-0.122708715
-1.5657881	G, C, G/B,	-0.15716521
-1.3916296	Am, C, G/B,	-0.122708715
-0.47803834	G9, C, G/B,	-0.122708715
-0.90670425	C, Cm, G/B,	-0.122708715
-1.5215794	B-, Cm, G/B,	-0.122708715
-0.47855857	A, Cm, G/B,	-0.122708715
-0.67638826	A-7, Cm, G/B,	-0.24086854
-0.696641	Am7, FM9, G/B,	-0.15716521
-1.760699	G, C, Fm,	-0.24086854
-0.7485063	Cm, Am7, Fm,	-0.122708715
-1.7785364	C, G, Fm,	-0.122708715
-1.3721689	G, G, Fm,	-0.122708715
-0.86249644	Fm, G, Fm,	-0.24086854
-1.2256012	Em, Am, Fm,	-0.122708715
-1.0263233	G/B, Am, Fm,	-0.122708715
-1.1376572	Am, D, Fm,	-0.122708715
-1.1977539	B-, Cm, Fm,	-0.122708715
-1.2716457	E-, Cm, Fm,	-0.122708715
-0.9914954	Fm, Cm, Fm,	-0.122708715
-0.85040224	Gm, Cm, Fm,	-0.122708715
-0.30399284	Fm, A-, Fm,	-0.17778246
-0.82778	A-, E-, Fm,	-0.19780995
-0.96303666	E-, E-, Fm,	-0.122708715
-1.0731201	Cm, Gm, Fm,	-0.122708715
-0.43158755	Gm, Gm, Fm,	-0.122708715
-0.7545934	Cm, Gm/B-, Fm,	-0.122708715
-0.6703361	Cm, Fm/C, Fm,	-0.122708715
-0.24850926	A-, E-/G, Fm,	-0.122708715
-0.24850926	B-, G-, Fm,	-0.122708715
-1.9697713	<s> C, F/C,	-0.122708715
-1.6722468	C, C, F/C,	-0.122708715
-1.5867784	G, C, F/C,	-0.1661948
-1.4132036	Am, C, F/C,	-0.122708715
-1.4856143	Dm, C, F/C,	-0.122708715
-0.41869187	F/C, C, F/C,	-0.3243827
-1.0803028	F#, G, F/C,	-0.122708715
-1.2367609	E, Am, F/C,	-0.122708715
-1.3343633	C, F/C, F/C,	-0.122708715
-0.2171632	<s> Cmaj7, F/C,	-0.122708715
-0.2171632	C, Cmaj7, F/C,	-0.122708715
-0.2171632	Gsus4, Cmaj7, F/C,	-0.122708715
-0.35810024	F, Bo7/A-, F/C,	-0.122708715
-1.5313795	F/C, C, E/B,	-0.122708715
-0.36140263	A-, F#, B,	-0.122708715
-1.3470284	C, F/C, B,	-0.122708715
-0.25559625	C, E/B, B,	-0.122708715
-0.40549198	E/B, B, E-/B-,	-0.122708715
-1.0535693	G/B, Am, E/G#,	-0.122708715
-0.7785959	E/G#, Am, E/G#,	-0.122708715
-0.58639234	C, Am7, G11,	-0.24086854
-1.8345861	Dm, G, G11,	-0.122708715
-0.4499517	Am7, Dm7, G11,	-0.122708715
-0.7019073	Em7, Dm7, G11,	-0.122708715
-0.79019356	Dm7/A, Am, G11,	-0.122708715
-1.0052629	Dm7/A, C/G, G11,	-0.122708715
-0.4838107	Dm7, C/E, G11,	-0.122708715
-0.7737151	Am, Fm, G11,	-0.122708715
-1.7163883	<s> C, Gm,	-0.122708715
-1.3941472	F, C, Gm,	-0.14829144
-1.8143117	G, C, Gm,	-0.122708715
-1.5315204	B-, C, Gm,	-0.122708715
-0.48049355	Cm, C, Gm,	-0.122708715
-0.9230801	Gm, C, Gm,	-0.122708715
-1.7667071	C, F, Gm,	-0.19780995
-0.943927	Dm, Dm, Gm,	-0.122708715
-1.0134233	Cm, Dm, Gm,	-0.122708715
-0.71696496	Gm, Dm, Gm,	-0.122708715
-0.9615918	Gm/D, Dm, Gm,	-0.122708715
-1.3102123	G, Cm, Gm,	-0.122708715
-1.1499153	B-, Cm, Gm,	-0.15716521
-1.0332321	Cm, Cm, Gm,	-0.15716521
-0.9717724	Fm, Cm, Gm,	-0.122708715
-0.8387589	Gm, Cm, Gm,	-0.17778246
-0.6578244	B-, F/A, Gm,	-0.24086854
-0.7595528	Cm, Fm, Gm,	-0.19780995
-1.2396742	Cm, Gm, Gm,	-0.122708715
-0.25236055	<s> B-7, Gm,	-0.122708715
-1.1874948	Gsus4, C, Cmaj7,	-0.122708715
-1.6488538	B-, F, Cmaj7,	-0.122708715
-0.6717893	F/C, Gsus4, Cmaj7,	-0.24086854
-2.0313146	G, F, Bm/F#,	-0.122708715
-0.69490093	C/G, F, F#o7,	-0.24086854
-1.3790658	C7, F, F#o7,	-0.122708715
-0.75201416	E7, C/G, F#o7,	-0.122708715
-0.25559625	F, Bm/F#, F#o7,	-0.122708715
-1.0137023	F#o7, C/G, A7,	-0.122708715
-0.91471374	C, Gm, A7,	-0.24086854
-0.775586	Cm, Gm/B-, A7,	-0.122708715
-0.2549472	G7, B--7, A7,	-0.122708715
-0.9543604	Am7, F, G#o7,	-0.122708715
-0.9543604	A7, F, G#o7,	-0.122708715
-0.97190034	A7, F, Bo7/A-,	-0.122708715
-0.478576	G7/F, C/G, Bo7/A-,	-0.122708715
-2.2279096	F, C, D-,	-0.122708715
-1.2464671	E, Am, D-,	-0.122708715
-1.5092924	<s> Cm, D-,	-0.122708715
-1.6052098	B-, Cm, D-,	-0.122708715
-1.360562	E-, Cm, D-,	-0.122708715
-1.6377724	Cm, A-, D-,	-0.122708715
-0.4283376	Am, D-, C/G	-0.122708715
-1.6630563	B-, F, A-	-0.122708715
-1.4022716	A-, B-, A-	-0.122708715
-1.3084867	E-, B-, A-	-0.122708715
-1.3118545	Cm, F, CmM7,	-0.122708715
-0.7777549	A-, F, CmM7,	-0.122708715
-0.59711194	CmM7, F, CmM7,	-0.24086854
-1.6561236	C, Dm, CmM7,	-0.122708715
-1.065696	B-/D, A-, CmM7,	-0.122708715
-0.8346059	F, CmM7, CmM7,	-0.122708715
-0.49669054	CmM7, A-, B-m7,	-0.122708715
-0.92819643	Dm, Em, E-m,	-0.122708715
-2.264277	F, C, Em/G,	-0.122708715
-1.6839908	G, Am, Em/G,	-0.122708715
-1.3234174	Cm, F, Cm	-0.122708715
-1.4031727	E-, F, Cm	-0.122708715
-1.4112346	Cm, G, Cm	-0.122708715
-1.7063098	Cm, B-, Cm	-0.122708715
-1.6457585	A-, Cm, Cm	-0.122708715
-0.74412286	A-, A-, Cm	-0.122708715
-0.8921669	E-, A-, Cm	-0.122708715
-0.7584271	Fm, Gm, Cm	-0.122708715
-0.978403	Cm, A-7, Cm	-0.122708715
-1.8779505	Dm, G, F#o7/C,	-0.122708715
-1.4070852	Em, Dm, C#dim,	-0.122708715
-1.9205889	C, C, Dm7/F,	-0.122708715
-0.6994826	Dm7/F, C, Dm7/F,	-0.17778246
-1.7897149	C, F, Dm7/F,	-0.24086854
-1.664864	G, Am, Dm7/F,	-0.122708715
-0.93901694	C, Dm7/F, Dm7/F,	-0.122708715
-1.2577362	E, Am, D/F#,	-0.122708715
-1.426305	F/A, G, Gm/B-,	-0.122708715
-0.49265054	Am7, Cm, Gm/B-,	-0.122708715
-0.49265054	A7, Cm, Gm/B-,	-0.122708715
-1.7513634	Cm, B-, F/A	-0.122708715
-1.5894461	A-, Cm, Fmaj7/C,	-0.122708715
-0.78240764	A-/C, Cm, Fmaj7/C,	-0.122708715
-0.37155855	Cm, Fmaj7/C, A-/C,	-0.19780995
-0.6895397	Cm, Fmaj7/C, A-/C	-0.122708715
-1.0012474	Dm, Dm, Gm/D,	-0.122708715
-1.0790266	Cm, Dm, Gm/D,	-0.122708715
-0.58093363	Gm/D, Dm, Gm/D,	-0.122708715
-1.651694	Cm, E-, Gm/D,	-0.122708715
-0.86164504	Dm, Gm/D, Gm/D,	-0.122708715
-1.5119383	Cm, Cm, Fm/C,	-0.122708715
-1.3723376	E-, Cm, Fm/C,	-0.122708715
-1.311903	Gm, Cm, Fm/C,	-0.122708715
-0.79880136	Fm/C, Cm, Fm/C	-0.122708715
-2.208572	<s> C, Fmaj7/A,	-0.122708715
-2.0838294	F, C, Fmaj7/A,	-0.122708715
-1.2402091	Dm7, C, Fmaj7/A,	-0.122708715
-1.2004948	Cm, A-, E-/G,	-0.15716521
-2.264277	F, C, G+11,	-0.122708715
-2.2305949	<s> C, E7,	-0.122708715
-1.2115437	G7, C, E7,	-0.122708715
-1.9918894	F, G, E7,	-0.122708715
-0.86131585	C, Ddim, E7,	-0.122708715
-0.93692034	B7, Em, E-7,	-0.122708715
-1.4168272	D7, G7, B--7,	-0.122708715
-1.7094151	G7, C, F#dim	-0.122708715
-0.7743028	C/E, Dm7, B-/F,	-0.122708715
-0.13343303	<s> B-/F, Em7/G,	-0.122708715
-0.13343303	Dm7, B-/F, Em7/G,	-0.122708715
-0.49901983	Em7/G, Dm, G7/F,	-0.122708715
-0.47956422	Bo7/A-, C/G, F#m7,	-0.122708715
-1.4672953	F, C/E, Dm7	-0.122708715
-1.5246972	<s> Cm, Gm7/B-,	-0.122708715
-0.9350345	C, Cm, Gm7/B-,	-0.122708715
-1.4623815	G, Cm, Gm7/B-,	-0.122708715
-0.23784176	Cm, Gm7/B-, FmM7/A-,	-0.14829144
-1.2352221	Dm7, C, Ddim,	-0.122708715
-1.2911777	G11, C, Ddim,	-0.122708715
-0.49609843	Ddim, C, Ddim,	-0.122708715
-1.5301603	A-, B-, Ddim,	-0.122708715
-0.48445123	E7/G#, Am7, Dm7/A,	-0.122708715
-0.48982766	G11, Am, Dm7/A,	-0.122708715
-0.93759036	E7, Am, Dm7/A,	-0.122708715
-0.582103	Dm7/A, C/G, Dm7/A,	-0.19780995
-0.7292018	Dm7, G11, E7/G#,	-0.122708715
-1.0234697	Dm7/A, C/G, Dm7/A	-0.122708715
-0.5751513	FM9, C, FM9,	-0.17778246
-0.7683537	C, Am7, FM9,	-0.122708715
-0.5816662	C/E, Am7, FM9,	-0.122708715
-0.7739183	G/B, Am7, FM9,	-0.122708715
-0.34584755	FM9, Am7, FM9,	-0.17778246
-1.8476783	Dm, G, FM9,	-0.122708715
-0.8309943	G, C/E, FM9,	-0.122708715
-0.69975334	Dm, C/E, FM9,	-0.122708715
-0.88160163	C, FM9, FM9	-0.122708715
-2.1856835	F, C, A-7,	-0.122708715
-0.9937995	E-, F, A-7,	-0.24086854
-1.5293814	F, Am, A-7,	-0.122708715
-1.3335564	G7, Cm, A-7,	-0.122708715
-1.4818734	Cm, Cm, A-7,	-0.122708715
-1.1312549	A-7, Cm, A-7,	-0.122708715
-0.46444172	CmM7/B, F/A, A-7,	-0.122708715
-1.0539109	E-, E-, A-7,	-0.122708715
-1.6926948	G, Am, C7/B-,	-0.122708715
-1.849623	Am, F, G7	-0.122708715
-1.6560295	Cm, Cm, Gm	-0.122708715
-2.208572	<s> C, Am9,	-0.122708715
-2.095091	G, C, Am9,	-0.122708715
-0.49708736	A9, C, Am9,	-0.122708715
-1.7311733	Dm, C, Bm,	-0.122708715
-1.3274713	C, Em, A9,	-0.122708715
-0.25648054	C, Bm, A9,	-0.122708715
-1.066378	G, E-, Dm9,	-0.122708715
-0.6238483	Em, A9, Dm9,	-0.122708715
-1.3341223	G11, C, Em7,	-0.122708715
-0.3625312	A9, Dm9, Em7,	-0.122708715
-0.3890603	Cm, D-, Cm/E-,	-0.15716521
-1.7513634	Cm, B-, G-,	-0.122708715
-2.2813237	F, C, Gsus4	-0.122708715
-0.96438617	Am7, C, G9,	-0.122708715
-2.1471741	G, C, G9,	-0.122708715
-1.1737906	A, Dm, Am/C,	-0.122708715
-0.77580345	Em7, Dm7, G11	-0.122708715
-0.56244797	Cm, G/B, CmM7/B,	-0.24086854
-1.6785034	A-, Cm, B-/D,	-0.122708715
-0.7419541	F, E-, B-/D,	-0.15716521
-1.1294913	Cm, E-, B-/D,	-0.122708715
-1.1630718	A-, E-, B-/D,	-0.122708715

\4-grams:
-0.013661058	C, C, C </s>	0
-0.013661058	F, C, C </s>	0
-0.013661058	G, C, C </s>	0
-0.013661058	G11, C, C </s>	0
-0.010053615	C, F, C </s>	0
-0.008274314	G, F, C </s>	0
-0.010894258	B-, F, C </s>	0
-0.010894258	D, F, C </s>	0
-0.010894258	Gm, F, C </s>	0
-0.019429196	F, Am7, C </s>	0
-0.010367768	C, G, C </s>	0
-0.010367768	F, G, C </s>	0
-0.013661058	Dm, G, C </s>	0
-0.013661058	F/A, G, C </s>	0
-0.019429196	C, Dm7, C </s>	0
-0.018311925	C, Am, C </s>	0
-0.018311925	G, Am, C </s>	0
-0.018311925	E, Am, C </s>	0
-0.010931792	C, G7, C </s>	0
-0.014407209	F, G7, C </s>	0
-0.018311925	C, B-, C </s>	0
-0.018311925	A-, B-, C </s>	0
-0.018311925	E-, B-, C </s>	0
-0.019429196	E, D, C </s>	0
-0.019429196	F/C, Gsus4, C </s>	0
-0.019429196	G7, F7, C </s>	0
-0.019429196	G, Fm, C </s>	0
-0.014721663	C, F/C, C </s>	0
-0.019429196	C, Gm, C </s>	0
-0.019429196	C, Dm7/F, C </s>	0
-0.09271115	Am, F, Am </s>	0
-0.09271115	F, E, Am </s>	0
-0.041160353	F, C, F </s>	0
-0.044739995	G, C, F </s>	0
-0.03187676	C, G, F </s>	0
-0.03187676	F, G, F </s>	0
-0.042344138	Am, G, F </s>	0
-0.042344138	C7, G, F </s>	0
-0.044739995	C, Am, F </s>	0
-0.044739995	G, Am, F </s>	0
-0.0611074	C, Gm7, F </s>	0
-0.0611074	F, C7, F </s>	0
-0.025977498	C, C, G </s>	0
-0.025977498	F, C, G </s>	0
-0.025977498	G, C, G </s>	0
-0.025977498	Dm7, C, G </s>	0
-0.027417941	C, F, G </s>	0
-0.020728158	Am, F, G </s>	0
-0.0371734	G, G, G </s>	0
-0.027417941	C, Dm7, G </s>	0
-0.027417941	Fm, Dm7, G </s>	0
-0.027417941	C, Am, G </s>	0
-0.027417941	F, Am, G </s>	0
-0.025977498	C, Dm, G </s>	0
-0.025977498	D7, Dm, G </s>	0
-0.025977498	Em, Dm, G </s>	0
-0.025977498	C#dim, Dm, G </s>	0
-0.0371734	G, Cm, G </s>	0
-0.027417941	G, Fm, G </s>	0
-0.027417941	E-, Fm, G </s>	0
-0.07782904	B-, C, B- </s>	0
-0.07782904	A-, Cm, B- </s>	0
-0.056684177	B-, A-, B- </s>	0
-0.056684177	Cm, A-, B- </s>	0
-0.07782904	G, E-, B- </s>	0
-0.1705165	C, F, C/E </s>	0
-0.1705165	Am, D-, C/G </s>	0
-0.09271115	B-, F, A- </s>	0
-0.06720299	A-, B-, A- </s>	0
-0.06720299	E-, B-, A- </s>	0
-0.031480003	Cm, F, Cm </s>	0
-0.031480003	E-, F, Cm </s>	0
-0.042753495	Cm, G, Cm </s>	0
-0.042753495	Cm, B-, Cm </s>	0
-0.042753495	A-, Cm, Cm </s>	0
-0.031480003	A-, A-, Cm </s>	0
-0.031480003	E-, A-, Cm </s>	0
-0.042753495	Fm, Gm, Cm </s>	0
-0.042753495	Cm, A-7, Cm </s>	0
-0.1705165	Cm, B-, F/A </s>	0
-0.1705165	Cm, Fmaj7/C, A-/C </s>	0
-0.1705165	Fm/C, Cm, Fm/C </s>	0
-0.1705165	G7, C, F#dim </s>	0
-0.1705165	F, C/E, Dm7 </s>	0
-0.1705165	Dm7/A, C/G, Dm7/A </s>	0
-0.1705165	C, FM9, FM9 </s>	0
-0.1705165	Am, F, G7 </s>	0
-0.1705165	Cm, Cm, Gm </s>	0
-0.1705165	F, C, Gsus4 </s>	0
-0.1705165	Em7, Dm7, G11 </s>	0
-0.24468596	<s> C, C, C,	-0.2642179
-0.50654024	C, C, C, C,	-0.40632564
-0.71491003	F, C, C, C,	-0.21947283
-0.73970187	G, C, C, C,	-0.35206443
-0.3709108	Dm, C, C, C,	-0.26963153
-0.7140159	B-, C, C, C,	-0.2751135
-0.42220497	A-7, C, C, C,	-0.2751135
-1.007429	C, F, C, C,	-0.5493611
-0.9752595	F, F, C, C,	-0.4770032
-0.96377105	G, F, C, C,	-0.35908782
-0.96533763	B-, F, C, C,	-0.2642179
-0.7073939	Gsus4, F, C, C,	-0.2751135
-0.8092905	Gm7, F, C, C,	-0.2642179
-1.1945043	C, G, C, C,	-0.7844717
-1.159222	F, G, C, C,	-0.3963691
-1.0633949	Dm, G, C, C,	-0.2751135
-0.9060653	F/A, G, C, C,	-0.2642179
-1.122063	C, Am, C, C,	-0.2751135
-0.79552037	C, G7, C, C,	-0.26963153
-0.6905439	B-, G7, C, C,	-0.2751135
-0.6839971	C, Dm, C, C,	-0.2751135
-0.87558115	F, Dm, C, C,	-0.2642179
-0.6839971	Cmaj7, Dm, C, C,	-0.2751135
-0.92947036	C, B-, C, C,	-0.30091193
-0.8120373	A-, B-, C, C,	-0.2751135
-0.75438565	E, D, C, C,	-0.2751135
-0.75438565	F/C, Gsus4, C, C,	-0.2751135
-0.74027157	G7, F7, C, C,	-0.2751135
-0.48900402	Am, A-, C, C,	-0.2751135
-0.27577686	Am, Fm, C, C,	-0.2751135
-0.39054844	D, Fm, C, C,	-0.2751135
-0.88408226	C, F/C, C, C,	-0.39782193
-0.27692217	G, F#o7/C, C, C,	-0.2751135
-0.38638422	C, A-7, C, C,	-0.2751135
-0.1751234	<s> C, F, C,	-0.53683543
-0.4766828	C, C, F, C,	-0.8007781
-0.42849326	F, C, F, C,	-1.0683236
-0.46992606	G, C, F, C,	-0.78311145
-0.24419037	Am, C, F, C,	-0.2751135
-0.5984799	G7, C, F, C,	-0.2751135
-0.56648403	Dm, C, F, C,	-0.2751135
-0.5212344	B-, C, F, C,	-0.28833294
-0.36107764	D, C, F, C,	-0.2751135
-0.36107764	Gsus4, C, F, C,	-0.2751135
-0.24419037	A-, C, F, C,	-0.19871816
-0.5053383	G/B, C, F, C,	-0.2751135
-0.36107764	G11, C, F, C,	-0.2751135
-0.24419037	G+11, C, F, C,	-0.7106015
-0.36107764	FmM7/A-, C, F, C,	-0.2751135
-0.5179352	C, F, F, C,	-0.59435093
-0.47808304	G, F, F, C,	-0.19871816
-0.39387083	Gm7, F, F, C,	-0.2751135
-0.39828196	G/B, Am7, F, C,	-0.2751135
-0.5457612	<s> G, F, C,	-0.2751135
-0.42384994	C, G, F, C,	-0.94971585
-0.64184535	F, G, F, C,	-0.26477498
-0.5457612	G, G, F, C,	-0.2751135
-0.6461954	Am, G, F, C,	-1.0210712
-0.521383	Dm, G, F, C,	-0.2678195
-0.38968906	D, G, F, C,	-0.17597318
-0.38968906	Fmaj7/A, G, F, C,	-0.4770032
-0.8170019	C, Am, F, C,	-0.7402446
-0.57370746	F, Am, F, C,	-0.44175622
-0.715807	G, Am, F, C,	-0.2751135
-0.63714266	B-, Am, F, C,	-0.2751135
-0.4037421	G/B, Am, F, C,	-0.66594535
-0.71051306	C, B-, F, C,	-0.29547626
-0.7897905	F, B-, F, C,	-0.2751135
-0.29003847	B-, B-, F, C,	-0.17597318
-0.6065093	D, D, F, C,	-0.2129598
-0.17432618	F, A, F, C,	-0.19871816
-0.17432618	D, A, F, C,	-0.2751135
-0.17895362	C, Gsus4, F, C,	-0.2751135
-0.7543656	Am, C/G, F, C,	-0.54394996
-0.3135926	G, C/E, F, C,	-0.2751135
-0.27986723	Am, C/E, F, C,	-0.6530944
-0.44304815	C, E-, F, C,	-0.7780332
-0.57849866	F, E-, F, C,	-0.2751135
-0.35067728	C, Gm7, F, C,	-0.7704422
-0.2638295	<s> C7, F, C,	-0.2642179
-0.7008258	F, C7, F, C,	-0.2642179
-0.3953883	G7, C7, F, C,	-0.2642179
-0.42920887	C, Gm, F, C,	-0.57207453
-0.30514732	F, Gm, F, C,	-0.43921465
-0.25438643	Am, C7/B-, F, C,	-0.2642179
-0.36753473	C, F, Am7, C,	-0.6530944
-0.4557952	C, G/B, Am7, C,	-0.17597318
-0.25182903	<s> C, G, C,	-0.28966728
-0.36117226	C, C, G, C,	-0.5881536
-0.5893545	F, C, G, C,	-0.942833
-0.52217877	G, C, G, C,	-0.87116253
-0.4714597	B-, C, G, C,	-0.2642179
-0.3365095	Gsus4, C, G, C,	-0.35206443
-0.4714597	A-, C, G, C,	-0.17597318
-0.3365095	C/E, C, G, C,	-0.2751135
-0.4714597	Fm, C, G, C,	-0.2751135
-0.3365095	G+11, C, G, C,	-0.17597318
-0.3100546	<s> F, G, C,	-0.2642179
-0.35612676	C, F, G, C,	-1.2530758
-0.48567972	F, F, G, C,	-0.30091193
-0.5351246	G, F, G, C,	-0.78893524
-0.44933265	Am, F, G, C,	-0.88008547
-0.308988	E, F, G, C,	-0.39782193
-0.54067224	Dm, F, G, C,	-0.4770032
-0.21311757	B-, F, G, C,	-0.2821775
-0.3100546	D, F, G, C,	-0.20915169
-0.43365645	Em, F, G, C,	-0.4770032
-0.308988	Em/G, F, G, C,	-0.17597318
-0.37546688	C, G, G, C,	-0.2751135
-0.31622967	F, G, G, C,	-0.30091193
-0.4551117	G, G, G, C,	-0.2642179
-0.31632054	Em, G, G, C,	-0.2751135
-0.21220054	C, Dm7, G, C,	-0.2821775
-0.3074879	Am, Dm7, G, C,	-0.2642179
-0.6235907	C, Am, G, C,	-0.17597318
-0.44214278	F, Am, G, C,	-0.2678195
-0.53525	Em, Am, G, C,	-0.2751135
-0.2658386	C, Dm, G, C,	-0.644756
-0.33476907	F, Dm, G, C,	-0.20915169
-0.4606974	G, Dm, G, C,	-0.19871816
-0.25521913	Am, Dm, G, C,	-0.2678195
-0.24468182	D7, Dm, G, C,	-0.2751135
-0.3504701	Am/E, Dm, G, C,	-0.35206443
-0.24468182	Dm, Dm, G, C,	-0.2751135
-0.3504701	A, Dm, G, C,	-0.2751135
-0.24468182	Em, Dm, G, C,	-0.2642179
-0.3504701	E-m, Dm, G, C,	-0.2642179
-0.24468182	C#dim, Dm, G, C,	-0.2751135
-0.1553306	G, B-, G, C,	-0.2751135
-0.11298261	Dm, B-, G, C,	-0.19871816
-0.28715217	C, D, G, C,	-0.2642179
-0.28715217	A, D, G, C,	-0.2642179
-0.28715217	Em, D, G, C,	-0.2642179
-0.31960538	G, Em, G, C,	-0.2751135
-0.22415741	Am, F7, G, C,	-0.2642179
-0.43232614	C, C/E, G, C,	-0.2751135
-0.53852254	F, C/E, G, C,	-0.17597318
-0.3721186	C, F/A, G, C,	-0.46442422
-0.35812995	G, F/A, G, C,	-0.8127953
-0.31960538	B-, E-, G, C,	-0.2751135
-0.3765561	F7, C7, G, C,	-0.30091193
-0.62785417	G, F#, G, C,	-0.2751135
-0.22415741	Dm, Bm7, G, C,	-0.2751135
-0.66372806	G, Fm, G, C,	-0.2751135
-0.22415741	B, E-/B-, G, C,	-0.2751135
-0.22415741	A-, B-m7, G, C,	-0.2751135
-0.4485553	Gm7/B-, FmM7/A-, G, C,	-0.2751135
-0.64873374	G, C, Dm7, C,	-0.2678195
-0.5035559	Dm7, C, Dm7, C,	-0.26637527
-0.7067074	Am, C, Dm7, C,	-0.2751135
-0.26867822	C, F, Dm7, C,	-0.17597318
-0.89735913	C, C, Am, C,	-0.2751135
-0.8517277	F, C, Am, C,	-0.39782193
-0.86250466	G, C, Am, C,	-0.17597318
-0.64331084	Am, C, Am, C,	-0.7444387
-0.30899802	D-, C, Am, C,	-0.17597318
-0.4590946	Dm7, F, Am, C,	-0.2642179
-0.8359079	Am, F, Am, C,	-0.2751135
-0.82239074	C, G, Am, C,	-0.2751135
-1.029902	F, G, Am, C,	-0.2751135
-0.7682964	Am, G, Am, C,	-0.2751135
-0.49848667	C, Dm7, Am, C,	-0.30091193
-0.82761896	F, E, Am, C,	-0.2751135
-0.7195856	C, G/B, Am, C,	-0.19871816
-0.22409634	C, C, G7, C,	-0.2751135
-0.25303343	F, C, G7, C,	-0.2129598
-0.22409634	G, C, G7, C,	-0.30091193
-0.35955295	F7, C, G7, C,	-0.2956282
-0.22409634	Dm7/F, C, G7, C,	-0.2678195
-0.18960632	C, F, G7, C,	-0.2642179
-0.38451767	Am, F, G7, C,	-0.20915169
-0.27113917	G7, F, G7, C,	-0.2642179
-0.30397198	C, Am, G7, C,	-0.2642179
-0.20861745	C, D7, G7, C,	-0.2751135
-0.19105461	Am7, D7, G7, C,	-0.2751135
-0.19105461	Am, D7, G7, C,	-0.2751135
-0.33772963	C/G, D7, G7, C,	-0.2751135
-0.19105461	A7, D7, G7, C,	-0.2751135
-0.19105461	E-7, D7, G7, C,	-0.2642179
-0.20979486	D7, G7, G7, C,	-0.2751135
-0.14987808	C, B-, G7, C,	-0.2678195
-0.24582545	Am/E, Dm7, Am/E, C,	-0.17597318
-0.853856	F, C, Dm, C,	-0.2751135
-0.67335826	B-, C, Dm, C,	-0.2642179
-0.42689872	G, F, Dm, C,	-0.44175622
-0.36724305	Dm, F, Dm, C,	-0.2751135
-0.36724305	D/F#, F, Dm, C,	-0.2678195
-0.42885357	C, Am, Dm, C,	-0.2642179
-0.4757983	F, Am/E, Dm, C,	-0.30091193
-0.45522264	F, Em, Dm, C,	-0.28833294
-0.5479402	Dm, Em, Dm, C,	-0.2751135
-0.39120904	A9, Em, Dm, C,	-0.17597318
-0.3593736	F, C/E, Dm, C,	-0.39782193
-0.3593736	C, Gm, Dm, C,	-0.30091193
-0.25578552	F, Cmaj7, Dm, C,	-0.2678195
-0.51448417	C, C, B-, C,	-0.24756339
-0.4790503	F, C, B-, C,	-0.43921465
-0.49761087	G, C, B-, C,	-0.2678195
-0.3555204	Am, C, B-, C,	-0.2751135
-0.5464541	B-, C, B-, C,	-0.5260771
-0.3555204	E-, C, B-, C,	-0.2751135
-0.3555204	A-7, C, B-, C,	-0.2751135
-0.67655915	C, F, B-, C,	-0.28833294
-0.51069456	Am, F, B-, C,	-0.17597318
-0.55927765	B-, F, B-, C,	-0.2751135
-0.62151694	F, G, B-, C,	-0.2751135
-0.7292253	C, B-, B-, C,	-0.17597318
-0.43592736	Am, A-, B-, C,	-0.17597318
-0.7401802	B-, A-, B-, C,	-0.5966582
-0.3954886	C, E-, B-, C,	-0.17597318
-0.4123349	G, E-, B-, C,	-0.2678195
-0.6055263	C, F, D, C,	-0.17597318
-0.513018	C, G, D, C,	-0.2751135
-0.513018	F, E, D, C,	-0.2751135
-0.24119788	C, D7, Gsus4, C,	-0.2642179
-0.51939946	C, F/C, Gsus4, C,	-0.2678195
-0.36102232	Cmaj7, F/C, Gsus4, C,	-0.6530944
-0.49643058	G7, C, Em, C,	-0.2642179
-0.49445862	G, Am, Em, C,	-0.30091193
-0.10188435	<s> C, F7, C,	-0.2751135
-0.10188435	C, C, F7, C,	-0.2751135
-0.10188435	G, C, F7, C,	-0.2751135
-0.10188435	G7, C, F7, C,	-0.30091193
-0.10188435	F7, C, F7, C,	-0.4770032
-0.30829576	C, G7, F7, C,	-0.44175622
-0.21128447	Cm, G7, F7, C,	-0.30091193
-0.8096111	C, F, Cm, C,	-0.2642179
-0.336053	C, F, A-, C,	-0.30091193
-0.47083697	B-, F, A-, C,	-0.17597318
-0.4872597	Dm, Am, A-, C,	-0.2751135
-0.9257498	Cm, B-, A-, C,	-0.17597318
-0.7563265	A-, B-, A-, C,	-0.2751135
-0.63446176	Dm, C, C/E, C,	-0.2642179
-0.82035697	Am, F, C/E, C,	-0.2751135
-0.58151317	Dm, G, C/E, C,	-0.2751135
-0.5577051	C, C, F/A, C,	-0.2751135
-0.5577051	G, C, F/A, C,	-0.92930084
-0.5577051	F/A, C, F/A, C,	-0.76545423
-0.4702145	C, B-, F/A, C,	-0.4770032
-0.5264522	E-, F, E-, C,	-0.2642179
-0.162144	C/E, F#o7/E-, G/D, C,	-0.2751135
-0.4471953	Am, Dm, Bm7, C,	-0.2642179
-0.6306927	<s> C, G/B, C,	-0.2751135
-0.5848342	F, C, G/B, C,	-0.2642179
-0.39616653	G/B, Am, Fm, C,	-0.2751135
-0.28450593	Am, D, Fm, C,	-0.2678195
-0.20582458	<s> C, F/C, C,	-0.2751135
-0.30148	C, C, F/C, C,	-0.2642179
-0.2917221	G, C, F/C, C,	-0.2678195
-0.20582458	Am, C, F/C, C,	-0.2751135
-0.14161968	F/C, C, F/C, C,	-0.67629045
-0.14450976	F#, G, F/C, C,	-0.2751135
-0.14450976	E, Am, F/C, C,	-0.2751135
-0.14450976	C, F/C, F/C, C,	-0.30091193
-0.14450976	F, Bo7/A-, F/C, C,	-0.2751135
-0.07251169	C, Am7, G11, C,	-0.4770032
-0.09791629	Dm, G, G11, C,	-0.2751135
-0.16723911	Em7, Dm7, G11, C,	-0.17597318
-0.09791629	Dm7/A, Am, G11, C,	-0.2751135
-0.09791629	Dm7/A, C/G, G11, C,	-0.17597318
-0.09791629	Am, Fm, G11, C,	-0.2751135
-0.46867588	<s> C, Gm, C,	-0.2751135
-0.33446747	G, C, Gm, C,	-0.2751135
-0.33446747	Cm, C, Gm, C,	-0.2642179
-0.46867588	Gm, C, Gm, C,	-0.2642179
-0.6431412	C, F, Gm, C,	-0.2751135
-0.36792445	C7, F, F#o7, C,	-0.2751135
-0.11484919	Am7, F, G#o7, C,	-0.2751135
-0.11484919	A7, F, G#o7, C,	-0.2642179
-0.17946997	F, C, D-, C,	-0.2751135
-0.17946997	Cm, A-, D-, C,	-0.2642179
-0.4471953	CmM7, A-, B-m7, C,	-0.2751135
-0.162144	Dm, G, F#o7/C, C,	-0.2751135
-0.18888195	C, C, Dm7/F, C,	-0.2751135
-0.24698898	Dm7/F, C, Dm7/F, C,	-0.17597318
-0.09964761	C, F, Dm7/F, C,	-0.19871816
-0.13616304	G, Am, Dm7/F, C,	-0.4770032
-0.13616304	C, Dm7/F, Dm7/F, C,	-0.2751135
-0.56444746	A7, Cm, Gm/B-, C,	-0.2751135
-0.08854758	F, C, G+11, C,	-0.57391316
-0.5494598	Cm, Gm7/B-, FmM7/A-, C,	-0.2751135
-0.29442632	Dm7, C, Ddim, C,	-0.2751135
-0.29442632	G11, C, Ddim, C,	-0.2751135
-0.4150005	Ddim, C, Ddim, C,	-0.30091193
-0.630898	FM9, C, FM9, C,	-0.2751135
-0.22267641	Dm, G, FM9, C,	-0.2642179
-0.1543874	G, C/E, FM9, C,	-0.2751135
-0.1543874	Dm, C/E, FM9, C,	-0.2751135
-0.24353929	F, C, A-7, C,	-0.2751135
-0.24353929	F, Am, A-7, C,	-0.2751135
-0.48551944	C, Em, A9, C,	-0.2751135
-0.11484919	Am7, C, G9, C,	-0.17597318
-0.11484919	G, C, G9, C,	-0.2751135
-0.783446	C, C, C, F,	-0.48277888
-0.81949216	F, C, C, F,	-0.7837443
-0.85407174	G, C, C, F,	-0.7595498
-0.9086113	G7, C, C, F,	-0.2751135
-0.5255598	<s> F, C, F,	-0.2678195
-0.62681127	C, F, C, F,	-1.1624252
-0.6060907	F, F, C, F,	-0.35346818
-0.8119802	G, F, C, F,	-0.62646943
-0.65615326	Am, F, C, F,	-0.19871816
-0.8155759	B-, F, C, F,	-0.30091193
-0.7345235	A, F, C, F,	-0.2751135
-0.61154014	C/E, F, C, F,	-0.2751135
-0.69126755	Gm7, F, C, F,	-0.6530944
-0.5708019	Gm, F, C, F,	-0.4770032
-0.41765195	F, Am7, C, F,	-0.6530944
-0.5803155	<s> G, C, F,	-0.2642179
-0.7918342	C, G, C, F,	-0.9446562
-0.5888974	F, G, C, F,	-1.2837461
-0.6270122	G, G, C, F,	-0.26637527
-0.4757014	Dm, G, C, F,	-0.3145102
-0.6462598	B-, G, C, F,	-0.2751135
-0.7053729	D, G, C, F,	-0.2642179
-0.40904552	Em, G, C, F,	-0.2751135
-0.40904552	F7, G, C, F,	-0.2642179
-0.57376266	C/E, G, C, F,	-0.2751135
-0.40904552	C7, G, C, F,	-0.30091193
-0.40904552	FmM7/A-, G, C, F,	-0.2751135
-0.8877499	C, Dm7, C, F,	-0.2642179
-0.84232134	G, Am, C, F,	-0.2751135
-0.64288074	G/B, Am, C, F,	-0.2751135
-0.48998278	C, G7, C, F,	-0.28966728
-0.49832916	F, G7, C, F,	-0.26637527
-0.41630837	Am, G7, C, F,	-0.2751135
-0.58441675	B-, G7, C, F,	-0.2751135
-0.52515423	Dm7, Am/E, C, F,	-0.17597318
-0.90784574	Em, Dm, C, F,	-0.2751135
-0.672007	Cmaj7, Dm, C, F,	-0.2642179
-0.8976838	C, B-, C, F,	-0.32942232
-0.9049945	F, B-, C, F,	-0.2751135
-0.48205382	G, B-, C, F,	-0.2751135
-0.7287235	E, D, C, F,	-0.2751135
-0.45487916	<s> Gsus4, C, F,	-0.2751135
-0.5980526	F, A-, C, F,	-0.17597318
-0.53262776	B-, A-, C, F,	-0.2751135
-0.41765195	C, C/E, C, F,	-0.2642179
-0.1877516	C, G/B, C, F,	-0.2678195
-1.1169516	C, F/C, C, F,	-0.19871816
-0.4736583	G, G11, C, F,	-0.2751135
-0.3606824	C, Gm, C, F,	-0.2678195
-0.26854396	F, Gm, C, F,	-0.2751135
-0.26854396	<s> G+11, C, F,	-0.2751135
-0.38115126	C, G+11, C, F,	-0.7780332
-0.26820537	Gm7/B-, FmM7/A-, C, F,	-0.2751135
-1.3727354	C, C, F, F,	-0.4770032
-1.0823613	F, C, F, F,	-0.63805085
-1.3321133	G, C, F, F,	-0.34372604
-1.2280179	C, G, F, F,	-0.2751135
-1.1739119	F, G, F, F,	-0.2642179
-1.078119	Am, G, F, F,	-0.2751135
-0.9730482	Dm, G, F, F,	-0.2751135
-0.81621414	Cm, G, F, F,	-0.2751135
-0.7042829	C, Gm7, F, F,	-0.2642179
-0.8358019	F, CmM7, F, F,	-0.2751135
-0.2738783	F#o7, C/G, Am7, F,	-0.2678195
-0.9622868	C, G/B, Am7, F,	-0.2751135
-0.7475848	<s> C, G, F,	-0.2751135
-0.74426496	C, C, G, F,	-0.2751135
-0.5326605	F, C, G, F,	-1.0103921
-0.5478865	G, C, G, F,	-0.5205028
-0.5019566	Am, C, G, F,	-0.2751135
-0.3586491	Dm, C, G, F,	-0.17597318
-0.5019566	B-, C, G, F,	-0.2642179
-0.3586491	D, C, G, F,	-0.17597318
-0.3586491	G#o7, C, G, F,	-0.17597318
-0.3586491	Dm7/F, C, G, F,	-0.4770032
-0.96090496	C, F, G, F,	-0.5900809
-0.48283476	G, F, G, F,	-0.50812435
-0.8179678	Am, F, G, F,	-0.20915169
-0.5975562	Em, F, G, F,	-0.28833294
-0.40057102	C7, F, G, F,	-0.2678195
-0.7644764	C, G, G, F,	-0.17597318
-0.42999753	Am, G, G, F,	-0.2751135
-0.57711154	C, Am, G, F,	-0.6861487
-0.63770205	F, Am, G, F,	-0.24681602
-0.24286284	G, Am, G, F,	-0.18882409
-0.3587993	D, Am, G, F,	-0.17597318
-0.98882085	C, Dm, G, F,	-0.2751135
-0.8240706	G, Dm, G, F,	-0.2678195
-0.6508544	Am/E, Dm, G, F,	-0.2642179
-0.6508544	E-m, Dm, G, F,	-0.2642179
-0.44212595	F, D, G, F,	-0.17597318
-0.450957	F, Cm, G, F,	-0.21947283
-0.46497717	C, C/E, G, F,	-0.17597318
-0.3291684	F, C/E, G, F,	-0.17597318
-0.33174896	C/E, C/E, G, F,	-0.2751135
-0.44565478	B-, F/A, G, F,	-0.17597318
-0.42543626	F, C7, G, F,	-0.2642179
-0.7192946	G, F#, G, F,	-0.2751135
-0.231914	C, Fmaj7/A, G, F,	-0.4770032
-0.8612407	Am, C, Dm7, F,	-0.2642179
-0.47502494	F, C/E, Dm7, F,	-0.54394996
-0.31590992	<s> C, Am, F,	-0.19871816
-0.44655693	C, C, Am, F,	-0.2751135
-0.5878184	F, C, Am, F,	-0.46442422
-0.39471987	G, C, Am, F,	-0.8975362
-0.48858747	Am, C, Am, F,	-0.44175622
-0.45468482	G7, C, Am, F,	-0.37480944
-0.34368733	Am/E, C, Am, F,	-0.17597318
-0.48128307	Dm, C, Am, F,	-0.39782193
-0.34368733	Gsus4, C, Am, F,	-0.2642179
-0.34368733	C/E, C, Am, F,	-0.2751135
-0.34368733	Dm7/F, C, Am, F,	-0.2751135
-0.60573906	C, F, Am, F,	-0.2956282
-0.48966303	G, F, Am, F,	-0.20915169
-0.5193993	Am, F, Am, F,	-0.35527974
-0.7773894	C, G, Am, F,	-0.54394996
-0.42565456	F, G, Am, F,	-1.0880198
-0.6356505	Dm, G, Am, F,	-0.2751135
-0.42660713	F, Am, Am, F,	-0.2751135
-0.27515766	C, Em/B, Am, F,	-0.39782193
-0.18176538	F, B-, Am, F,	-0.2751135
-0.4361953	C, Em, Am, F,	-0.4770032
-0.59833014	Am, Cm, Am, F,	-0.2642179
-0.34837097	Cm, Cm, Am, F,	-0.2642179
-0.4950496	C, G/B, Am, F,	-1.0210712
-0.40442133	G, E7, Am, F,	-0.39782193
-0.5573999	F, C, E, F,	-0.39782193
-0.5087227	Em, F, G7, F,	-0.2642179
-0.5282124	Dm, C, Em/B, F,	-0.2751135
-0.37736362	B-, C, Em/B, F,	-0.2751135
-0.6074753	C, C, Dm, F,	-0.2751135
-0.7679731	F, C, Dm, F,	-0.2642179
-0.84259224	G, C, Dm, F,	-0.17597318
-0.411197	Dm, C, Dm, F,	-0.17597318
-0.86948556	G, F, Dm, F,	-0.2751135
-0.4468944	Em, Dm, Dm, F,	-0.2751135
-0.65264106	B-, A, Dm, F,	-0.2642179
-1.0255238	F, Em, Dm, F,	-0.2642179
-0.27246657	Dm9, Em7, Dm, F,	-0.2642179
-0.54295945	<s> C, B-, F,	-0.2751135
-0.52746075	F, C, B-, F,	-0.4770032
-0.5527221	G, C, B-, F,	-0.2642179
-0.2633501	Dm, C, B-, F,	-0.37480944
-0.3945368	A-, C, B-, F,	-0.2678195
-0.3945368	B-m7, C, B-, F,	-0.2751135
-0.39538717	C, F, B-, F,	-0.19871816
-0.7526859	Am, F, B-, F,	-0.2751135
-0.57839394	B-, F, B-, F,	-0.2751135
-0.33614883	C, G, B-, F,	-0.30091193
-0.33614883	Am, G, B-, F,	-0.2642179
-0.22950731	Cm, G, B-, F,	-0.4770032
-0.26775306	Am7, E, B-, F,	-0.2678195
-0.58886325	C, B-, B-, F,	-0.2751135
-0.37488732	B-, B-, B-, F,	-0.2642179
-0.5968813	B-, E-, B-, F,	-0.39782193
-0.4247331	Cm, E-, B-, F,	-0.2751135
-0.61229056	C, F, D, F,	-0.2642179
-0.5608675	C, Am, D, F,	-0.2642179
-0.3575692	F, Am, D, F,	-0.2751135
-0.3575692	G, Am, D, F,	-0.2642179
-0.45207706	Am, D, D, F,	-0.39782193
-0.45207706	D, D, D, F,	-0.2751135
-0.23085874	A7, F, A, F,	-0.30091193
-0.23085874	G, D, A, F,	-0.2751135
-0.19654612	C, C, Gsus4, F,	-0.2751135
-0.19654612	F, C, Gsus4, F,	-0.2751135
-0.32583392	<s> C, Em, F,	-0.2751135
-0.32583392	C, C, Em, F,	-0.2751135
-0.45695794	F, C, Em, F,	-0.2642179
-0.32583392	Em, C, Em, F,	-0.2642179
-0.51657957	F, G, Em, F,	-0.2751135
-0.39436194	C, Dm, Em, F,	-0.60194194
-0.16729961	C, Am, C/G, F,	-0.54394996
-0.16729961	Em/B, Am, C/G, F,	-0.30091193
-0.16729961	Em/G, Am, C/G, F,	-0.4770032
-0.16729961	E7, Am, C/G, F,	-0.2642179
-0.51218444	C, E7, C/G, F,	-0.2751135
-0.4703779	G, F, Cm, F,	-0.2642179
-0.4703779	Am, F, Cm, F,	-0.17597318
-0.84484917	Cm, F, Cm, F,	-0.7427862
-0.64272535	<s> G7, Cm, F,	-0.2751135
-0.45503554	C, G7, Cm, F,	-0.2642179
-1.0334638	A-, B-, Cm, F,	-0.2642179
-0.8599502	A-7, B-, Cm, F,	-0.2751135
-0.5474553	E-, A-, Cm, F,	-1.3520645
-0.86527574	E-, B-/D, A-, F,	-0.2751135
-0.49095568	C, F, C/E, F,	-0.17597318
-0.49095568	C/E, F, C/E, F,	-0.4770032
-0.5487418	Dm, G, C/E, F,	-0.2751135
-0.23110381	C, Am, C/E, F,	-0.2751135
-0.23110381	F, Am, C/E, F,	-0.39782193
-0.16390194	G, Am, C/E, F,	-0.17597318
-0.4922692	F, C/E, C/E, F,	-0.2751135
-0.33543056	<s> C, E-, F,	-0.2751135
-0.33543056	F, C, E-, F,	-0.5893629
-0.4699882	B-, C, E-, F,	-0.2751135
-0.38658696	C, F, E-, F,	-0.2751135
-0.38658696	B-, F, E-, F,	-0.2751135
-0.62611014	Cm, Dm, E-, F,	-0.2751135
-0.38406277	G, Cm, E-, F,	-0.4770032
-0.41450197	G7, Cm, E-, F,	-0.37480944
-0.5377244	B-, Cm, E-, F,	-0.2751135
-0.681017	E-, Cm, E-, F,	-0.2751135
-0.6039836	A-7, Cm, E-, F,	-0.2751135
-0.2615825	E-, Dm9, E-, F,	-0.2751135
-0.23441187	C, C, Gm7, F,	-0.2642179
-0.26342982	F, C, Gm7, F,	-0.98730296
-0.1840112	G, C, C7, F,	-0.2751135
-0.27705604	C, F, C7, F,	-0.2642179
-0.39221528	G, F, C7, F,	-0.30091193
-0.37096763	C7, F, C7, F,	-0.44175622
-0.5783619	C, G, C7, F,	-0.2751135
-0.1840112	B7, G7, C7, F,	-0.2642179
-0.12935229	F, C7, C7, F,	-0.2751135
-0.12935229	G, C7, C7, F,	-0.2751135
-0.5194877	F, C, Gm, F,	-0.8976882
-0.3588839	C, F, Gm, F,	-0.7402446
-0.18393984	B-, F/A, Gm, F,	-0.17597318
-0.18242395	F#o7, C/G, A7, F,	-0.2678195
-0.13152283	C, Gm, A7, F,	-0.30091193
-0.18741764	A-, F, CmM7, F,	-0.2751135
-0.13490003	CmM7, F, CmM7, F,	-0.2751135
-0.17230308	B-/D, A-, CmM7, F,	-0.2751135
-0.17230308	F, CmM7, CmM7, F,	-0.2751135
-0.22745669	G, Am, Em/G, F,	-0.17597318
-0.16571248	E, Am, D/F#, F,	-0.17597318
-0.16571248	Bo7/A-, C/G, F#m7, F,	-0.17597318
-0.16571248	G, Am, C7/B-, F,	-0.30091193
-0.15449911	<s> C, Am9, F,	-0.2751135
-0.15449911	G, C, Am9, F,	-0.2751135
-0.15449911	A9, C, Am9, F,	-0.2751135
-0.250156	A-, Cm, B-/D, F,	-0.2751135
-0.6148277	Am7, G11, C, Am7,	-0.60194194
-0.43672445	Dm7, G11, C, Am7,	-0.17597318
-0.43672445	C/G, G11, C, Am7,	-0.17597318
-0.725659	C, FM9, C, Am7,	-0.2751135
-1.9623138	<s> C, F, Am7,	-0.2751135
-0.5863563	Am7, C, F, Am7,	-0.55090064
-0.7022326	Bm/F#, F#o7, C/G, Am7,	-0.17597318
-0.78121346	Fm, B-, Cm, Am7,	-0.2678195
-0.30582935	Am7, FM9, C/E, Am7,	-0.2642179
-0.44683215	<s> C, G/B, Am7,	-0.2751135
-0.44373494	F, C, G/B, Am7,	-0.2642179
-0.3183243	Am7, C, G/B, Am7,	-0.2678195
-0.3183243	G9, C, G/B, Am7,	-0.26963153
-0.20488584	Am7, FM9, G/B, Am7,	-0.2642179
-0.17496732	Dm7, G11, E7/G#, Am7,	-0.17597318
-0.43009612	FM9, C, FM9, Am7,	-0.2642179
-0.3385275	C/E, Am7, FM9, Am7,	-0.2642179
-0.6042766	FM9, Am7, FM9, Am7,	-0.2751135
-1.2440012	C, C, C, C	-0.2642179
-1.9666549	C, F, C, C	-0.2751135
-1.4771942	C, G, C, C	-0.2642179
-0.53781414	Fm, G11, C, C	-0.2751135
-1.375253	C, C, F, C	-0.2751135
-1.6000975	F, C, F, C	-0.2751135
-1.6207873	G, C, F, C	-0.2642179
-1.4801527	C, G, F, C	-0.30091193
-1.438255	F, G, F, C	-0.2751135
-1.276557	C, B-, F, C	-0.2751135
-0.7019605	D, D, F, C	-0.2751135
-0.7019605	C, Gm, F, C	-0.2751135
-0.708629	C, F, Am7, C	-0.2751135
-1.4742033	F, C, G, C	-0.4770032
-1.208964	G, C, G, C	-0.30091193
-1.2220858	C, F, G, C	-0.60194194
-1.3526651	Am, F, G, C	-0.2642179
-1.0053414	Am, Dm, G, C	-0.2751135
-1.154246	C, F/A, G, C	-0.2751135
-1.0470903	Dm7, C, Dm7, C	-0.2751135
-1.4894319	G, C, Am, C	-0.2751135
-1.3487786	C, G, Am, C	-0.2751135
-0.935694	F, E, Am, C	-0.2751135
-0.79828215	F, C, G7, C	-0.2751135
-0.64022064	F7, C, G7, C	-0.2642179
-0.6983768	Am, F, G7, C	-0.2751135
-1.278106	B-, C, B-, C	-0.2751135
-1.0023696	B-, A-, B-, C	-0.2751135
-0.92261535	C, E-, B-, C	-0.2751135
-0.5894603	F, E, D, C	-0.2751135
-0.8330355	C, F/C, Gsus4, C	-0.2751135
-0.6229598	C, G7, F7, C	-0.2751135
-0.47292995	C, G, Fm, C	-0.2751135
-0.68750125	C, C, F/C, C	-0.2751135
-0.48356852	Dm, C, F/C, C	-0.2751135
-0.7873203	Gm, C, Gm, C	-0.2751135
-0.84923834	Dm7/F, C, Dm7/F, C	-0.2751135
-1.1055688	C, C, C, G,	-0.2751135
-0.79688734	F, C, C, G,	-0.63805085
-0.8317356	G, C, C, G,	-0.7402446
-0.4724665	Am, C, C, G,	-0.2751135
-0.4724665	Gsus4, C, C, G,	-0.2751135
-0.7866787	C, F, C, G,	-1.102326
-0.9083651	F, F, C, G,	-0.2751135
-0.89359933	G, F, C, G,	-0.8283814
-0.9331423	Am, F, C, G,	-0.21947283
-0.44295147	A, F, C, G,	-0.19871816
-0.4717879	C/G, F, C, G,	-0.44175622
-0.44295147	C7, F, C, G,	-0.30091193
-0.6688105	C7/B-, F, C, G,	-0.2642179
-0.62462926	<s> G, C, G,	-0.2642179
-0.5282842	C, G, C, G,	-1.0100704
-0.7069794	F, G, C, G,	-0.6481811
-0.6738272	G, G, C, G,	-0.17597318
-0.7569921	Dm7, G, C, G,	-0.2642179
-0.7569921	Am, G, C, G,	-0.2642179
-0.8779472	Dm, G, C, G,	-0.19871816
-0.44418988	E-, G, C, G,	-0.2751135
-0.44418988	F#, G, C, G,	-0.2751135
-0.44418988	E-/B-, G, C, G,	-0.2751135
-1.0107777	C, Am, C, G,	-0.2751135
-0.87930703	G, Am, C, G,	-0.2751135
-1.0041709	F, Dm, C, G,	-0.4770032
-0.95316344	C, B-, C, G,	-0.2642179
-0.8202513	E-, B-, C, G,	-0.2642179
-0.47303253	F, D, C, G,	-0.17597318
-0.7634786	F/C, Gsus4, C, G,	-0.6530944
-0.3902577	Am, Em, C, G,	-0.30091193
-0.6190864	F, A-, C, G,	-0.30091193
-0.5506579	B-, A-, C, G,	-0.17597318
-0.4342851	G, C/E, C, G,	-0.2751135
-0.62435645	D, Fm, C, G,	-0.2751135
-0.19513594	F, G#o7, C, G,	-0.17597318
-0.47874546	Am, Dm7/F, C, G,	-0.4770032
-0.62435645	C, G+11, C, G,	-0.17597318
-0.75378984	<s> C, F, G,	-0.44175622
-0.76126283	C, C, F, G,	-0.2642179
-0.9506226	F, C, F, G,	-0.6423649
-0.6640134	G, C, F, G,	-1.0949014
-0.4441782	Dm7, C, F, G,	-0.2642179
-0.9042394	G7, C, F, G,	-0.30091193
-0.6246144	B-, C, F, G,	-0.2956282
-0.6261096	G/B, C, F, G,	-0.2751135
-0.70883304	Gm, C, F, G,	-0.2751135
-0.765537	C, F, F, G,	-0.2956282
-0.74775904	G, F, F, G,	-0.2751135
-0.5314634	<s> G, F, G,	-0.2751135
-0.8028859	C, G, F, G,	-0.2642179
-0.5363121	F, G, F, G,	-0.78993237
-0.5314634	G, G, F, G,	-0.2678195
-0.64237267	Am, G, F, G,	-0.4770032
-0.51039946	Dm, G, F, G,	-0.2642179
-0.6732132	C/E, G, F, G,	-0.17597318
-0.3796581	F/A, G, F, G,	-0.2678195
-0.3796581	C7, G, F, G,	-0.2642179
-0.5523009	C, Am, F, G,	-0.92562145
-0.6363175	F, Am, F, G,	-0.28833294
-0.5140007	G, Am, F, G,	-0.7175499
-0.29547998	Cm, Am, F, G,	-0.30091193
-0.26747316	C, E, F, G,	-0.39782193
-0.222929	C, Dm, F, G,	-0.35206443
-0.3762576	Dm, Dm, F, G,	-0.2751135
-0.7484527	C, B-, F, G,	-0.30091193
-0.7485588	G, B-, F, G,	-0.30091193
-0.3179834	F, D, F, G,	-0.2642179
-0.28361732	Am, D, F, G,	-0.20915169
-0.33000234	C, Em, F, G,	-0.2642179
-0.30041787	G, Em, F, G,	-0.2751135
-0.30041787	Dm, Em, F, G,	-0.30091193
-0.68598014	B-, Cm, F, G,	-0.2642179
-0.4917958	Dm, E-, F, G,	-0.2751135
-0.73058224	F, C7, F, G,	-0.2751135
-0.41185597	G, C7, F, G,	-0.2751135
-0.57787555	C7, C7, F, G,	-0.2751135
-0.26747316	Am, Em/G, F, G,	-0.17597318
-1.1525737	F, C, G, G,	-0.19871816
-1.4190285	G, C, G, G,	-0.2678195
-1.4276763	C, F, G, G,	-0.2642179
-1.3675675	G, F, G, G,	-0.2642179
-0.49892658	Dm, F, G, G,	-0.30091193
-0.8290135	C, G, G, G,	-0.2751135
-0.7829089	F, G, G, G,	-0.19871816
-0.62217385	G, G, G, G,	-0.24681602
-1.1686805	C, Am, G, G,	-0.2751135
-0.40292552	B, Em, G, G,	-0.2751135
-0.8527691	G, Fm, G, G,	-0.2751135
-0.40917858	C, C, Dm7, G,	-0.2642179
-0.5861941	G, C, Dm7, G,	-0.4770032
-0.36593434	Dm7, G, Dm7, G,	-0.95412445
-0.5779058	C, Am, Dm7, G,	-0.2642179
-0.23727298	Dm7, Cm, Dm7, G,	-0.2751135
-0.4707734	E-/G, Fm, Dm7, G,	-0.2751135
-0.94120747	<s> C, Am, G,	-0.2751135
-0.8767341	C, C, Am, G,	-0.2642179
-0.8201683	F, C, Am, G,	-0.6652144
-1.0358409	G, C, Am, G,	-0.2751135
-0.4703957	D, C, Am, G,	-0.2751135
-0.4703957	F/C, C, Am, G,	-0.2751135
-0.9338126	C, F, Am, G,	-0.2642179
-0.8522162	G, F, Am, G,	-0.60194194
-0.44460785	B-, F, Am, G,	-0.2678195
-1.1061845	F, G, Am, G,	-0.30091193
-0.82061374	Am, G, Am, G,	-0.17597318
-0.2905296	F, D, Am, G,	-0.17597318
-0.32518446	F, Em, Am, G,	-0.2751135
-0.37833244	<s> C, Dm, G,	-0.2751135
-0.37833244	C, C, Dm, G,	-0.2751135
-0.32506937	F, C, Dm, G,	-0.55090064
-0.4250543	G, C, Dm, G,	-0.44132158
-0.48077652	Dm, C, Dm, G,	-0.2751135
-0.37833244	B-, C, Dm, G,	-0.17597318
-0.26636735	F/A, C, Dm, G,	-0.2642179
-0.1996885	C, F, Dm, G,	-0.23023438
-0.32978493	F, F, Dm, G,	-0.2751135
-0.5901637	G, F, Dm, G,	-0.2751135
-0.35800457	G/B, Am7, Dm, G,	-0.2642179
-0.39134902	F, G, Dm, G,	-0.17597318
-0.22499606	Dm, G, Dm, G,	-0.30091193
-0.31535769	Am, Am, Dm, G,	-0.2642179
-0.31535769	E, Am, Dm, G,	-0.2751135
-0.45012918	F, D7, Dm, G,	-0.2751135
-0.41890392	F, Am/E, Dm, G,	-0.5515744
-0.37788916	G, Dm, Dm, G,	-0.2751135
-0.54659665	B-, A, Dm, G,	-0.2751135
-0.83436006	F, Em, Dm, G,	-0.2642179
-0.32077444	Dm, C/E, Dm, G,	-0.17597318
-0.22509551	Em, E-m, Dm, G,	-0.2642179
-0.45012918	Dm, C#dim, Dm, G,	-0.2751135
-0.72072285	F, G, B-, G,	-0.2751135
-0.29393917	<s> Dm, B-, G,	-0.2751135
-0.29393917	B-, Dm, B-, G,	-0.17597318
-0.22294055	F, C, D, G,	-0.30091193
-0.5246291	C/G, F, D, G,	-0.17597318
-0.22294055	E, A, D, G,	-0.2642179
-0.22294055	F, Em, D, G,	-0.2642179
-0.22294055	F, C/E, D, G,	-0.2751135
-0.5405988	F, G, Em, G,	-0.2751135
-0.2766847	F/C, B, Em, G,	-0.2751135
-0.27486354	Em, Am, F7, G,	-0.2642179
-0.26402527	Am7, Dm, C/G, G,	-0.2751135
-0.26402527	C, F/A, C/G, G,	-0.2751135
-0.47902128	F, F, Cm, G,	-0.2751135
-0.47902128	B-, F, Cm, G,	-0.39782193
-0.54003114	Cm, F, Cm, G,	-0.39782193
-0.6501324	Cm, G, Cm, G,	-0.92930084
-0.89462554	Fm, G, Cm, G,	-0.39782193
-0.8112139	F, A-, Cm, G,	-0.21947283
-0.29074538	G, C, A-, G,	-0.2751135
-0.37644067	D, G, A-, G,	-0.2751135
-0.37644067	F#, G, A-, G,	-0.17597318
-0.29074538	Am, D, A-, G,	-0.2751135
-0.36896577	Dm, C, C/E, G,	-0.19871816
-0.7365726	Am, F, C/E, G,	-0.17597318
-0.8215193	C/E, F, C/E, G,	-0.17597318
-0.5316465	F, C/E, C/E, G,	-0.2751135
-0.29987103	<s> C, F/A, G,	-0.2751135
-0.29987103	C, C, F/A, G,	-0.2751135
-0.29987103	G, C, F/A, G,	-0.17597318
-0.29987103	F/A, C, F/A, G,	-0.547846
-0.20453323	F/C, C, F/A, G,	-0.2642179
-0.13262406	Dm, G, F/A, G,	-0.2642179
-0.097165994	F/A, G, F/A, G,	-0.6758394
-0.4889952	C, B-, F/A, G,	-0.2642179
-0.27992868	Cm, B-, F/A, G,	-0.2751135
-0.18899634	<s> Cm, F/A, G,	-0.2751135
-0.4538093	B, B-, E-, G,	-0.2751135
-0.51861644	F, Cm, E-, G,	-0.2751135
-0.74499464	A-, Cm, E-, G,	-0.39782193
-0.8578444	C7, F, C7, G,	-0.2642179
-0.57099724	C, G, C7, G,	-0.2751135
-0.34376723	C7, G, C7, G,	-0.2751135
-0.23435085	C7, F7, C7, G,	-0.30091193
-0.20806296	A-, G, F#, G,	-0.2227205
-0.4595487	Am, Dm, Bm7, G,	-0.2642179
-0.17678785	G, C, Fm, G,	-0.2642179
-0.26281375	Fm, G, Fm, G,	-0.41707978
-0.6289625	Gm, Cm, Fm, G,	-0.2751135
-0.3802542	A-, E-, Fm, G,	-0.35527974
-0.43661878	Cm, Gm, Fm, G,	-0.2751135
-0.43661878	Gm, Gm, Fm, G,	-0.2751135
-0.16850841	E/B, B, E-/B-, G,	-0.2751135
-0.4595487	CmM7, A-, B-m7, G,	-0.2751135
-0.1570697	<s> C, Fmaj7/A, G,	-0.2751135
-0.1570697	F, C, Fmaj7/A, G,	-0.17597318
-0.1570697	Dm7, C, Fmaj7/A, G,	-0.2642179
-0.3575937	Cm, Gm7/B-, FmM7/A-, G,	-0.2678195
-1.2031258	G7, C, C, Dm7,	-0.2642179
-1.1248661	<s> G, C, Dm7,	-0.2751135
-1.4167477	F, G, C, Dm7,	-0.2642179
-0.9916528	Dm7, G, C, Dm7,	-0.26963153
-1.3583935	Dm, G, C, Dm7,	-0.17597318
-0.5428074	B-m7, G, C, Dm7,	-0.2751135
-0.5526713	C, Dm7, C, Dm7,	-0.26963153
-0.42076948	F, Dm7, C, Dm7,	-0.17597318
-0.71988314	F, Am, C, Dm7,	-0.2642179
-0.5035314	Dm7, Am, C, Dm7,	-0.30091193
-0.5035314	E, Am, C, Dm7,	-0.2751135
-1.2376654	D7, G7, C, Dm7,	-0.2751135
-1.890432	F, C, F, Dm7,	-0.17597318
-0.84513646	G11, C, Am7, Dm7,	-0.17597318
-0.38811588	G, Dm7, G, Dm7,	-0.76545423
-0.38811588	Cm, Dm7, G, Dm7,	-0.2751135
-0.38811588	Fm, Dm7, G, Dm7,	-0.2751135
-1.3565705	G, C, Am, Dm7,	-0.2642179
-1.1537344	G7, C, Am, Dm7,	-0.2751135
-0.90384656	C, Dm7, Am, Dm7,	-0.2751135
-0.4881171	Dm7, Am, Am, Dm7,	-0.2642179
-0.5836806	C/G, Dm7/A, Am, Dm7,	-0.2751135
-0.65111685	C, F, Am/E, Dm7,	-0.17597318
-0.38294193	F, F, Am/E, Dm7,	-0.2751135
-0.38294193	G, F, Am/E, Dm7,	-0.2642179
-0.60948336	G, Dm7, Cm, Dm7,	-0.2751135
-0.7185206	Dm7, F, C/E, Dm7,	-0.37480944
-0.50270295	F#m7, F, C/E, Dm7,	-0.2678195
-0.59967744	A-, E-/G, Fm, Dm7,	-0.2751135
-0.23720324	G11, C, Em7, Dm7,	-0.19871816
-1.2844261	C, C, C, Am,	-0.2642179
-0.93518054	G, C, C, Am,	-0.2751135
-0.33106133	Fm, C, C, Am,	-0.2751135
-0.9281677	<s> F, C, Am,	-0.2751135
-1.2155753	C, F, C, Am,	-0.2751135
-0.78632164	G, F, C, Am,	-0.7838089
-1.0064197	Am, F, C, Am,	-0.3685371
-0.81219	D, F, C, Am,	-0.17597318
-0.7096853	C7/B-, F, C, Am,	-0.2642179
-0.861701	<s> G, C, Am,	-0.2751135
-0.9673635	C, G, C, Am,	-0.28833294
-0.9310156	F, G, C, Am,	-1.3221012
-0.89813346	G, G, C, Am,	-0.2751135
-0.75393736	Dm7, G, C, Am,	-0.2642179
-0.75393736	Am, G, C, Am,	-0.2678195
-1.0099176	Dm, G, C, Am,	-0.2751135
-0.70611924	B-, G, C, Am,	-0.2751135
-0.4738464	D, G, C, Am,	-0.4770032
-0.6238653	C/E, G, C, Am,	-0.17597318
-0.4636758	<s> Am, C, Am,	-0.2751135
-0.3165743	C, Am, C, Am,	-0.6530944
-0.5872828	G, Am, C, Am,	-0.2751135
-0.42760512	<s> G7, C, Am,	-0.2751135
-0.88388556	C, G7, C, Am,	-0.2751135
-0.50871307	F, G7, C, Am,	-0.30091193
-0.5961672	D7, G7, C, Am,	-0.2751135
-0.543381	Dm7, Am/E, C, Am,	-0.17597318
-0.48750016	Am, Dm, C, Am,	-0.2642179
-0.48750016	C/E, Dm, C, Am,	-0.39782193
-1.0548154	F, B-, C, Am,	-0.17597318
-0.7582264	E, D, C, Am,	-0.2751135
-0.47033373	D7, Gsus4, C, Am,	-0.2642179
-0.431816	F, C/E, C, Am,	-0.2751135
-0.27819768	F#o7/E-, G/D, C, Am,	-0.2751135
-1.160214	C, F/C, C, Am,	-0.2751135
-0.18894047	C, D-, C, Am,	-0.2751135
-0.18894047	A-, D-, C, Am,	-0.2642179
-0.6759156	F, Dm7/F, C, Am,	-0.2751135
-0.27819768	Cm, Gm/B-, C, Am,	-0.2751135
-1.2798258	C, C, F, Am,	-0.2642179
-1.2460603	F, C, F, Am,	-0.20915169
-1.4987563	G, C, F, Am,	-0.17597318
-0.91175354	G7, C, F, Am,	-0.2678195
-1.3247037	C, G, F, Am,	-0.2642179
-1.2744286	F, G, F, Am,	-0.2751135
-0.89018846	Am, G, F, Am,	-0.60194194
-0.87177956	Cm, G, F, Am,	-0.17597318
-0.65204155	C, Dm7, F, Am,	-0.2642179
-0.45074588	<s> Am, F, Am,	-0.2751135
-0.80484897	G, Am, F, Am,	-0.2751135
-0.45074588	Am, Am, F, Am,	-0.2751135
-0.7209908	B-, Am, F, Am,	-0.2751135
-0.45074588	E7, Am, F, Am,	-0.39782193
-0.83481306	G, B-, F, Am,	-0.2751135
-0.7274533	E, B-, F, Am,	-0.2642179
-0.9052617	<s> C, G, Am,	-0.2751135
-0.7239844	C, C, G, Am,	-0.19871816
-0.9475361	F, C, G, Am,	-0.29332092
-0.95722014	G, C, G, Am,	-0.28833294
-0.67391384	Am, C, G, Am,	-0.2751135
-0.47502306	Em, C, G, Am,	-0.30091193
-0.80033916	<s> F, G, Am,	-0.2751135
-1.0023562	C, F, G, Am,	-0.5515744
-0.7625239	F, F, G, Am,	-0.2751135
-1.1118615	G, F, G, Am,	-0.4770032
-0.8317987	Am, F, G, Am,	-0.57246035
-0.80033916	D, F, G, Am,	-0.2642179
-0.90191644	C, Am, G, Am,	-0.21947283
-1.2117252	F, Dm, G, Am,	-0.2751135
-0.74320817	G, C, Dm7, Am,	-0.2751135
-0.6902981	Dm7, C, Dm7, Am,	-0.2751135
-0.6129455	Am, C, Dm7, Am,	-0.2642179
-0.3894417	G7, C, Dm7, Am,	-0.2751135
-0.495794	C, Am, Dm7, Am,	-0.2751135
-0.35420972	Dm7, Am, Dm7, Am,	-0.2751135
-0.35420972	Am, Am, Dm7, Am,	-0.2751135
-1.0126336	G, F, Am, Am,	-0.2751135
-0.9311357	Am, G, Am, Am,	-0.2642179
-0.5601089	Am, Dm7, Am, Am,	-0.2642179
-0.57729393	Am, E/G#, Am, Am,	-0.2751135
-0.4565755	F, C, E, Am,	-0.2642179
-0.30922022	Am7, F, E, Am,	-0.2751135
