\data\
ngram 1=114
ngram 2=539
ngram 3=1262
ngram 4=1977

\1-grams:
-3.0330803	<unk>	0
0	<s>	-0.8536464
-1.425819	</s>	0
-1.1164863	C,	-0.62516016
-1.2234703	F,	-0.55569565
-1.7668828	Am7,	-0.3091105
-1.5491892	C	-1.0570282
-1.3298528	G,	-0.5546091
-1.6816164	Dm7,	-0.35932076
-1.3657365	Am,	-0.4752091
-2.1063309	E,	-0.2831199
-1.8730835	D7,	-0.43996018
-1.6445365	G7,	-0.5024909
-2.8180563	Em/B,	-0.18651102
-2.4622	Am/E,	-0.18651102
-1.3848552	Dm,	-0.5024818
-1.5787054	B-,	-0.4675841
-1.7668828	D,	-0.35375145
-1.9378355	A,	-0.31518874
-2.4622	Am	-0.4142045
-1.8730835	Gsus4,	-0.30942428
-1.816745	Em,	-0.31367436
-2.1063309	F7,	-0.26389363
-2.0139625	F	-0.57990694
-1.816745	C/G,	-0.24477346
-1.816745	G	-0.784027
-1.3657365	Cm,	-0.5400042
-1.5491892	A-,	-0.42872447
-2.1063309	B-	-0.48299697
-1.816745	C/E,	-0.32033554
-2.8180563	C/E	-0.18651102
-2.0139625	F/A,	-0.34801212
-1.6816164	E-,	-0.43706056
-2.8180563	Gm7,	-0.18651102
-2.2238045	B7,	-0.3084151
-1.8730835	C7,	-0.4463028
-2.4622	F#,	-0.18651102
-2.8180563	F#o7/E-,	-0.18651102
-2.8180563	G/D,	-0.18651102
-2.8180563	Bm7,	-0.18651102
-2.8180563	G7/B,	-0.18651102
-2.2238045	G/B,	-0.25000077
-1.5787054	Fm,	-0.44764408
-1.8730835	F/C,	-0.4351623
-2.8180563	E/B,	-0.18651102
-2.2238045	B,	-0.18651102
-2.8180563	E-/B-,	-0.18651102
-2.8180563	E/G#,	-0.18651102
-1.8730835	G11,	-0.48526305
-1.816745	Gm,	-0.35272858
-2.1063309	Cmaj7,	-0.3084151
-2.8180563	Bm/F#,	-0.18651102
-2.2238045	F#o7,	-0.3084151
-2.1063309	A7,	-0.28560358
-2.8180563	G#o7,	-0.18651102
-2.4622	Bo7/A-,	-0.18651102
-2.1063309	D-,	-0.28560358
-2.8180563	C/G	-0.18651102
-2.4622	A-	-0.4142045
-2.1063309	CmM7,	-0.28114307
-2.8180563	B-m7,	-0.18651102
-2.8180563	E-m,	-0.18651102
-2.4622	Em/G,	-0.18651102
-1.8730835	Cm	-0.726035
-2.8180563	F#o7/C,	-0.18651102
-2.8180563	C#dim,	-0.18651102
-2.1063309	Dm7/F,	-0.36032432
-2.8180563	D/F#,	-0.18651102
-2.4622	Gm/B-,	-0.18651102
-2.8180563	F/A	-0.18651102
-2.8180563	Fmaj7/C,	-0.18651102
-2.8180563	A-/C,	-0.18651102
-2.8180563	A-/C	-0.18651102
-2.2238045	Gm/D,	-0.3084151
-2.8180563	Fm/C,	-0.18651102
-2.8180563	Fm/C	-0.18651102
-2.8180563	Fmaj7/A,	-0.18651102
-2.8180563	E-/G,	-0.18651102
-2.4622	G+11,	-0.4142045
-2.2238045	E7,	-0.3084151
-2.8180563	E-7,	-0.18651102
-2.8180563	B--7,	-0.18651102
-2.8180563	F#dim	-0.18651102
-2.4622	B-/F,	-0.4142045
-2.8180563	Em7/G,	-0.18651102
-2.8180563	G7/F,	-0.18651102
-2.8180563	F#m7,	-0.18651102
-2.8180563	Dm7	-0.18651102
-2.8180563	Gm7/B-,	-0.18651102
-2.8180563	FmM7/A-,	-0.18651102
-2.2238045	Ddim,	-0.28560358
-2.2238045	Dm7/A,	-0.3084151
-2.8180563	E7/G#,	-0.18651102
-2.8180563	Dm7/A	-0.18651102
-2.0139625	FM9,	-0.29305306
-2.8180563	FM9	-0.18651102
-1.8730835	A-7,	-0.3353238
-2.8180563	C7/B-,	-0.18651102
-2.8180563	G7	-0.18651102
-2.8180563	B-7,	-0.18651102
-2.8180563	Gm	-0.18651102
-2.8180563	Am9,	-0.18651102
-2.8180563	Bm,	-0.18651102
-2.4622	A9,	-0.18651102
-2.4622	Dm9,	-0.18651102
-2.4622	Em7,	-0.18651102
-2.8180563	Cm/E-,	-0.18651102
-2.8180563	G-,	-0.18651102
-2.8180563	Gsus4	-0.18651102
-2.8180563	G9,	-0.18651102
-2.8180563	Am/C,	-0.18651102
-2.8180563	G11	-0.18651102
-2.8180563	CmM7/B,	-0.18651102
-2.4622	B-/D,	-0.18651102

\2-grams:
-0.03829642	C </s>	0
-0.20124117	Am </s>	0
-0.1268039	F </s>	0
-0.07482144	G </s>	0
-0.16527273	B- </s>	0
-0.42764702	C/E </s>	0
-0.42764702	C/G </s>	0
-0.20124117	A- </s>	0
-0.086645715	Cm </s>	0
-0.42764702	F/A </s>	0
-0.42764702	A-/C </s>	0
-0.42764702	Fm/C </s>	0
-0.42764702	F#dim </s>	0
-0.42764702	Dm7 </s>	0
-0.42764702	Dm7/A </s>	0
-0.42764702	FM9 </s>	0
-0.42764702	G7 </s>	0
-0.42764702	Gm </s>	0
-0.42764702	Gsus4 </s>	0
-0.42764702	G11 </s>	0
-0.24135779	<s> C,	-0.58880347
-1.0435146	C, C,	-0.2966495
-0.839312	F, C,	-0.3392013
-0.9753811	Am7, C,	-0.16266537
-0.6532777	G, C,	-0.39264652
-0.9585822	Dm7, C,	-0.20111845
-1.0339462	Am, C,	-0.20686151
-0.58352166	G7, C,	-0.25812864
-0.779491	Am/E, C,	-0.16266532
-0.84980005	Dm, C,	-0.23355728
-0.8616349	B-, C,	-0.26402998
-0.8946469	D, C,	-0.16266532
-0.7498557	Gsus4, C,	-0.16266532
-0.9769941	Em, C,	-0.16266532
-0.54131424	F7, C,	-0.22170198
-1.5920695	Cm, C,	-0.16266532
-1.157492	A-, C,	-0.24330992
-0.932584	C/E, C,	-0.16266537
-0.7672146	F/A, C,	-0.16266537
-1.4210176	E-, C,	-0.16266532
-0.39912298	G/D, C,	-0.16266532
-0.64908755	Bm7, C,	-0.16266532
-0.99484503	G/B, C,	-0.16266532
-1.1377783	Fm, C,	-0.24330992
-0.3429936	F/C, C,	-0.31023532
-0.21424969	G11, C,	-0.1732728
-0.9736149	Gm, C,	-0.24330992
-0.90351844	F#o7, C,	-0.16266532
-0.39912298	G#o7, C,	-0.16266532
-0.45970663	D-, C,	-0.29004568
-0.64908755	B-m7, C,	-0.16266532
-0.39912298	F#o7/C, C,	-0.16266532
-0.31804648	Dm7/F, C,	-0.20923519
-0.8630941	Gm/B-, C,	-0.16266532
-0.19100064	G+11, C,	-0.24330992
-0.64908755	FmM7/A-, C,	-0.16266532
-0.8965244	Ddim, C,	-0.16266532
-0.64565754	FM9, C,	-0.18140195
-0.76463705	A-7, C,	-0.16266532
-0.779491	A9, C,	-0.16266532
-0.39912298	G9, C,	-0.16266532
-1.2455595	<s> F,	-0.31277028
-0.95413595	C, F,	-0.36884433
-1.4228964	F, F,	-0.19664417
-1.010383	Am7, F,	-0.16266537
-0.86678094	G, F,	-0.38939142
-1.0861	Dm7, F,	-0.16266537
-0.8730584	Am, F,	-0.28607836
-1.1552767	E, F,	-0.16266532
-1.477005	G7, F,	-0.16266532
-0.6706527	Em/B, F,	-0.16266532
-0.9957607	Dm, F,	-0.21468547
-0.9499202	B-, F,	-0.22698613
-0.9206035	D, F,	-0.22170198
-0.68918145	A, F,	-0.29004568
-1.2335063	Gsus4, F,	-0.16266532
-0.91144377	Em, F,	-0.18140195
-0.890788	C/G, F,	-0.20923519
-1.2639419	Cm, F,	-0.20108473
-1.5115916	A-, F,	-0.16266532
-0.805691	C/E, F,	-0.29004568
-0.89576995	E-, F,	-0.20923519
-0.6706527	Gm7, F,	-0.16266532
-0.47664848	C7, F,	-0.20554842
-0.9009167	Gm, F,	-0.22170198
-0.47067168	A7, F,	-0.16266537
-0.43390974	CmM7, F,	-0.22170198
-0.6706527	Em/G, F,	-0.16266532
-0.41111892	D/F#, F,	-0.16266532
-0.41111892	F#m7, F,	-0.16266532
-0.41111892	C7/B-, F,	-0.16266532
-0.41111892	Am9, F,	-0.16266532
-0.8088692	B-/D, F,	-0.16266532
-2.3075147	<s> Am7,	-0.16266532
-1.908223	C, Am7,	-0.22170198
-2.1245286	F, Am7,	-0.16266532
-1.4366146	C/G, Am7,	-0.16266532
-2.0726469	Cm, Am7,	-0.16266532
-1.6054406	C/E, Am7,	-0.16266532
-0.6685327	G/B, Am7,	-0.16266532
-0.443371	E7/G#, Am7,	-0.16266532
-0.70799446	FM9, Am7,	-0.18783154
-1.700754	C, C	-0.31277028
-1.4333632	F, C	-0.4096803
-1.478149	Am7, C	-0.16266532
-1.4526212	G, C	-0.31277028
-1.5495219	Dm7, C	-0.16266532
-1.5335426	Am, C	-0.18783154
-1.2211013	G7, C	-0.29004568
-1.3700585	B-, C	-0.18783154
-1.4961977	D, C	-0.16266532
-1.3671095	Gsus4, C	-0.16266532
-1.0695288	F7, C	-0.16266532
-1.6381925	Fm, C	-0.16266532
-1.3756489	F/C, C	-0.16266532
-1.4805486	Gm, C	-0.16266532
-1.1517731	Dm7/F, C	-0.16266532
-1.2596931	<s> G,	-0.4300013
-1.0786815	C, G,	-0.45339388
-0.94732976	F, G,	-0.3802613
-1.2157415	G, G,	-0.24245717
-0.7259869	Dm7, G,	-0.22588128
-1.2290499	Am, G,	-0.21399981
-0.65816104	Dm, G,	-0.37672162
-1.3974111	B-, G,	-0.29004568
-0.6470087	D, G,	-0.1775894
-1.0408454	Em, G,	-0.16266532
-1.020858	F7, G,	-0.16266532
-0.9164978	C/G, G,	-0.16266532
-1.3913554	Cm, G,	-0.25223726
-1.2326775	A-, G,	-0.18783154
-0.9888704	C/E, G,	-0.22588128
-0.49582416	F/A, G,	-0.21473181
-1.2820845	E-, G,	-0.16266532
-0.8892452	C7, G,	-0.16266532
-0.68819875	F#, G,	-0.16266532
-0.68819875	Bm7, G,	-0.16266532
-0.81486064	Fm, G,	-0.20108473
-0.42068374	E-/B-, G,	-0.16266532
-0.68819875	B-m7, G,	-0.16266532
-0.42068374	Fmaj7/A, G,	-0.16266532
-0.68819875	FmM7/A-, G,	-0.16266532
-2.2639506	<s> Dm7,	-0.16266532
-1.6366713	C, Dm7,	-0.23521847
-2.0685806	F, Dm7,	-0.16266532
-1.5285269	Am7, Dm7,	-0.16266532
-2.0283873	G, Dm7,	-0.16266532
-1.4139485	Am, Dm7,	-0.1775894
-0.88629985	Am/E, Dm7,	-0.16266532
-2.0209162	Cm, Dm7,	-0.16266532
-1.5754324	C/E, Dm7,	-0.16266532
-1.6912912	Fm, Dm7,	-0.16266532
-0.7255723	Em7, Dm7,	-0.16266532
-1.7389443	<s> Am,	-0.16266537
-1.0581121	C, Am,	-0.35503733
-1.3872634	F, Am,	-0.191897
-1.4044288	G, Am,	-0.19664417
-1.1265857	Dm7, Am,	-0.16266532
-1.3371826	Am, Am,	-0.16266532
-0.6785626	E, Am,	-0.16266537
-1.2641178	D7, Am,	-0.16266532
-1.1886257	G7, Am,	-0.16266532
-0.6933449	Em/B, Am,	-0.16266532
-1.7061888	Dm, Am,	-0.16266532
-1.6670717	B-, Am,	-0.16266532
-1.4148368	D, Am,	-0.16266532
-0.94115907	Em, Am,	-0.19541223
-1.4029529	Cm, Am,	-0.2614053
-1.6096315	A-, Am,	-0.16266532
-0.42345566	G7/B, Am,	-0.16266532
-1.0839959	G/B, Am,	-0.16266532
-0.42345566	E/G#, Am,	-0.16266532
-1.2385597	G11, Am,	-0.16266532
-0.6933449	Em/G, Am,	-0.16266532
-0.3542612	E7, Am,	-0.16266537
-0.96472764	Dm7/A, Am,	-0.16266532
-2.4466515	C, E,	-0.16266532
-1.6323453	F, E,	-0.20923519
-1.6337907	Am7, E,	-0.16266532
-1.7128106	G, E,	-0.24330992
-2.034738	C, D7,	-0.24330992
-2.188765	F, D7,	-0.16266532
-1.5855248	Am7, D7,	-0.16266532
-1.7224358	Am, D7,	-0.16266532
-1.462432	C/G, D7,	-0.16266532
-1.0258397	A7, D7,	-0.16266532
-0.4462921	E-7, D7,	-0.16266532
-1.8129683	<s> G7,	-0.24330992
-1.6284753	C, G7,	-0.316006
-1.5615422	F, G7,	-0.1775894
-2.0050395	G, G7,	-0.16266532
-1.9318986	Am, G7,	-0.16266532
-0.27675676	D7, G7,	-0.32817477
-1.664031	G7, G7,	-0.16266532
-1.8365254	B-, G7,	-0.16266532
-1.7222427	Cm, G7,	-0.16266532
-1.7384404	E-, G7,	-0.16266532
-1.0068784	B7, G7,	-0.16266532
-0.83246017	A-7, G7,	-0.29004568
-1.6300949	C, Em/B,	-0.37200934
-1.4219786	F, Am/E,	-0.25477836
-1.7599958	Dm7, Am/E,	-0.16266532
-2.0806983	<s> Dm,	-0.16266532
-1.4227966	C, Dm,	-0.36595312
-1.3927653	F, Dm,	-0.18414584
-1.0528991	Am7, Dm,	-0.16266537
-1.6190534	G, Dm,	-0.22170198
-1.3430862	Am, Dm,	-0.2614053
-1.269526	D7, Dm,	-0.16266532
-0.8440263	Am/E, Dm,	-0.16266532
-1.3714492	Dm, Dm,	-0.16266532
-1.6800178	B-, Dm,	-0.16266532
-0.5840164	A, Dm,	-0.16266532
-0.94458985	Em, Dm,	-0.17089312
-1.4088699	Cm, Dm,	-0.1775894
-1.6220276	A-, Dm,	-0.16266532
-1.1064672	C/E, Dm,	-0.16266532
-1.0427924	Gm, Dm,	-0.16266532
-0.9683949	Cmaj7, Dm,	-0.16266532
-0.4248483	E-m, Dm,	-0.16266532
-0.4248483	C#dim, Dm,	-0.16266532
-0.35515755	Gm/D, Dm,	-0.22170198
-0.4248483	Em7/G, Dm,	-0.16266532
-0.69594103	Em7, Dm,	-0.16266532
-1.8994906	<s> B-,	-0.16266532
-1.1950895	C, B-,	-0.33096567
-1.5455085	F, B-,	-0.20554842
-1.4590394	G, B-,	-0.1775894
-1.2795178	E, B-,	-0.16266532
-1.4219451	Dm, B-,	-0.24330992
-1.3765435	B-, B-,	-0.20111845
-1.1241901	Cm, B-,	-0.31970465
-1.0013124	A-, B-,	-0.21045506
-0.8431822	E-, B-,	-0.24330992
-0.737752	Fm, B-,	-0.42444003
-0.8743567	B, B-,	-0.16266532
-1.2925817	A-7, B-,	-0.16266532
-0.43615308	Am/C, B-,	-0.16266532
-2.2384799	C, D,	-0.16266532
-1.840483	F, D,	-0.16266532
-2.0792236	G, D,	-0.16266532
-1.4281737	Am, D,	-0.1750662
-1.321431	E, D,	-0.16266532
-1.1199011	D, D,	-0.29004568
-1.2354137	A, D,	-0.16266532
-1.557465	Em, D,	-0.16266532
-1.6054406	C/E, D,	-0.16266532
-2.2248375	F, A,	-0.16266532
-0.84584075	E, A,	-0.16266532
-2.010846	Dm, A,	-0.16266532
-1.9674803	B-, A,	-0.16266532
-1.6107194	D, A,	-0.16266532
-1.1892405	G/B, A,	-0.16266532
-2.4307725	F, Am	-0.16266532
-1.391574	E, Am	-0.16266532
-1.9671838	<s> Gsus4,	-0.16266532
-2.034738	C, Gsus4,	-0.29004568
-1.3599492	D7, Gsus4,	-0.16266532
-1.9427257	B-, Gsus4,	-0.16266537
-1.4477735	Gsus4, Gsus4,	-0.16266532
-1.8694537	A-, Gsus4,	-0.16266532
-0.9329968	F/C, Gsus4,	-0.2614053
-1.4371854	C, Em,	-0.23255445
-1.4781513	F, Em,	-0.28163227
-2.1070628	G, Em,	-0.16266532
-1.2202712	Am, Em,	-0.35749322
-1.5789992	Dm, Em,	-0.16266537
-0.36790502	B7, Em,	-0.24330992
-0.8985808	B, Em,	-0.16266532
-0.8985808	A9, Em,	-0.16266532
-1.6988318	C, F7,	-0.4096803
-2.172084	Am, F7,	-0.16266532
-1.2701339	G7, F7,	-0.24330992
-0.9388984	C7, F7,	-0.18783154
-2.0782256	C, F	-0.29004568
-1.5215183	G, F	-0.31277028
-1.7518865	Am, F	-0.29004568
-0.74262947	Gm7, F	-0.16266532
-1.5728205	C7, F	-0.16266532
-1.435465	Am, C/G,	-0.31277028
-1.9617752	Dm, C/G,	-0.16266532
-1.340692	F/A, C/G,	-0.16266532
-0.36790502	F#o7, C/G,	-0.22170198
-0.73401713	Bo7/A-, C/G,	-0.16266532
-1.0232803	E7, C/G,	-0.16266532
-0.4448291	G7/F, C/G,	-0.16266532
-0.36790502	Dm7/A, C/G,	-0.22170198
-1.7736723	C, G	-0.31277028
-1.8562905	F, G	-0.29004568
-2.1070628	G, G	-0.16266532
-1.2037785	Dm7, G	-0.29004568
-1.7084271	Am, G	-0.29004568
-1.2848929	Dm, G	-0.31277028
-2.1010227	Cm, G	-0.16266532
-1.2926537	Fm, G	-0.29004568
-0.94906294	<s> Cm,	-0.22698613
-1.7886655	C, Cm,	-0.16266537
-1.1896492	F, Cm,	-0.19442417
-1.3921281	Am7, Cm,	-0.16266532
-1.1547838	G, Cm,	-0.22265911
-1.4596215	Dm7, Cm,	-0.16266532
-1.5393041	Am, Cm,	-0.24330992
-0.6013614	G7, Cm,	-0.25223726
-0.89914423	B-, Cm,	-0.2588712
-1.150425	A, Cm,	-0.16266532
-0.6111133	Gsus4, Cm,	-0.31277028
-0.999362	Cm, Cm,	-0.19113183
-0.69147563	A-, Cm,	-0.24224156
-0.82509035	E-, Cm,	-0.1931241
-0.940069	Fm, Cm,	-0.16266532
-0.75193155	Gm, Cm,	-0.25453088
-0.9601787	A7, Cm,	-0.16266532
-0.9380847	Gm/B-, Cm,	-0.16266532
-0.6933449	A-/C, Cm,	-0.16266532
-0.6933449	Fm/C, Cm,	-0.16266532
-0.48192084	Ddim, Cm,	-0.29004568
-0.68386185	A-7, Cm,	-0.2614053
-0.8403798	B-/D, Cm,	-0.16266532
-1.8906271	<s> A-,	-0.29004568
-2.075031	C, A-,	-0.16266532
-1.6753291	F, A-,	-0.22170198
-1.3422568	G, A-,	-0.20923519
-1.386824	Am, A-,	-0.20923519
-0.9936378	B-, A-,	-0.21468547
-1.4961977	D, A-,	-0.16266532
-1.3671095	Gsus4, A-,	-0.16266532
-0.93528557	Cm, A-,	-0.30449966
-1.7203954	A-, A-,	-0.16266532
-1.3424894	E-, A-,	-0.16266537
-1.2548726	Fm, A-,	-0.29004568
-1.0725919	CmM7, A-,	-0.16266532
-0.71456194	A-/C, A-,	-0.16266532
-0.8704475	B-/D, A-,	-0.16266532
-2.4466515	C, B-	-0.16266532
-2.2377462	Cm, B-	-0.16266532
-1.4827702	A-, B-	-0.29004568
-1.8915375	E-, B-	-0.16266532
-2.2728834	C, C/E,	-0.16266532
-1.3858584	F, C/E,	-0.23654608
-1.774756	G, C/E,	-0.16266537
-1.6471046	Dm7, C/E,	-0.16266532
-1.6033783	Am, C/E,	-0.18783154
-1.5789992	Dm, C/E,	-0.16266532
-1.6212599	C/E, C/E,	-0.16266532
-1.3319947	FM9, C/E,	-0.16266532
-2.4986632	F, C/E	-0.16266532
-1.6893882	C, F/A,	-0.2932903
-1.8168622	G, F/A,	-0.29004568
-1.2522897	B-, F/A,	-0.2614053
-2.199324	Cm, F/A,	-0.16266532
-0.449233	CmM7/B, F/A,	-0.16266532
-1.7409122	C, E-,	-0.22588128
-1.2962734	F, E-,	-0.20686151
-1.6383805	G, E-,	-0.16266532
-1.8972197	Dm, E-,	-0.16266532
-1.5058662	B-, E-,	-0.16266537
-0.9836887	Cm, E-,	-0.39077672
-0.91358846	A-, E-,	-0.22170198
-1.2538338	E-, E-,	-0.16266532
-1.2760577	Fm, E-,	-0.16266532
-0.7255723	Dm9, E-,	-0.16266532
-0.4404694	Cm/E-, E-,	-0.16266532
-2.1926959	C, Gm7,	-0.24330992
-2.5036516	C, B7,	-0.16266532
-1.7834804	Am, B7,	-0.29004568
-1.6517463	Em, B7,	-0.16266532
-1.8512957	<s> C7,	-0.24330992
-2.3102486	C, C7,	-0.16266532
-1.7698002	F, C7,	-0.1732728
-1.7883428	G, C7,	-0.20923519
-1.7267948	G7, C7,	-0.16266532
-1.1128187	F7, C7,	-0.16266532
-1.0617131	C7, C7,	-0.29004568
-2.3444133	G, F#,	-0.16266532
-2.0087266	A-, F#,	-0.16266532
-1.760632	C/E, F#o7/E-,	-0.16266532
-0.45577386	F#o7/E-, G/D,	-0.16266532
-2.1802413	Dm, Bm7,	-0.16266532
-2.6818762	C, G7/B,	-0.16266532
-1.5313753	C, G/B,	-0.30812922
-1.5400102	Cm, G/B,	-0.29004568
-1.3784604	FM9, G/B,	-0.16266532
-2.2058418	<s> Fm,	-0.16266532
-2.0983481	C, Fm,	-0.16266532
-1.4902062	Am7, Fm,	-0.16266532
-1.6100127	G, Fm,	-0.16266537
-1.6327161	Am, Fm,	-0.16266532
-1.5075295	D, Fm,	-0.16266532
-1.4593532	Cm, Fm,	-0.20111845
-1.7364602	A-, Fm,	-0.16266537
-1.3490189	E-, Fm,	-0.16266537
-1.0755746	Gm, Fm,	-0.29004568
-0.98107076	Gm/B-, Fm,	-0.16266532
-0.7172885	Fm/C, Fm,	-0.16266532
-0.43615308	E-/G, Fm,	-0.16266532
-0.43615308	G-, Fm,	-0.16266532
-2.355941	<s> F/C,	-0.16266532
-1.5808399	C, F/C,	-0.31116906
-2.1368096	G, F/C,	-0.16266532
-2.065909	Am, F/C,	-0.16266532
-1.4358381	F/C, F/C,	-0.16266532
-0.36883005	Cmaj7, F/C,	-0.18783154
-0.736869	Bo7/A-, F/C,	-0.16266532
-2.6818762	C, E/B,	-0.16266532
-0.74846745	F#, B,	-0.16266532
-1.4693805	F/C, B,	-0.16266532
-0.4521939	E/B, B,	-0.16266532
-0.93044716	B, E-/B-,	-0.16266532
-1.8247021	Am, E/G#,	-0.29004568
-1.5855248	Am7, G11,	-0.16266532
-2.1368096	G, G11,	-0.16266532
-1.2094473	Dm7, G11,	-0.16266532
-2.065909	Am, G11,	-0.16266532
-1.462432	C/G, G11,	-0.16266532
-1.6376773	C/E, G11,	-0.16266532
-1.751798	Fm, G11,	-0.16266532
-1.5736245	C, Gm,	-0.25223726
-2.1554604	F, Gm,	-0.16266532
-1.2848929	Dm, Gm,	-0.30506253
-1.3807399	Cm, Gm,	-0.32371742
-1.340692	F/A, Gm,	-0.16266532
-1.7358629	Fm, Gm,	-0.16266532
-1.5637331	Gm, Gm,	-0.16266532
-0.4448291	B-7, Gm,	-0.16266532
-2.4405098	<s> Cmaj7,	-0.16266532
-2.4466515	C, Cmaj7,	-0.16266532
-2.3074443	F, Cmaj7,	-0.16266532
-1.4823546	Gsus4, Cmaj7,	-0.16266532
-2.4986632	F, Bm/F#,	-0.16266532
-1.9453156	F, F#o7,	-0.16266532
-1.519184	C/G, F#o7,	-0.16266532
-0.4521939	Bm/F#, F#o7,	-0.16266532
-1.5042857	C/G, A7,	-0.16266532
-1.6195643	Gm, A7,	-0.16266532
-1.0344237	Gm/B-, A7,	-0.16266532
-0.45071092	B--7, A7,	-0.16266532
-1.9955379	F, G#o7,	-0.29004568
-2.4307725	F, Bo7/A-,	-0.16266532
-1.5403024	C/G, Bo7/A-,	-0.16266532
-2.4466515	C, D-,	-0.16266532
-2.172084	Am, D-,	-0.16266532
-1.715035	Cm, D-,	-0.18783154
-1.9418545	A-, D-,	-0.16266532
-1.0551615	D-, C/G	-0.16266532
-2.4307725	F, A-	-0.16266532
-1.5971974	B-, A-	-0.29004568
-1.8112959	F, CmM7,	-0.24330992
-2.066176	Dm, CmM7,	-0.16266532
-1.9418545	A-, CmM7,	-0.16266532
-1.1312078	CmM7, CmM7,	-0.16266532
-2.0418146	A-, B-m7,	-0.16266532
-1.6960503	Em, E-m,	-0.16266532
-2.5955634	C, Em/G,	-0.16266532
-2.2788055	Am, Em/G,	-0.16266532
-1.8726951	F, Cm	-0.29004568
-2.1368096	G, Cm	-0.16266532
-1.9427257	B-, Cm	-0.16266532
-2.131383	Cm, Cm	-0.16266532
-1.4562228	A-, Cm	-0.29004568
-1.5770326	Gm, Cm	-0.16266532
-1.3469641	A-7, Cm	-0.16266532
-2.3993971	G, F#o7/C,	-0.16266532
-2.1802413	Dm, C#dim,	-0.16266532
-2.1017196	C, Dm7/F,	-0.22170198
-2.3074443	F, Dm7/F,	-0.16266532
-2.172084	Am, Dm7/F,	-0.16266532
-1.210389	Dm7/F, Dm7/F,	-0.16266532
-2.3356848	Am, D/F#,	-0.16266532
-2.3444133	G, Gm/B-,	-0.16266532
-1.8724681	Cm, Gm/B-,	-0.16266537
-2.1328936	B-, F/A	-0.16266532
-1.89087	Cm, Fmaj7/C,	-0.24330992
-0.75557816	Fmaj7/C, A-/C,	-0.16266532
-0.75557816	Fmaj7/C, A-/C	-0.16266532
-1.5026253	Dm, Gm/D,	-0.18140195
-1.9151101	E-, Gm/D,	-0.16266532
-1.0446941	Gm/D, Gm/D,	-0.16266532
-1.7580932	Cm, Fm/C,	-0.24330992
-2.4017441	Cm, Fm/C	-0.16266532
-2.06254	C, Fmaj7/A,	-0.18783154
-2.0418146	A-, E-/G,	-0.16266532
-2.5209699	<s> G+11,	-0.16266532
-2.5955634	C, G+11,	-0.16266532
-2.1265576	C, E7,	-0.24330992
-2.2816403	G, E7,	-0.16266532
-1.0439326	Ddim, E7,	-0.16266532
-1.6960503	Em, E-7,	-0.16266532
-1.8231728	G7, B--7,	-0.16266532
-2.6818762	C, F#dim	-0.16266532
-2.5209699	<s> B-/F,	-0.16266532
-1.7599958	Dm7, B-/F,	-0.16266532
-0.21092092	B-/F, Em7/G,	-0.29004568
-2.1802413	Dm, G7/F,	-0.16266532
-1.5571743	C/G, F#m7,	-0.16266532
-1.760632	C/E, Dm7	-0.16266532
-1.7580932	Cm, Gm7/B-,	-0.18783154
-0.45577386	Gm7/B-, FmM7/A-,	-0.16266532
-2.4728026	<s> Ddim,	-0.16266532
-2.012586	C, Ddim,	-0.18140195
-2.0515351	B-, Ddim,	-0.16266532
-1.6511499	Am7, Dm7/A,	-0.16266532
-1.7834804	Am, Dm7/A,	-0.29004568
-1.519184	C/G, Dm7/A,	-0.16266532
-1.3551716	G11, E7/G#,	-0.16266532
-1.5571743	C/G, Dm7/A	-0.16266532
-2.410453	<s> FM9,	-0.16266532
-2.3962722	C, FM9,	-0.16266537
-0.81277233	Am7, FM9,	-0.21468547
-2.2032154	G, FM9,	-0.16266532
-1.1994586	C/E, FM9,	-0.29004568
-1.4026629	FM9, FM9	-0.16266532
-2.355941	<s> A-7,	-0.16266532
-2.3102486	C, A-7,	-0.16266532
-2.188765	F, A-7,	-0.16266532
-2.065909	Am, A-7,	-0.16266532
-1.6802925	Cm, A-7,	-0.22170198
-1.3486879	F/A, A-7,	-0.16266532
-1.8276442	E-, A-7,	-0.16266532
-2.3356848	Am, C7/B-,	-0.16266532
-2.4986632	F, G7	-0.16266532
-2.561783	<s> B-7,	-0.16266532
-2.4017441	Cm, Gm	-0.16266532
-2.06254	C, Am9,	-0.18783154
-2.6818762	C, Bm,	-0.16266532
-1.6762947	Em, A9,	-0.16266532
-0.45421892	Bm, A9,	-0.16266532
-1.9493712	E-, Dm9,	-0.16266532
-0.925825	A9, Dm9,	-0.16266532
-2.5955634	C, Em7,	-0.16266532
-0.75248253	Dm9, Em7,	-0.16266532
-1.0551615	D-, Cm/E-,	-0.16266532
-2.1328936	B-, G-,	-0.16266532
-2.6818762	C, Gsus4	-0.16266532
-2.1926959	C, G9,	-0.29004568
-2.1802413	Dm, Am/C,	-0.16266532
-1.7816063	Dm7, G11	-0.16266532
-1.2288198	G/B, CmM7/B,	-0.16266532
-2.3447094	Cm, B-/D,	-0.16266532
-1.306343	E-, B-/D,	-0.18140195

\3-grams:
-0.018216137	C, C </s>	0
-0.014511288	F, C </s>	0
-0.025965901	Am7, C </s>	0
-0.018216137	G, C </s>	0
-0.025965901	Dm7, C </s>	0
-0.024462035	Am, C </s>	0
-0.019216664	G7, C </s>	0
-0.024462035	B-, C </s>	0
-0.025965901	D, C </s>	0
-0.025965901	Gsus4, C </s>	0
-0.025965901	F7, C </s>	0
-0.025965901	Fm, C </s>	0
-0.025965901	F/C, C </s>	0
-0.025965901	Gm, C </s>	0
-0.025965901	Dm7/F, C </s>	0
-0.12783858	F, Am </s>	0
-0.12783858	E, Am </s>	0
-0.06040592	C, F </s>	0
-0.057114486	G, F </s>	0
-0.06040592	Am, F </s>	0
-0.08307757	Gm7, F </s>	0
-0.08307757	C7, F </s>	0
-0.034807228	C, G </s>	0
-0.036758363	F, G </s>	0
-0.050033823	G, G </s>	0
-0.036758363	Dm7, G </s>	0
-0.036758363	Am, G </s>	0
-0.034807228	Dm, G </s>	0
-0.050033823	Cm, G </s>	0
-0.036758363	Fm, G </s>	0
-0.106591664	C, B- </s>	0
-0.106591664	Cm, B- </s>	0
-0.07691803	A-, B- </s>	0
-0.106591664	E-, B- </s>	0
-0.24469188	F, C/E </s>	0
-0.24469188	D-, C/G </s>	0
-0.12783858	F, A- </s>	0
-0.09160677	B-, A- </s>	0
-0.04227306	F, Cm </s>	0
-0.05767637	G, Cm </s>	0
-0.05767637	B-, Cm </s>	0
-0.05767637	Cm, Cm </s>	0
-0.04227306	A-, Cm </s>	0
-0.05767637	Gm, Cm </s>	0
-0.05767637	A-7, Cm </s>	0
-0.24469188	B-, F/A </s>	0
-0.24469188	Fmaj7/C, A-/C </s>	0
-0.24469188	Cm, Fm/C </s>	0
-0.24469188	C, F#dim </s>	0
-0.24469188	C/E, Dm7 </s>	0
-0.24469188	C/G, Dm7/A </s>	0
-0.24469188	FM9, FM9 </s>	0
-0.24469188	F, G7 </s>	0
-0.24469188	Cm, Gm </s>	0
-0.24469188	C, Gsus4 </s>	0
-0.24469188	Dm7, G11 </s>	0
-1.3070724	<s> C, C,	-0.32434502
-0.75630623	C, C, C,	-0.6409256
-1.0134419	F, C, C,	-0.7030735
-1.1779056	G, C, C,	-0.8111554
-1.105131	Am, C, C,	-0.29472053
-0.969618	G7, C, C,	-0.26908606
-0.9532912	Dm, C, C,	-0.32434502
-1.019293	B-, C, C,	-0.37549752
-0.9041871	D, C, C,	-0.29472053
-0.9041871	Gsus4, C, C,	-0.29472053
-0.8781172	F7, C, C,	-0.29472053
-0.9840977	A-, C, C,	-0.29472053
-0.424284	Fm, C, C,	-0.2568148
-1.1385581	F/C, C, C,	-0.42125502
-0.42642513	F#o7/C, C, C,	-0.29472053
-0.66073704	A-7, C, C,	-0.29472053
-0.34474272	<s> F, C,	-0.23506272
-0.6001521	C, F, C,	-1.1673872
-0.6796621	F, F, C,	-0.6431853
-0.69105226	Am7, F, C,	-0.29472053
-0.6690299	G, F, C,	-0.9770507
-0.70541096	Am, F, C,	-0.65356123
-0.8190824	B-, F, C,	-0.39189768
-0.7825326	D, F, C,	-0.23506272
-0.2507018	A, F, C,	-0.31825626
-0.38515797	Gsus4, F, C,	-0.29472053
-0.8184305	C/G, F, C,	-0.56738305
-0.4977955	C/E, F, C,	-0.61928624
-0.72847843	E-, F, C,	-0.7332296
-0.59218997	Gm7, F, C,	-0.78709406
-0.6835598	C7, F, C,	-0.30064887
-0.48084232	Gm, F, C,	-0.78709406
-0.38515797	C7/B-, F, C,	-0.2568148
-0.6402192	F, Am7, C,	-0.6765275
-0.86886084	G/B, Am7, C,	-0.19940628
-0.22972363	<s> G, C,	-0.26908606
-0.5455853	C, G, C,	-1.1117085
-0.48851103	F, G, C,	-1.30549
-0.5033437	G, G, C,	-0.28723094
-0.48550773	Dm7, G, C,	-0.28258097
-0.6506777	Am, G, C,	-0.24116722
-0.36791286	Dm, G, C,	-0.5861774
-0.22102965	B-, G, C,	-0.23506272
-0.44577238	D, G, C,	-0.42558762
-0.510073	Em, G, C,	-0.29472053
-0.33238032	F7, G, C,	-0.2568148
-0.48550773	C/E, G, C,	-0.22134623
-0.6130002	F/A, G, C,	-0.8649203
-0.510073	E-, G, C,	-0.29472053
-0.6366191	C7, G, C,	-0.32434502
-0.6366191	F#, G, C,	-0.29472053
-0.33238032	Bm7, G, C,	-0.29472053
-0.74740857	Fm, G, C,	-0.29472053
-0.33238032	E-/B-, G, C,	-0.29472053
-0.33238032	B-m7, G, C,	-0.29472053
-0.510073	FmM7/A-, G, C,	-0.29472053
-0.4111212	<s> Dm7, C,	-0.29472053
-0.8187816	C, Dm7, C,	-0.28987107
-0.4111212	F, Dm7, C,	-0.19940628
-0.77540505	<s> Am, C,	-0.29472053
-0.9448813	C, Am, C,	-0.9984907
-0.87158984	F, Am, C,	-0.26908606
-0.93061554	G, Am, C,	-0.27915904
-0.8993871	Dm7, Am, C,	-0.32434502
-0.9368284	E, Am, C,	-0.29472053
-0.8486595	G/B, Am, C,	-0.22134623
-0.5966601	<s> G7, C,	-0.29472053
-0.3322765	C, G7, C,	-0.39189768
-0.41566378	F, G7, C,	-0.37549752
-0.4741819	Am, G7, C,	-0.2568148
-0.27746361	D7, G7, C,	-0.24751125
-0.30821326	G7, G7, C,	-0.29472053
-0.30821326	B-, G7, C,	-0.26908606
-0.3699297	Dm7, Am/E, C,	-0.19940628
-0.92751175	C, Dm, C,	-0.26908606
-0.6144675	F, Dm, C,	-0.38581395
-0.8542135	Am, Dm, C,	-0.2568148
-0.59624225	Am/E, Dm, C,	-0.32434502
-0.6728763	Em, Dm, C,	-0.26514927
-0.59624225	C/E, Dm, C,	-0.42125502
-0.59624225	Gm, Dm, C,	-0.32434502
-0.3876693	Cmaj7, Dm, C,	-0.26908606
-0.600743	<s> B-, C,	-0.29472053
-0.5874735	C, B-, C,	-0.75090224
-0.69313425	F, B-, C,	-0.2535776
-0.81291807	G, B-, C,	-0.29472053
-0.8581964	B-, B-, C,	-0.19940628
-0.7968096	A-, B-, C,	-0.4806527
-0.7286265	E-, B-, C,	-0.23285021
-0.7805791	F, D, C,	-0.19940628
-0.6128986	G, D, C,	-0.29472053
-0.6128986	E, D, C,	-0.29472053
-0.5551503	<s> Gsus4, C,	-0.29472053
-0.3617937	D7, Gsus4, C,	-0.2568148
-0.5341453	F/C, Gsus4, C,	-0.53388023
-1.0157655	C, Em, C,	-0.2568148
-1.0071828	Am, Em, C,	-0.32434502
-0.14109388	C, F7, C,	-0.8362284
-0.31069463	G7, F7, C,	-0.408102
-1.3728076	F, Cm, C,	-0.2568148
-0.5446059	F, A-, C,	-0.24516378
-0.9769081	Am, A-, C,	-0.29472053
-0.9078292	B-, A-, C,	-0.22134623
-0.6261552	C, C/E, C,	-0.2568148
-1.0372766	F, C/E, C,	-0.29472053
-0.7341438	G, C/E, C,	-0.29472053
-0.6902993	C, F/A, C,	-1.0788001
-0.8065891	B-, F/A, C,	-0.5004363
-1.1663055	F, E-, C,	-0.2568148
-0.23158911	F#o7/E-, G/D, C,	-0.29472053
-0.50799614	Dm, Bm7, C,	-0.2568148
-0.8320474	C, G/B, C,	-0.19940628
-0.6855671	Am, Fm, C,	-0.29472053
-0.4407286	D, Fm, C,	-0.26908606
-0.20444258	<s> F/C, C,	-0.29472053
-0.30162704	C, F/C, C,	-0.70950955
-0.20444258	G, F/C, C,	-0.29472053
-0.20444258	Am, F/C, C,	-0.29472053
-0.20444258	F/C, F/C, C,	-0.32434502
-0.20444258	Bo7/A-, F/C, C,	-0.29472053
-0.13534473	Am7, G11, C,	-0.5004363
-0.13534473	G, G11, C,	-0.29472053
-0.2395458	Dm7, G11, C,	-0.19940628
-0.13534473	Am, G11, C,	-0.29472053
-0.13534473	C/G, G11, C,	-0.19940628
-0.13534473	Fm, G11, C,	-0.29472053
-0.54121333	C, Gm, C,	-0.19940628
-0.63965714	F, Gm, C,	-0.29472053
-0.6160663	F, F#o7, C,	-0.29472053
-0.16004609	F, G#o7, C,	-0.19940628
-0.25886527	C, D-, C,	-0.29472053
-0.25886527	A-, D-, C,	-0.2568148
-0.50799614	A-, B-m7, C,	-0.29472053
-0.23158911	G, F#o7/C, C,	-0.29472053
-0.27395248	C, Dm7/F, C,	-0.32434502
-0.1917953	F, Dm7/F, C,	-0.22134623
-0.1917953	Am, Dm7/F, C,	-0.5004363
-0.1917953	Dm7/F, Dm7/F, C,	-0.29472053
-0.7025128	Cm, Gm/B-, C,	-0.29472053
-0.12186281	<s> G+11, C,	-0.29472053
-0.12186281	C, G+11, C,	-0.5973463
-0.50799614	Gm7/B-, FmM7/A-, C,	-0.29472053
-0.4597833	C, Ddim, C,	-0.5004363
-0.5856704	C, FM9, C,	-0.29472053
-0.32986292	G, FM9, C,	-0.2568148
-0.219575	C/E, FM9, C,	-0.2568148
-0.36590207	C, A-7, C,	-0.29472053
-0.36590207	Am, A-7, C,	-0.29472053
-0.5679168	Em, A9, C,	-0.29472053
-0.16004609	C, G9, C,	-0.32434502
-0.3621259	<s> C, F,	-0.76654166
-0.96344167	C, C, F,	-0.87945175
-0.7925991	F, C, F,	-1.2133325
-0.7433965	Am7, C, F,	-0.6765275
-0.71964675	G, C, F,	-1.1446649
-0.91360384	Dm7, C, F,	-0.2568148
-0.85816365	Am, C, F,	-0.2568148
-0.7396337	G7, C, F,	-0.24177057
-0.6333539	Am/E, C, F,	-0.19940628
-0.92430055	Dm, C, F,	-0.27535424
-0.9559697	B-, C, F,	-0.41329917
-0.8573011	D, C, F,	-0.29472053
-0.8573011	Gsus4, C, F,	-0.29472053
-0.64615023	A-, C, F,	-0.32434502
-0.7433965	C/E, C, F,	-0.2568148
-0.4102509	G/B, C, F,	-0.26908606
-1.0819491	F/C, C, F,	-0.22134623
-0.923711	G11, C, F,	-0.29472053
-0.41087407	Gm, C, F,	-0.27535424
-0.41087407	G+11, C, F,	-0.8362284
-0.4102509	FmM7/A-, C, F,	-0.29472053
-1.502807	C, F, F,	-0.74962
-1.0282716	G, F, F,	-0.31424397
-0.7395257	Gm7, F, F,	-0.2568148
-0.99667794	CmM7, F, F,	-0.29472053
-0.42074552	C/G, Am7, F,	-0.26908606
-0.88734204	G/B, Am7, F,	-0.29472053
-0.763741	<s> G, F,	-0.29472053
-0.59458584	C, G, F,	-0.9506333
-0.8699583	F, G, F,	-0.77505505
-0.77899945	G, G, F,	-0.22134623
-0.59492904	Am, G, F,	-0.6941564
-0.87571925	Dm, G, F,	-0.2697993
-0.8159668	D, G, F,	-0.19940628
-0.9556925	Cm, G, F,	-0.23285021
-0.535429	C/E, G, F,	-0.36670932
-0.92959833	F/A, G, F,	-0.19940628
-0.765622	C7, G, F,	-0.2568148
-0.765622	F#, G, F,	-0.29472053
-0.3916383	Fmaj7/A, G, F,	-0.5004363
-1.1322296	C, Dm7, F,	-0.2568148
-0.67244655	C/E, Dm7, F,	-0.56738305
-0.707218	<s> Am, F,	-0.29472053
-0.5611431	C, Am, F,	-0.9372693
-0.77693385	F, Am, F,	-0.43849865
-0.8425701	G, Am, F,	-1.1271573
-0.7690302	Am, Am, F,	-0.29472053
-0.60501546	Em/B, Am, F,	-0.42125502
-0.39307564	B-, Am, F,	-0.29472053
-0.8859133	Em, Am, F,	-0.5004363
-0.5714602	Cm, Am, F,	-0.32434502
-0.7690302	G/B, Am, F,	-1.0445043
-0.707218	E7, Am, F,	-0.42125502
-0.6897501	C, E, F,	-0.42125502
-1.0724654	F, G7, F,	-0.2568148
-0.63857126	C, Em/B, F,	-0.29472053
-0.7844563	C, Dm, F,	-0.6765275
-0.9558037	F, Dm, F,	-0.29472053
-0.83110565	Dm, Dm, F,	-0.29472053
-0.87970686	A, Dm, F,	-0.2568148
-0.9878271	Em, Dm, F,	-0.2568148
-0.41812292	Em7, Dm, F,	-0.2568148
-0.68137	C, B-, F,	-0.5888325
-0.7282822	F, B-, F,	-0.23285021
-0.54481137	G, B-, F,	-0.38915402
-0.40941915	E, B-, F,	-0.26908606
-0.63260126	B-, B-, F,	-0.19940628
-0.76358366	E-, B-, F,	-0.39743748
-0.7941108	F, D, F,	-0.2568148
-0.5921236	Am, D, F,	-0.42125502
-0.51546717	D, D, F,	-0.39743748
-0.34384787	F, A, F,	-0.32434502
-0.34384787	D, A, F,	-0.29472053
-0.28638673	C, Gsus4, F,	-0.2568148
-0.5229818	C, Em, F,	-0.30064887
-0.618861	G, Em, F,	-0.29472053
-0.7248125	Dm, Em, F,	-0.62537503
-0.2396406	Am, C/G, F,	-0.44665638
-0.6115078	E7, C/G, F,	-0.29472053
-1.0306337	<s> Cm, F,	-0.29472053
-0.91157025	F, Cm, F,	-0.8980399
-0.8578253	G7, Cm, F,	-0.19940628
-1.1290418	B-, Cm, F,	-0.26908606
-1.3049362	A-, Cm, F,	-1.3754975
-1.0031751	B-/D, A-, F,	-0.29472053
-0.78071624	F, C/E, F,	-0.6765275
-0.6742952	G, C/E, F,	-0.29472053
-0.34426954	Am, C/E, F,	-0.6765275
-0.5787924	C/E, C/E, F,	-0.29472053
-0.5432723	C, E-, F,	-0.66862565
-0.6612431	F, E-, F,	-0.29472053
-0.61330193	Dm, E-, F,	-0.29472053
-0.6549682	Cm, E-, F,	-0.53974855
-0.3981435	Dm9, E-, F,	-0.29472053
-0.34997967	C, Gm7, F,	-1.0276476
-0.28788984	<s> C7, F,	-0.2568148
-0.2661202	C, C7, F,	-0.29472053
-0.42667568	F, C7, F,	-0.5686423
-0.57089627	G, C7, F,	-0.29472053
-0.2661202	G7, C7, F,	-0.2568148
-0.18156652	C7, C7, F,	-0.29472053
-0.9788371	C, Gm, F,	-0.9203162
-0.61514163	F, Gm, F,	-0.7636777
-0.39926353	F/A, Gm, F,	-0.19940628
-0.26357925	C/G, A7, F,	-0.26908606
-0.26357925	Gm, A7, F,	-0.32434502
-0.27159226	F, CmM7, F,	-0.26908606
-0.2475065	A-, CmM7, F,	-0.29472053
-0.2475065	CmM7, CmM7, F,	-0.29472053
-0.33801043	Am, Em/G, F,	-0.19940628
-0.23715623	Am, D/F#, F,	-0.19940628
-0.23715623	C/G, F#m7, F,	-0.19940628
-0.23715623	Am, C7/B-, F,	-0.32434502
-0.21974728	C, Am9, F,	-0.19940628
-0.3776037	Cm, B-/D, F,	-0.29472053
-2.1463957	<s> C, Am7,	-0.29472053
-0.7992413	G11, C, Am7,	-0.56738305
-1.0643125	FM9, C, Am7,	-0.29472053
-1.7611407	C, F, Am7,	-0.61928624
-0.99972624	F#o7, C/G, Am7,	-0.19940628
-1.7244326	B-, Cm, Am7,	-0.26908606
-0.4821992	FM9, C/E, Am7,	-0.2568148
-0.5074422	C, G/B, Am7,	-0.36670932
-0.33733162	FM9, G/B, Am7,	-0.2568148
-0.2517163	G11, E7/G#, Am7,	-0.19940628
-0.34960175	<s> FM9, Am7,	-0.29472053
-0.6219194	C, FM9, Am7,	-0.2568148
-0.549929	Am7, FM9, Am7,	-0.19940628
-1.7430353	C, C, C	-0.2568148
-1.8728782	F, C, C	-0.29472053
-1.899889	G, C, C	-0.2568148
-1.2366172	G11, C, C	-0.29472053
-1.5081567	C, F, C	-0.32434502
-1.3976779	G, F, C	-0.42125502
-1.3831556	B-, F, C	-0.29472053
-0.9990105	D, F, C	-0.29472053
-0.9990105	Gm, F, C	-0.29472053
-0.74698514	F, Am7, C	-0.29472053
-1.4271246	C, G, C	-0.72228503
-1.401456	F, G, C	-0.72228503
-1.5786606	Dm, G, C	-0.29472053
-1.2500964	F/A, G, C	-0.29472053
-1.3721305	C, Dm7, C	-0.29472053
-1.691162	C, Am, C	-0.29472053
-1.4440775	G, Am, C	-0.29472053
-1.1414955	E, Am, C	-0.29472053
-0.86233556	C, G7, C	-0.19940628
-0.9896521	F, G7, C	-0.29472053
-1.4959223	C, B-, C	-0.29472053
-1.2984103	A-, B-, C	-0.29472053
-1.2286421	E-, B-, C	-0.29472053
-0.74924856	E, D, C	-0.29472053
-1.0654866	F/C, Gsus4, C	-0.29472053
-0.8158972	G7, F7, C	-0.29472053
-0.92099386	G, Fm, C	-0.29472053
-0.9619842	C, F/C, C	-0.2568148
-1.2739812	C, Gm, C	-0.29472053
-0.919307	C, Dm7/F, C	-0.29472053
-0.86613214	<s> C, G,	-0.42757136
-0.9192713	C, C, G,	-0.92301184
-0.91675824	F, C, G,	-1.1776367
-0.8224749	G, C, G,	-0.96197945
-0.91573083	Am, C, G,	-0.29472053
-1.1799188	Dm, C, G,	-0.5004363
-1.0370456	B-, C, G,	-0.2568148
-0.92137575	D, C, G,	-0.19940628
-0.92137575	Gsus4, C, G,	-0.6765275
-0.67046636	Em, C, G,	-0.32434502
-0.6776948	A-, C, G,	-0.26635304
-0.7918281	C/E, C, G,	-0.29472053
-0.8187912	Fm, C, G,	-0.29472053
-0.43207103	G#o7, C, G,	-0.19940628
-0.94304514	Dm7/F, C, G,	-0.5004363
-0.8187912	G+11, C, G,	-0.19940628
-0.7290671	<s> F, G,	-0.26908606
-0.82243794	C, F, G,	-1.1992341
-0.7446099	F, F, G,	-0.31424397
-0.64414614	G, F, G,	-0.8357257
-0.8521452	Am, F, G,	-1.0464885
-0.40890482	E, F, G,	-0.42125502
-0.6358989	Dm, F, G,	-0.42125502
-0.89333725	B-, F, G,	-0.62537503
-0.5067435	D, F, G,	-0.36759567
-0.47149047	Em, F, G,	-0.4806527
-0.95819795	Cm, F, G,	-0.2568148
-0.99579626	E-, F, G,	-0.29472053
-0.7273117	C7, F, G,	-0.19940628
-0.40890482	Em/G, F, G,	-0.19940628
-1.3334216	C, G, G,	-0.21180737
-1.2810013	F, G, G,	-0.32434502
-0.8841362	G, G, G,	-0.4806527
-1.1992201	Am, G, G,	-0.29472053
-0.7032447	Em, G, G,	-0.29472053
-1.1115508	Fm, G, G,	-0.29472053
-0.7200077	C, Dm7, G,	-0.62537503
-0.544506	G, Dm7, G,	-0.97755754
-0.72736835	Am, Dm7, G,	-0.2568148
-0.3549441	Cm, Dm7, G,	-0.29472053
-0.544506	Fm, Dm7, G,	-0.29472053
-0.9116355	C, Am, G,	-0.6923731
-0.92459023	F, Am, G,	-0.42391613
-1.0378381	G, Am, G,	-0.56738305
-0.45225072	D, Am, G,	-0.19940628
-1.0848157	Em, Am, G,	-0.29472053
-0.40687546	C, Dm, G,	-0.68071985
-0.5312752	F, Dm, G,	-0.33562857
-0.5931153	Am7, Dm, G,	-0.2568148
-0.42543224	G, Dm, G,	-0.42125502
-0.50138134	Am, Dm, G,	-0.22134623
-0.5124808	D7, Dm, G,	-0.29472053
-0.5124808	Am/E, Dm, G,	-0.56389034
-0.6398444	Dm, Dm, G,	-0.29472053
-0.67050296	A, Dm, G,	-0.29472053
-0.7376803	Em, Dm, G,	-0.2568148
-0.5124808	C/E, Dm, G,	-0.19940628
-0.33397812	E-m, Dm, G,	-0.2568148
-0.5124808	C#dim, Dm, G,	-0.29472053
-1.0501827	G, B-, G,	-0.29472053
-0.4588381	Dm, B-, G,	-0.32434502
-0.33031145	C, D, G,	-0.32434502
-0.63246065	F, D, G,	-0.19940628
-0.33031145	A, D, G,	-0.2568148
-0.33031145	Em, D, G,	-0.2568148
-0.33031145	C/E, D, G,	-0.29472053
-0.6599752	G, Em, G,	-0.29472053
-0.42598075	B, Em, G,	-0.29472053
-0.42258015	Am, F7, G,	-0.2568148
-0.4025915	Dm, C/G, G,	-0.29472053
-0.4025915	F/A, C/G, G,	-0.29472053
-1.0706875	<s> Cm, G,	-0.29472053
-0.9441118	F, Cm, G,	-0.4626477
-1.0031648	G, Cm, G,	-0.7636777
-1.3806404	A-, Cm, G,	-0.23285021
-0.4526662	C, A-, G,	-0.29472053
-0.6363405	G, A-, G,	-0.32434502
-0.4526662	D, A-, G,	-0.29472053
-0.64446104	C, C/E, G,	-0.22134623
-0.871401	F, C/E, G,	-0.37549752
-0.64446104	C/E, C/E, G,	-0.29472053
-0.29949334	C, F/A, G,	-0.628899
-0.18647021	G, F/A, G,	-0.7654143
-0.43206918	B-, F/A, G,	-0.22134623
-0.27413708	Cm, F/A, G,	-0.29472053
-0.8537267	B-, E-, G,	-0.29472053
-1.1227915	Cm, E-, G,	-0.5004363
-0.8819944	F, C7, G,	-0.2568148
-0.561318	G, C7, G,	-0.29472053
-0.3967086	F7, C7, G,	-0.32434502
-0.34354255	G, F#, G,	-0.2444538
-0.5269893	Dm, Bm7, G,	-0.2568148
-0.37912205	C, Fm, G,	-0.2568148
-0.6789299	G, Fm, G,	-0.43918273
-0.8284066	Cm, Fm, G,	-0.29472053
-0.6789299	E-, Fm, G,	-0.36759567
-0.49195966	Gm, Fm, G,	-0.2568148
-0.24153616	B, E-/B-, G,	-0.29472053
-0.5269893	A-, B-m7, G,	-0.29472053
-0.22371627	C, Fmaj7/A, G,	-0.5004363
-0.5269893	Gm7/B-, FmM7/A-, G,	-0.26908606
-1.7062004	C, C, Dm7,	-0.2568148
-1.270847	G, C, Dm7,	-0.3596489
-0.7522092	Dm7, C, Dm7,	-0.38119078
-1.0478084	Am, C, Dm7,	-0.299797
-1.5069956	G7, C, Dm7,	-0.29472053
-2.0872502	C, F, Dm7,	-0.19940628
-1.0182996	C, Am7, Dm7,	-0.19940628
-0.6650705	Dm7, G, Dm7,	-0.82352763
-1.3955386	C, Am, Dm7,	-0.26908606
-1.050664	Dm7, Am, Dm7,	-0.29472053
-0.9804308	Am, Am, Dm7,	-0.2568148
-0.7382388	Dm7/A, Am, Dm7,	-0.29472053
-0.65219915	F, Am/E, Dm7,	-0.5004363
-0.7884694	Dm7, Cm, Dm7,	-0.29472053
-1.0439734	F, C/E, Dm7,	-0.47674015
-0.769045	E-/G, Fm, Dm7,	-0.29472053
-0.35482275	C, Em7, Dm7,	-0.22134623
-1.1316206	<s> C, Am,	-0.31424397
-1.1475807	C, C, Am,	-0.26908606
-1.0196195	F, C, Am,	-0.6941505
-0.81777227	G, C, Am,	-0.94290936
-0.88750553	Am, C, Am,	-0.72228503
-0.77194905	G7, C, Am,	-0.42054507
-0.6648448	Am/E, C, Am,	-0.19940628
-0.97789395	Dm, C, Am,	-0.36759567
-1.2040936	B-, C, Am,	-0.19940628
-0.91140836	D, C, Am,	-0.29472053
-0.91140836	Gsus4, C, Am,	-0.2568148
-0.78440964	C/E, C, Am,	-0.29472053
-0.42881536	G/D, C, Am,	-0.29472053
-1.1473935	F/C, C, Am,	-0.29472053
-0.2740469	D-, C, Am,	-0.19940628
-0.9336272	Dm7/F, C, Am,	-0.29472053
-0.42881536	Gm/B-, C, Am,	-0.29472053
-1.3252028	C, F, Am,	-0.38111448
-1.1588033	G, F, Am,	-0.51283735
-0.8783666	Dm7, F, Am,	-0.2568148
-0.8436041	Am, F, Am,	-0.49033526
-1.069524	B-, F, Am,	-0.22134623
-0.92883605	C, G, Am,	-0.3863618
-0.9195559	F, G, Am,	-0.74130815
-1.3000863	Am, G, Am,	-0.23285021
-1.5509475	Dm, G, Am,	-0.29472053
-0.66840583	C, Dm7, Am,	-0.31825626
-0.58451325	Am, Dm7, Am,	-0.27535424
-1.2707897	F, Am, Am,	-0.29472053
-1.3315316	G, Am, Am,	-0.2568148
-1.0263447	Dm7, Am, Am,	-0.2568148
-0.72622395	E/G#, Am, Am,	-0.29472053
-0.5223914	C, E, Am,	-0.2568148
-0.48897684	F, E, Am,	-0.29472053
-0.3521241	G, E, Am,	-0.19940628
-0.7130258	Am, D7, Am,	-0.29472053
-0.6973732	Am, G7, Am,	-0.29472053
-1.2099752	D7, G7, Am,	-0.29472053
-0.2821458	C, Em/B, Am,	-0.56738305
-0.48687944	A-, Dm, Am,	-0.29472053
-0.914804	F, B-, Am,	-0.19940628
-0.9806557	F, D, Am,	-0.19940628
-0.73501545	C, Em, Am,	-0.4643843
-0.700999	F, Em, Am,	-0.2568148
-0.25246015	Am, Em, Am,	-0.24116722
-0.45920053	Am, Cm, Am,	-0.42558762
-1.2454026	G7, Cm, Am,	-0.2568148
-1.4438664	B-, Cm, Am,	-0.2568148
-1.3468989	Cm, Cm, Am,	-0.2568148
-0.6776728	Am, A-, Am,	-0.19940628
-0.24279569	C, G7/B, Am,	-0.2568148
-0.6092885	C, G/B, Am,	-0.74962
-0.1671008	Am, E/G#, Am,	-0.29472053
-0.4533334	C/E, G11, Am,	-0.29472053
-0.3451362	C, Em/G, Am,	-0.5004363
-0.4476587	C, E7, Am,	-0.2568148
-0.21003743	G, E7, Am,	-0.42125502
-0.21003743	Ddim, E7, Am,	-0.2568148
-0.636805	C/G, Dm7/A, Am,	-0.29472053
-2.2279096	F, C, E,	-0.36759567
-0.92021835	Am7, F, E,	-0.2568148
-1.7564135	G, F, E,	-0.32434502
-0.92021835	Dm7, F, E,	-0.2568148
-1.0357648	Gm, F, E,	-0.26908606
-1.1053562	G/B, Am7, E,	-0.19940628
-1.7053684	Dm, G, E,	-0.2568148
-0.7707751	C/G, G, E,	-0.29472053
-1.3322953	F/A, G, E,	-0.2568148
-2.0702362	F, C, D7,	-0.22146764
-0.49655074	F#o7, C, D7,	-0.29472053
-2.1368558	C, F, D7,	-0.2568148
-0.4811454	<s> Am7, D7,	-0.29472053
-1.1220012	Dm7, Am, D7,	-0.29472053
-0.7715237	G7, Am, D7,	-0.29472053
-0.5779171	F#o7, C/G, D7,	-0.32434502
-0.42343992	B--7, A7, D7,	-0.29472053
-0.25300574	Em, E-7, D7,	-0.2568148
-1.7013235	C, C, G7,	-0.29472053
-1.5985649	F, C, G7,	-0.39743748
-1.8522356	G, C, G7,	-0.32434502
-0.58885884	F7, C, G7,	-0.45191655
-1.1134462	Dm7/F, C, G7,	-0.19940628
-1.5873706	C, F, G7,	-0.2568148
-1.5735041	Am, F, G7,	-0.39743748
-0.47981426	G7, F, G7,	-0.2568148
-1.0169399	Em, F, G7,	-0.2568148
-1.395328	Cm, G, G7,	-0.19940628
-1.5193537	C, Am, G7,	-0.26908606
-0.20290992	C, D7, G7,	-0.2568148
-0.17007682	Am7, D7, G7,	-0.29472053
-0.2841951	Am, D7, G7,	-0.29472053
-0.17007682	C/G, D7, G7,	-0.29472053
-0.17007682	A7, D7, G7,	-0.29472053
-0.17007682	E-7, D7, G7,	-0.2568148
-1.3827765	D7, G7, G7,	-0.29472053
-1.3538282	C, B-, G7,	-0.19940628
-1.030053	F, Cm, G7,	-0.32434502
-1.4511981	G, Cm, G7,	-0.2568148
-1.3009307	A-, E-, G7,	-0.2568148
-0.64998406	Em, B7, G7,	-0.2568148
-0.77891064	Cm, A-7, G7,	-0.32434502
-0.38349232	E-, A-7, G7,	-0.2568148
-1.7357752	<s> C, Em/B,	-0.2568148
-1.6183379	F, C, Em/B,	-0.2568148
-1.8533326	G, C, Em/B,	-0.5004363
-1.5080236	Dm, C, Em/B,	-0.22134623
-1.5585091	B-, C, Em/B,	-0.29472053
-1.104601	D, C, Em/B,	-0.29472053
-1.5023348	C, F, Am/E,	-0.19940628
-1.2308011	F, F, Am/E,	-0.29472053
-1.6298629	G, F, Am/E,	-0.2568148
-1.4937391	Am, F, Am/E,	-0.56738305
-0.7393947	Em/B, F, Am/E,	-0.29472053
-1.066223	C/G, F, Am/E,	-0.32434502
-0.4889846	Am/E, Dm7, Am/E,	-0.5004363
-1.6561893	<s> C, Dm,	-0.29472053
-1.5672033	C, C, Dm,	-0.29472053
-1.4985629	F, C, Dm,	-0.53388023
-1.5148313	G, C, Dm,	-0.56798893
-1.118076	Dm, C, Dm,	-0.22134623
-1.174143	B-, C, Dm,	-0.22146764
-0.8856963	F/A, C, Dm,	-0.2568148
-1.3272346	C, F, Dm,	-0.62537503
-1.218602	F, F, Dm,	-0.29472053
-1.361287	G, F, Dm,	-0.49033526
-1.114873	Dm, F, Dm,	-0.29472053
-0.46822038	D/F#, F, Dm,	-0.19940628
-0.66338927	C/E, Am7, Dm,	-0.29472053
-0.9088436	G/B, Am7, Dm,	-0.2568148
-1.7440983	F, G, Dm,	-0.26635304
-1.0647576	Dm, G, Dm,	-0.7332296
-1.3456446	C, Am, Dm,	-0.2568148
-0.96135116	Am, Am, Dm,	-0.2568148
-1.0794921	E, Am, Dm,	-0.2568148
-0.46393594	G7/B, Am, Dm,	-0.2568148
-0.45671636	F, D7, Dm,	-0.29472053
-0.42830715	F, Am/E, Dm,	-0.5973463
-0.9845623	G, Dm, Dm,	-0.29472053
-1.1979346	Em, Dm, Dm,	-0.29472053
-0.9845623	Gm/D, Dm, Dm,	-0.22134623
-1.3212448	F, B-, Dm,	-0.19940628
-0.30839366	Dm, A, Dm,	-0.26908606
-0.30839366	B-, A, Dm,	-0.2568148
-0.30839366	G/B, A, Dm,	-0.19940628
-0.45255345	F, Em, Dm,	-0.50642955
-0.7393305	Dm, Em, Dm,	-0.22134623
-0.4083581	A9, Em, Dm,	-0.19940628
-1.370046	<s> Cm, Dm,	-0.29472053
-1.4474388	B-, Cm, Dm,	-0.29472053
-1.3903354	A-, Cm, Dm,	-0.42125502
-1.2164022	Gm, Cm, Dm,	-0.31825626
-1.1122223	Am, A-, Dm,	-0.29472053
-1.1584923	F, C/E, Dm,	-0.42125502
-0.6777569	Dm, C/E, Dm,	-0.19940628
-1.068507	C, Gm, Dm,	-0.32434502
-0.41216207	Dm, Gm, Dm,	-0.42125502
-0.41301662	F, Cmaj7, Dm,	-0.19940628
-0.24342683	Em, E-m, Dm,	-0.32434502
-0.24342683	Dm, C#dim, Dm,	-0.29472053
-0.25646484	Dm, Gm/D, Dm,	-0.30064887
-0.2104794	E-, Gm/D, Dm,	-0.2568148
-0.2104794	Gm/D, Gm/D, Dm,	-0.2568148
-0.16749611	B-/F, Em7/G, Dm,	-0.19940628
-0.3459352	Dm9, Em7, Dm,	-0.2568148
-1.169053	<s> C, B-,	-0.2817142
-0.9565557	C, C, B-,	-0.4817566
-1.2414672	F, C, B-,	-0.7829829
-1.3983765	G, C, B-,	-0.22146764
-1.207982	Am, C, B-,	-0.29472053
-1.2708678	G7, C, B-,	-0.29472053
-1.0390444	Dm, C, B-,	-0.5004363
-0.74438673	B-, C, B-,	-0.70533806
-1.0530133	A-, C, B-,	-0.19940628
-0.8297037	F/A, C, B-,	-0.5004363
-0.4482089	E-, C, B-,	-0.2568148
-0.4482089	B-m7, C, B-,	-0.29472053
-0.69879895	A-7, C, B-,	-0.29472053
-1.5800192	C, F, B-,	-0.42125502
-1.2451106	Am, F, B-,	-0.3463524
-0.7550267	Em/B, F, B-,	-0.29472053
-1.1091083	B-, F, B-,	-0.26908606
-1.6936983	C, G, B-,	-0.32434502
-1.6480492	F, G, B-,	-0.29472053
-1.3254694	Am, G, B-,	-0.2568148
-0.8937879	Cm, G, B-,	-0.5004363
-0.45776278	Am7, E, B-,	-0.19940628
-0.47053522	<s> Dm, B-,	-0.29472053
-0.47053522	B-, Dm, B-,	-0.19940628
-1.0530306	A, Dm, B-,	-0.29472053
-1.4999549	C, B-, B-,	-0.23285021
-1.105066	B-, B-, B-,	-0.2568148
-1.1674597	Cm, B-, B-,	-0.39743748
-0.9571041	<s> Cm, B-,	-0.26908606
-1.130478	F, Cm, B-,	-0.29472053
-0.69262594	G, Cm, B-,	-0.35778895
-0.7442876	B-, Cm, B-,	-0.63288456
-0.942276	Cm, Cm, B-,	-0.42125502
-0.97892994	A-, Cm, B-,	-0.858071
-0.83684325	E-, Cm, B-,	-0.23285021
-0.43882617	Gm/B-, Cm, B-,	-0.29472053
-0.90636057	G, A-, B-,	-0.22134623
-0.90636057	Am, A-, B-,	-0.19940628
-0.8280037	B-, A-, B-,	-0.59700984
-0.6482939	Gsus4, A-, B-,	-0.29472053
-0.6593921	Cm, A-, B-,	-0.60121995
-0.55257124	C, E-, B-,	-0.22134623
-0.7526085	G, E-, B-,	-0.19940628
-0.5936923	Dm, E-, B-,	-0.5004363
-0.69293946	B-, E-, B-,	-0.42125502
-1.1208714	Cm, E-, B-,	-0.29472053
-0.9024908	A-, E-, B-,	-0.39743748
-0.35835385	<s> Fm, B-,	-0.29472053
-0.35835385	Am7, Fm, B-,	-0.29472053
-0.7768122	Cm, Fm, B-,	-0.29472053
-0.6384505	A-, Fm, B-,	-0.29472053
-0.47185984	Gm, Fm, B-,	-0.22146764
-0.35835385	Gm/B-, Fm, B-,	-0.29472053
-0.39337093	F#, B, B-,	-0.29472053
-0.45909876	F/A, A-7, B-,	-0.19940628
-0.24850926	Dm, Am/C, B-,	-0.2568148
-2.159654	F, C, D,	-0.32434502
-1.6925675	C, F, D,	-0.22146764
-1.1463099	C/G, F, D,	-0.19940628
-1.9608327	C, G, D,	-0.29472053
-1.3813957	C, Am, D,	-0.35136545
-1.31862	F, Am, D,	-0.29472053
-1.3863765	G, Am, D,	-0.2568148
-0.7402741	G7, Am, D,	-0.29472053
-1.0364614	F, E, D,	-0.22134623
-0.98813415	Am, D, D,	-0.39743748
-0.54897296	D, D, D,	-0.29472053
-0.70732725	E, A, D,	-0.2568148
-1.2283146	F, Em, D,	-0.2568148
-1.4154501	F, C/E, D,	-0.29472053
-0.9656473	A7, F, A,	-0.32434502
-0.822262	F, E, A,	-0.2568148
-0.7314779	G, E, A,	-0.2568148
-1.159977	A, Dm, A,	-0.19940628
-1.3415785	C, B-, A,	-0.32434502
-0.76182455	G, D, A,	-0.29472053
-0.55789065	Cm, G/B, A,	-0.19940628
-1.8411732	Am, F, Am	-0.29472053
-1.0577315	F, E, Am	-0.29472053
-1.8971297	C, C, Gsus4,	-0.29472053
-2.0702362	F, C, Gsus4,	-0.29472053
-0.8891914	C, D7, Gsus4,	-0.2568148
-1.0862894	A-, B-, Gsus4,	-0.23285021
-0.89056903	B-, Gsus4, Gsus4,	-0.29472053
-1.6187905	Cm, A-, Gsus4,	-0.19940628
-0.8369128	C, F/C, Gsus4,	-0.36670932
-0.36974797	Cmaj7, F/C, Gsus4,	-0.5004363
-1.873752	<s> C, Em,	-0.29472053
-1.5772876	C, C, Em,	-0.29472053
-1.5216895	F, C, Em,	-0.26908606
-1.7138946	G, C, Em,	-0.19940628
-1.4140246	G7, C, Em,	-0.2568148
-1.4123031	Dm, C, Em,	-0.19940628
-1.4587561	B-, C, Em,	-0.19940628
-0.74153405	Em, C, Em,	-0.2568148
-1.5303363	C, F, Em,	-0.22146764
-1.4139711	G, F, Em,	-0.6765275
-0.7080955	Dm, F, Em,	-0.39743748
-1.2858312	E-, F, Em,	-0.29472053
-0.47460854	Am9, F, Em,	-0.19940628
-1.5491327	F, G, Em,	-0.29472053
-0.8370177	<s> Am, Em,	-0.29472053
-1.4681828	C, Am, Em,	-0.29472053
-1.2545692	G, Am, Em,	-0.32434502
-0.9226085	Am, Am, Em,	-0.29472053
-0.7505654	Em, Am, Em,	-0.2568148
-1.0201516	Cm, Am, Em,	-0.2568148
-1.1632448	C, Dm, Em,	-0.5004363
-1.0272242	G, Dm, Em,	-0.32434502
-0.2167144	C, B7, Em,	-0.2568148
-0.15057845	Am, B7, Em,	-0.2568148
-0.3458865	Em, B7, Em,	-0.2568148
-0.39875647	F/C, B, Em,	-0.29472053
-0.39875647	Bm, A9, Em,	-0.19940628
-2.0404305	<s> C, F7,	-0.29472053
-1.7419642	C, C, F7,	-0.29472053
-1.8986568	G, C, F7,	-0.29472053
-1.5313814	G7, C, F7,	-0.32434502
-1.0452349	F7, C, F7,	-0.5004363
-1.3105198	Em, Am, F7,	-0.2568148
-1.2172067	C, G7, F7,	-0.52237624
-0.71418226	Cm, G7, F7,	-0.32434502
-0.7698879	<s> C7, F7,	-0.29472053
-0.91411585	F, C7, F7,	-0.2568148
-0.87425905	G, C7, F7,	-0.29472053
-1.7386461	F, C, F	-0.62537503
-2.101867	G, C, F	-0.29472053
-1.4488074	C, G, F	-0.19940628
-1.425714	F, G, F	-0.2568148
-1.3524287	Am, G, F	-0.29472053
-1.0052732	C7, G, F	-0.29472053
-1.8165653	C, Am, F	-0.29472053
-1.5434234	G, Am, F	-0.29472053
-0.6831399	C, Gm7, F	-0.29472053
-1.2036178	F, C7, F	-0.29472053
-1.6263986	C, Am, C/G,	-0.56738305
-0.7412953	Em/B, Am, C/G,	-0.32434502
-0.4715601	Em/G, Am, C/G,	-0.5004363
-0.888196	E7, Am, C/G,	-0.2568148
-0.9521702	Am7, Dm, C/G,	-0.29472053
-1.2370243	C, F/A, C/G,	-0.29472053
-0.3458865	F, F#o7, C/G,	-0.19940628
-0.2167144	C/G, F#o7, C/G,	-0.29472053
-0.2167144	Bm/F#, F#o7, C/G,	-0.19940628
-0.35727856	C/G, Bo7/A-, C/G,	-0.19940628
-0.42145073	C, E7, C/G,	-0.29472053
-0.25236055	Dm, G7/F, C/G,	-0.19940628
-0.2167144	Am7, Dm7/A, C/G,	-0.19940628
-0.15057845	Am, Dm7/A, C/G,	-0.19940628
-0.3458865	C/G, Dm7/A, C/G,	-0.22134623
-1.7821114	C, C, G	-0.29472053
-1.9211534	F, C, G	-0.2568148
-1.9451594	G, C, G	-0.2568148
-1.2029775	Dm7, C, G	-0.29472053
-1.9795419	C, F, G	-0.32434502
-1.3355427	Am, F, G	-0.19940628
-1.4831746	G, G, G	-0.29472053
-1.2046397	C, Dm7, G	-0.29472053
-0.7006897	Fm, Dm7, G	-0.29472053
-1.7937524	C, Am, G	-0.29472053
-1.4363911	F, Am, G	-0.29472053
-1.3901899	C, Dm, G	-0.29472053
-0.71696496	D7, Dm, G	-0.29472053
-1.1566234	Em, Dm, G	-0.29472053
-0.71696496	C#dim, Dm, G	-0.29472053
-1.5409573	G, Cm, G	-0.29472053
-0.8564126	G, Fm, G	-0.29472053
-0.8564126	E-, Fm, G	-0.29472053
-1.7897679	C, C, Cm,	-0.29472053
-1.681992	F, C, Cm,	-0.29472053
-1.3792446	C, F, Cm,	-0.26908606
-1.1203393	F, F, Cm,	-0.29472053
-1.4638059	G, F, Cm,	-0.2568148
-1.3378416	Am, F, Cm,	-0.19940628
-1.2377737	B-, F, Cm,	-0.42125502
-0.76362157	Cm, F, Cm,	-0.58758646
-1.147805	E-, F, Cm,	-0.29472053
-0.4475352	B-/D, F, Cm,	-0.29472053
-0.7350042	Cm, Am7, Cm,	-0.2568148
-1.4859757	C, G, Cm,	-0.26908606
-1.4296726	F, G, Cm,	-0.29472053
-0.57296634	Cm, G, Cm,	-0.6651112
-1.1111645	F/A, G, Cm,	-0.29472053
-0.689634	E-, G, Cm,	-0.5004363
-0.7551379	Fm, G, Cm,	-0.35778895
-0.689634	FmM7/A-, G, Cm,	-0.2568148
-0.7445748	G, Dm7, Cm,	-0.29472053
-1.4442527	C, Am, Cm,	-0.2568148
-0.6763353	Cm, Am, Cm,	-0.42558762
-0.32994664	<s> G7, Cm,	-0.29472053
-0.8077985	C, G7, Cm,	-0.2568148
-0.31463617	G, G7, Cm,	-0.19940628
-0.82723516	D7, G7, Cm,	-0.2568148
-0.483627	Cm, G7, Cm,	-0.2568148
-0.31463617	E-, G7, Cm,	-0.2568148
-0.21070081	A-7, G7, Cm,	-0.39743748
-0.61450964	<s> B-, Cm,	-0.29472053
-0.8812335	B-, B-, Cm,	-0.42125502
-0.53743243	Cm, B-, Cm,	-0.69212574
-0.79936105	A-, B-, Cm,	-0.6431853
-0.97164553	E-, B-, Cm,	-0.42125502
-0.20306616	Fm, B-, Cm,	-0.24116722
-0.39887896	A-7, B-, Cm,	-0.29472053
-0.68860316	E, A, Cm,	-0.2568148
-0.48871285	<s> Gsus4, Cm,	-0.29472053
-0.564654	B-, Gsus4, Cm,	-0.19940628
-0.3180761	Gsus4, Gsus4, Cm,	-0.29472053
-0.3180761	A-, Gsus4, Cm,	-0.19940628
-1.1028861	<s> Cm, Cm,	-0.29472053
-1.0455718	F, Cm, Cm,	-0.29472053
-1.075684	G, Cm, Cm,	-0.29472053
-0.64769816	Dm7, Cm, Cm,	-0.29472053
-0.79229826	Am, Cm, Cm,	-0.2568148
-1.158777	B-, Cm, Cm,	-0.29472053
-0.88496923	Cm, Cm, Cm,	-0.29472053
-1.020283	E-, Cm, Cm,	-0.29472053
-0.7507271	Gm, Cm, Cm,	-0.23871852
-0.64769816	Fm/C, Cm, Cm,	-0.29472053
-0.22801642	<s> A-, Cm,	-0.2568148
-0.6984698	F, A-, Cm,	-0.4626477
-0.7254565	G, A-, Cm,	-0.2568148
-0.67387384	B-, A-, Cm,	-0.7892318
-0.56773454	Cm, A-, Cm,	-0.66522086
-0.5285407	A-, A-, Cm,	-0.29472053
-0.61252606	E-, A-, Cm,	-1.3754975
-0.3445588	A-/C, A-, Cm,	-0.29472053
-0.661516	B-/D, A-, Cm,	-0.26908606
-0.6840434	B-, E-, Cm,	-0.29472053
-0.46651605	Cm, E-, Cm,	-0.72956914
-0.6745173	A-, E-, Cm,	-0.19940628
-0.7424175	E-, E-, Cm,	-0.29472053
-0.5865989	Fm, E-, Cm,	-0.29472053
-0.38167846	Cm/E-, E-, Cm,	-0.42558762
-0.737387	A-, Fm, Cm,	-0.29472053
-0.737387	E-, Fm, Cm,	-0.29472053
-0.40745002	Fm/C, Fm, Cm,	-0.29472053
-0.6286823	E-/G, Fm, Cm,	-0.2568148
-0.6018884	Dm, Gm, Cm,	-0.38119078
-0.283825	Cm, Gm, Cm,	-0.88365304
-0.55606073	Fm, Gm, Cm,	-0.7829829
-0.36237678	B-7, Gm, Cm,	-0.29472053
-0.41143194	Gm/B-, A7, Cm,	-0.2568148
-0.40704903	G, Gm/B-, Cm,	-0.29472053
-0.52942294	Fmaj7/C, A-/C, Cm,	-0.22134623
-0.3560559	Cm, Fm/C, Cm,	-0.29472053
-0.268345	<s> Ddim, Cm,	-0.29472053
-0.268345	B-, Ddim, Cm,	-0.2568148
-0.34218937	<s> A-7, Cm,	-0.29472053
-0.34218937	F, A-7, Cm,	-0.26908606
-0.43428642	Cm, A-7, Cm,	-0.29472053
-0.44557905	E-, B-/D, Cm,	-0.62537503
-2.1004982	G, C, A-,	-0.29472053
-1.8677258	C, F, A-,	-0.32434502
-1.1341774	B-, F, A-,	-0.5004363
-1.353744	E-, F, A-,	-0.7636777
-1.6194495	C, G, A-,	-0.2568148
-1.3376842	F, G, A-,	-0.32434502
-1.0329643	D, G, A-,	-0.29472053
-0.9611142	F#, G, A-,	-0.19940628
-1.169607	Fm, G, A-,	-0.2568148
-1.5924846	C, Am, A-,	-0.29472053
-0.4677313	Dm, Am, A-,	-0.29472053
-1.1499887	Em, Am, A-,	-0.19940628
-0.4677313	A-, Am, A-,	-0.26908606
-1.056152	C, B-, A-,	-0.7636777
-0.9358073	B-, B-, A-,	-0.29472053
-0.72725207	Cm, B-, A-,	-0.7589674
-0.84305674	A-, B-, A-,	-0.27535424
-0.7793302	E-, B-, A-,	-0.4626477
-1.0818835	Fm, B-, A-,	-0.19940628
-1.1343958	Am, D, A-,	-0.29472053
-0.8739941	B-, Gsus4, A-,	-0.29472053
-0.88698894	<s> Cm, A-,	-0.29472053
-0.73531806	C, Cm, A-,	-0.29472053
-1.0289924	G, Cm, A-,	-0.2568148
-1.0015398	G7, Cm, A-,	-0.2568148
-0.96560967	B-, Cm, A-,	-0.68222076
-0.24426086	Gsus4, Cm, A-,	-0.62537503
-1.0256256	Cm, Cm, A-,	-0.29472053
-0.6089679	A-, Cm, A-,	-0.8874309
-0.97615856	E-, Cm, A-,	-0.19940628
-0.80159324	Fm, Cm, A-,	-0.2568148
-0.62707067	A-/C, Cm, A-,	-0.29472053
-0.26224032	Ddim, Cm, A-,	-0.19940628
-1.4242833	B-, A-, A-,	-0.29472053
-1.1375417	F, E-, A-,	-1.282044
-0.9611807	G, E-, A-,	-0.29472053
-1.0601703	Cm, Fm, A-,	-0.2568148
-0.8465844	A-, Fm, A-,	-0.5004363
-0.43112066	Dm, CmM7, A-,	-0.2568148
-0.53929615	Fmaj7/C, A-/C, A-,	-0.29472053
-0.77768207	E-, B-/D, A-,	-0.23871852
-1.7740948	B-, C, B-	-0.29472053
-1.6637808	A-, Cm, B-	-0.29472053
-1.3362675	B-, A-, B-	-0.29472053
-1.472679	Cm, A-, B-	-0.29472053
-1.0608445	G, E-, B-	-0.29472053
-1.2422379	Dm, C, C/E,	-0.30064887
-1.3246814	C, F, C/E,	-0.23506272
-1.6057464	G, F, C/E,	-0.29472053
-0.8780669	Dm7, F, C/E,	-0.4643843
-1.471333	Am, F, C/E,	-0.44589055
-0.577267	C/E, F, C/E,	-0.36670932
-0.4676512	F#m7, F, C/E,	-0.19940628
-1.7298838	Dm, G, C/E,	-0.29472053
-0.77533525	C/G, G, C/E,	-0.29472053
-1.1109601	Am, Dm7, C/E,	-0.29472053
-1.7341685	C, Am, C/E,	-0.29472053
-1.3973627	F, Am, C/E,	-0.42125502
-1.1550223	G, Am, C/E,	-0.19940628
-0.9127108	Am7, Dm, C/E,	-0.29472053
-1.2798529	Em, Dm, C/E,	-0.19940628
-1.0514576	F, C/E, C/E,	-0.29472053
-1.0943817	Am7, FM9, C/E,	-0.32434502
-2.230306	C, F, C/E	-0.29472053
-1.7543895	<s> C, F/A,	-0.29472053
-1.7366712	C, C, F/A,	-0.29472053
-1.8925755	G, C, F/A,	-0.72228503
-0.92740935	F/A, C, F/A,	-0.95273393
-1.4155687	F/C, C, F/A,	-0.2568148
-1.7453572	Dm, G, F/A,	-0.2568148
-0.929728	F/A, G, F/A,	-0.8014663
-1.1763992	C, B-, F/A,	-0.42558762
-0.86620957	Dm, B-, F/A,	-0.29472053
-1.3872995	Cm, B-, F/A,	-0.2568148
-0.45485988	Am/C, B-, F/A,	-0.2568148
-1.6331631	<s> Cm, F/A,	-0.29472053
-0.2542991	G/B, CmM7/B, F/A,	-0.19940628
-2.0637443	<s> C, E-,	-0.29472053
-1.8998039	F, C, E-,	-0.8014663
-1.9251773	G, C, E-,	-0.29472053
-1.2495985	B-, C, E-,	-0.22134623
-1.5825468	C, F, E-,	-0.29472053
-1.1748724	F, F, E-,	-0.29472053
-1.3054051	B-, F, E-,	-0.29472053
-0.8135696	Cm, F, E-,	-1.3850429
-0.7190588	A-, F, E-,	-0.29472053
-1.2043675	E-, F, E-,	-0.2568148
-0.9648061	CmM7, F, E-,	-0.2568148
-1.7930267	C, G, E-,	-0.29472053
-1.7547306	F, G, E-,	-0.22134623
-1.3970543	Am, G, E-,	-0.29472053
-0.6593854	Cm, Dm, E-,	-0.4643843
-1.2018892	Cm, B-, E-,	-0.6606789
-0.4764435	B, B-, E-,	-0.29472053
-0.91199565	<s> Cm, E-,	-0.2568148
-1.0343724	F, Cm, E-,	-0.29472053
-1.0644367	G, Cm, E-,	-0.5004363
-0.54327655	G7, Cm, E-,	-0.4643843
-0.9935509	B-, Cm, E-,	-0.26908606
-0.89360136	Cm, Cm, E-,	-0.2568148
-0.93272257	A-, Cm, E-,	-0.36759567
-0.76474893	E-, Cm, E-,	-0.7663899
-0.8253824	Fm, Cm, E-,	-0.29472053
-0.5990305	A-7, Cm, E-,	-0.29472053
-0.4159026	B-/D, Cm, E-,	-0.62537503
-0.8200637	F, A-, E-,	-0.5004363
-0.86060417	G, A-, E-,	-0.2568148
-0.80792063	B-, A-, E-,	-0.42558762
-0.6196116	Gsus4, A-, E-,	-0.29472053
-0.9406096	Cm, A-, E-,	-0.26908606
-0.7904919	B-/D, A-, E-,	-0.2568148
-1.1396292	A-, E-, E-,	-0.29472053
-0.93394583	E-, E-, E-,	-0.2568148
-0.7110188	Fm, E-, E-,	-0.26908606
-1.068562	Cm, Fm, E-,	-0.29472053
-0.45740286	G-, Fm, E-,	-0.19940628
-0.35482275	E-, Dm9, E-,	-0.29472053
-0.25043064	D-, Cm/E-, E-,	-0.62537503
-1.9488041	C, C, Gm7,	-0.2568148
-1.7602581	F, C, Gm7,	-1.1106479
-2.2367768	G, C, B7,	-0.2568148
-1.1319402	Dm7, Am, B7,	-0.29472053
-0.48982766	D7, Am, B7,	-0.29472053
-0.47168967	B7, Em, B7,	-0.2568148
-2.1864479	G, C, C7,	-0.29472053
-1.9283179	C, F, C7,	-0.2568148
-1.8256056	G, F, C7,	-0.30064887
-0.92500424	C7, F, C7,	-0.43746185
-1.8619583	C, G, C7,	-0.29472053
-1.0491745	C7, G, C7,	-0.29472053
-0.48771542	B7, G7, C7,	-0.2568148
-0.3966849	C7, F7, C7,	-0.32434502
-0.98783344	F, C7, C7,	-0.29472053
-0.9352934	G, C7, C7,	-0.29472053
-0.4509355	A-, G, F#,	-0.5004363
-0.95517355	E-, A-, F#,	-0.29472053
-1.4672953	F, C/E, F#o7/E-,	-0.29472053
-0.25715798	C/E, F#o7/E-, G/D,	-0.29472053
-0.7022525	Am, Dm, Bm7,	-0.2568148
-0.5033024	Bm7, C, G7/B,	-0.2568148
-1.7007838	<s> C, G/B,	-0.29472053
-1.3996507	C, C, G/B,	-0.2568148
-1.3809098	F, C, G/B,	-0.68720865
-0.9053114	Am7, C, G/B,	-0.19940628
-1.5657881	G, C, G/B,	-0.5004363
-1.3916296	Am, C, G/B,	-0.19940628
-0.47803834	G9, C, G/B,	-0.32434502
-0.90670425	C, Cm, G/B,	-0.29472053
-1.5215794	B-, Cm, G/B,	-0.29472053
-0.47855857	A, Cm, G/B,	-0.2568148
-0.67638826	A-7, Cm, G/B,	-0.2568148
-0.696641	Am7, FM9, G/B,	-0.32434502
-1.760699	G, C, Fm,	-0.2568148
-0.7485063	Cm, Am7, Fm,	-0.29472053
-1.7785364	C, G, Fm,	-0.29472053
-1.3721689	G, G, Fm,	-0.29472053
-0.86249644	Fm, G, Fm,	-0.62537503
-1.2256012	Em, Am, Fm,	-0.29472053
-1.0263233	G/B, Am, Fm,	-0.29472053
-1.1376572	Am, D, Fm,	-0.19940628
-1.1977539	B-, Cm, Fm,	-0.31825626
-1.2716457	E-, Cm, Fm,	-0.2568148
-0.9914954	Fm, Cm, Fm,	-0.29472053
-0.85040224	Gm, Cm, Fm,	-0.94150555
-0.30399284	Fm, A-, Fm,	-0.43918273
-0.82778	A-, E-, Fm,	-0.52237624
-0.96303666	E-, E-, Fm,	-0.29472053
-1.0731201	Cm, Gm, Fm,	-0.31825626
-0.43158755	Gm, Gm, Fm,	-0.29472053
-0.7545934	Cm, Gm/B-, Fm,	-0.29472053
-0.6703361	Cm, Fm/C, Fm,	-0.29472053
-0.24850926	A-, E-/G, Fm,	-0.2568148
-0.24850926	B-, G-, Fm,	-0.19940628
-1.9697713	<s> C, F/C,	-0.29472053
-1.6722468	C, C, F/C,	-0.31825626
-1.5867784	G, C, F/C,	-0.35417774
-1.4132036	Am, C, F/C,	-0.29472053
-1.4856143	Dm, C, F/C,	-0.29472053
-0.41869187	F/C, C, F/C,	-0.96532303
-1.0803028	F#, G, F/C,	-0.29472053
-1.2367609	E, Am, F/C,	-0.29472053
-1.3343633	C, F/C, F/C,	-0.32434502
-0.2171632	<s> Cmaj7, F/C,	-0.29472053
-0.2171632	C, Cmaj7, F/C,	-0.2568148
-0.2171632	Gsus4, Cmaj7, F/C,	-0.6765275
-0.35810024	F, Bo7/A-, F/C,	-0.29472053
-1.5313795	F/C, C, E/B,	-0.29472053
-0.36140263	A-, F#, B,	-0.29472053
-1.3470284	C, F/C, B,	-0.29472053
-0.25559625	C, E/B, B,	-0.29472053
-0.40549198	E/B, B, E-/B-,	-0.29472053
-1.0535693	G/B, Am, E/G#,	-0.29472053
-0.7785959	E/G#, Am, E/G#,	-0.29472053
-0.58639234	C, Am7, G11,	-0.8014663
-1.8345861	Dm, G, G11,	-0.29472053
-0.4499517	Am7, Dm7, G11,	-0.19940628
-0.7019073	Em7, Dm7, G11,	-0.19940628
-0.79019356	Dm7/A, Am, G11,	-0.29472053
-1.0052629	Dm7/A, C/G, G11,	-0.19940628
-0.4838107	Dm7, C/E, G11,	-0.29472053
-0.7737151	Am, Fm, G11,	-0.29472053
-1.7163883	<s> C, Gm,	-0.29472053
-1.3941472	F, C, Gm,	-0.7829829
-1.8143117	G, C, Gm,	-0.29472053
-1.5315204	B-, C, Gm,	-0.32434502
-0.48049355	Cm, C, Gm,	-0.2568148
-0.9230801	Gm, C, Gm,	-0.26908606
-1.7667071	C, F, Gm,	-0.6984675
-0.943927	Dm, Dm, Gm,	-0.29472053
-1.0134233	Cm, Dm, Gm,	-0.22134623
-0.71696496	Gm, Dm, Gm,	-0.31825626
-0.9615918	Gm/D, Dm, Gm,	-0.2568148
-1.3102123	G, Cm, Gm,	-0.2568148
-1.1499153	B-, Cm, Gm,	-0.32434502
-1.0332321	Cm, Cm, Gm,	-0.32434502
-0.9717724	Fm, Cm, Gm,	-0.29472053
-0.8387589	Gm, Cm, Gm,	-0.7079128
-0.6578244	B-, F/A, Gm,	-0.19940628
-0.7595528	Cm, Fm, Gm,	-0.9994975
-1.2396742	Cm, Gm, Gm,	-0.2568148
-0.25236055	<s> B-7, Gm,	-0.29472053
-1.1874948	Gsus4, C, Cmaj7,	-0.2568148
-1.6488538	B-, F, Cmaj7,	-0.19940628
-0.6717893	F/C, Gsus4, Cmaj7,	-0.6765275
-2.0313146	G, F, Bm/F#,	-0.5004363
-0.69490093	C/G, F, F#o7,	-0.19940628
-1.3790658	C7, F, F#o7,	-0.29472053
-0.75201416	E7, C/G, F#o7,	-0.29472053
-0.25559625	F, Bm/F#, F#o7,	-0.5004363
-1.0137023	F#o7, C/G, A7,	-0.19940628
-0.91471374	C, Gm, A7,	-0.32434502
-0.775586	Cm, Gm/B-, A7,	-0.2568148
-0.2549472	G7, B--7, A7,	-0.29472053
-0.9543604	Am7, F, G#o7,	-0.29472053
-0.9543604	A7, F, G#o7,	-0.2568148
-0.97190034	A7, F, Bo7/A-,	-0.29472053
-0.478576	G7/F, C/G, Bo7/A-,	-0.19940628
-2.2279096	F, C, D-,	-0.29472053
-1.2464671	E, Am, D-,	-0.29472053
-1.5092924	<s> Cm, D-,	-0.29472053
-1.6052098	B-, Cm, D-,	-0.29472053
-1.360562	E-, Cm, D-,	-0.5004363
-1.6377724	Cm, A-, D-,	-0.2568148
-0.4283376	Am, D-, C/G	-0.29472053
-1.6630563	B-, F, A-	-0.29472053
-1.4022716	A-, B-, A-	-0.29472053
-1.3084867	E-, B-, A-	-0.29472053
-1.3118545	Cm, F, CmM7,	-0.29472053
-0.7777549	A-, F, CmM7,	-0.29472053
-0.59711194	CmM7, F, CmM7,	-0.2568148
-1.6561236	C, Dm, CmM7,	-0.2568148
-1.065696	B-/D, A-, CmM7,	-0.29472053
-0.8346059	F, CmM7, CmM7,	-0.29472053
-0.49669054	CmM7, A-, B-m7,	-0.29472053
-0.92819643	Dm, Em, E-m,	-0.32434502
-2.264277	F, C, Em/G,	-0.5004363
-1.6839908	G, Am, Em/G,	-0.19940628
-1.3234174	Cm, F, Cm	-0.29472053
-1.4031727	E-, F, Cm	-0.29472053
-1.4112346	Cm, G, Cm	-0.29472053
-1.7063098	Cm, B-, Cm	-0.2568148
-1.6457585	A-, Cm, Cm	-0.29472053
-0.74412286	A-, A-, Cm	-0.29472053
-0.8921669	E-, A-, Cm	-0.29472053
-0.7584271	Fm, Gm, Cm	-0.29472053
-0.978403	Cm, A-7, Cm	-0.29472053
-1.8779505	Dm, G, F#o7/C,	-0.29472053
-1.4070852	Em, Dm, C#dim,	-0.2568148
-1.9205889	C, C, Dm7/F,	-0.29472053
-0.6994826	Dm7/F, C, Dm7/F,	-0.23506272
-1.7897149	C, F, Dm7/F,	-0.32434502
-1.664864	G, Am, Dm7/F,	-0.5004363
-0.93901694	C, Dm7/F, Dm7/F,	-0.29472053
-1.2577362	E, Am, D/F#,	-0.19940628
-1.426305	F/A, G, Gm/B-,	-0.29472053
-0.49265054	Am7, Cm, Gm/B-,	-0.2568148
-0.49265054	A7, Cm, Gm/B-,	-0.29472053
-1.7513634	Cm, B-, F/A	-0.29472053
-1.5894461	A-, Cm, Fmaj7/C,	-0.19940628
-0.78240764	A-/C, Cm, Fmaj7/C,	-0.26908606
-0.37155855	Cm, Fmaj7/C, A-/C,	-0.31825626
-0.6895397	Cm, Fmaj7/C, A-/C	-0.29472053
-1.0012474	Dm, Dm, Gm/D,	-0.19940628
-1.0790266	Cm, Dm, Gm/D,	-0.29472053
-0.58093363	Gm/D, Dm, Gm/D,	-0.2568148
-1.651694	Cm, E-, Gm/D,	-0.2568148
-0.86164504	Dm, Gm/D, Gm/D,	-0.2568148
-1.5119383	Cm, Cm, Fm/C,	-0.29472053
-1.3723376	E-, Cm, Fm/C,	-0.29472053
-1.311903	Gm, Cm, Fm/C,	-0.29472053
-0.79880136	Fm/C, Cm, Fm/C	-0.29472053
-2.208572	<s> C, Fmaj7/A,	-0.29472053
-2.0838294	F, C, Fmaj7/A,	-0.19940628
-1.2402091	Dm7, C, Fmaj7/A,	-0.2568148
-1.2004948	Cm, A-, E-/G,	-0.32434502
-2.264277	F, C, G+11,	-0.8983763
-2.2305949	<s> C, E7,	-0.29472053
-1.2115437	G7, C, E7,	-0.26908606
-1.9918894	F, G, E7,	-0.42125502
-0.86131585	C, Ddim, E7,	-0.2568148
-0.93692034	B7, Em, E-7,	-0.2568148
-1.4168272	D7, G7, B--7,	-0.29472053
-1.7094151	G7, C, F#dim	-0.29472053
-0.7743028	C/E, Dm7, B-/F,	-0.2568148
-0.13343303	<s> B-/F, Em7/G,	-0.29472053
-0.13343303	Dm7, B-/F, Em7/G,	-0.2568148
-0.49901983	Em7/G, Dm, G7/F,	-0.19940628
-0.47956422	Bo7/A-, C/G, F#m7,	-0.19940628
-1.4672953	F, C/E, Dm7	-0.29472053
-1.5246972	<s> Cm, Gm7/B-,	-0.29472053
-0.9350345	C, Cm, Gm7/B-,	-0.29472053
-1.4623815	G, Cm, Gm7/B-,	-0.2568148
-0.23784176	Cm, Gm7/B-, FmM7/A-,	-0.22134623
-1.2352221	Dm7, C, Ddim,	-0.29472053
-1.2911777	G11, C, Ddim,	-0.29472053
-0.49609843	Ddim, C, Ddim,	-0.30064887
-1.5301603	A-, B-, Ddim,	-0.2568148
-0.48445123	E7/G#, Am7, Dm7/A,	-0.19940628
-0.48982766	G11, Am, Dm7/A,	-0.29472053
-0.93759036	E7, Am, Dm7/A,	-0.2568148
-0.582103	Dm7/A, C/G, Dm7/A,	-0.30064887
-0.7292018	Dm7, G11, E7/G#,	-0.19940628
-1.0234697	Dm7/A, C/G, Dm7/A	-0.29472053
-0.5751513	FM9, C, FM9,	-0.26413587
-0.7683537	C, Am7, FM9,	-0.29472053
-0.5816662	C/E, Am7, FM9,	-0.2568148
-0.7739183	G/B, Am7, FM9,	-0.2568148
-0.34584755	FM9, Am7, FM9,	-0.31424397
-1.8476783	Dm, G, FM9,	-0.2568148
-0.8309943	G, C/E, FM9,	-0.29472053
-0.69975334	Dm, C/E, FM9,	-0.29472053
-0.88160163	C, FM9, FM9	-0.29472053
-2.1856835	F, C, A-7,	-0.29472053
-0.9937995	E-, F, A-7,	-0.19940628
-1.5293814	F, Am, A-7,	-0.29472053
-1.3335564	G7, Cm, A-7,	-0.31825626
-1.4818734	Cm, Cm, A-7,	-0.29472053
-1.1312549	A-7, Cm, A-7,	-0.29472053
-0.46444172	CmM7/B, F/A, A-7,	-0.19940628
-1.0539109	E-, E-, A-7,	-0.2568148
-1.6926948	G, Am, C7/B-,	-0.32434502
-1.849623	Am, F, G7	-0.29472053
-1.6560295	Cm, Cm, Gm	-0.29472053
-2.208572	<s> C, Am9,	-0.29472053
-2.095091	G, C, Am9,	-0.29472053
-0.49708736	A9, C, Am9,	-0.29472053
-1.7311733	Dm, C, Bm,	-0.19940628
-1.3274713	C, Em, A9,	-0.26908606
-0.25648054	C, Bm, A9,	-0.19940628
-1.066378	G, E-, Dm9,	-0.29472053
-0.6238483	Em, A9, Dm9,	-0.2568148
-1.3341223	G11, C, Em7,	-0.32434502
-0.3625312	A9, Dm9, Em7,	-0.2568148
-0.3890603	Cm, D-, Cm/E-,	-0.62537503
-1.7513634	Cm, B-, G-,	-0.19940628
-2.2813237	F, C, Gsus4	-0.29472053
-0.96438617	Am7, C, G9,	-0.19940628
-2.1471741	G, C, G9,	-0.29472053
-1.1737906	A, Dm, Am/C,	-0.2568148
-0.77580345	Em7, Dm7, G11	-0.29472053
-0.56244797	Cm, G/B, CmM7/B,	-0.19940628
-1.6785034	A-, Cm, B-/D,	-0.29472053
-0.7419541	F, E-, B-/D,	-0.32434502
-1.1294913	Cm, E-, B-/D,	-0.52249765
-1.1630718	A-, E-, B-/D,	-0.2568148

\4-grams:
-0.009989668	C, C, C </s>
-0.009145856	F, C, C </s>
-0.009989668	G, C, C </s>
-0.009145856	G11, C, C </s>
-0.0068159946	C, F, C </s>
-0.005444227	G, F, C </s>
-0.0073012323	B-, F, C </s>
-0.0073012323	D, F, C </s>
-0.0073012323	Gm, F, C </s>
-0.012978912	F, Am7, C </s>
-0.003394665	C, G, C </s>
-0.003394665	F, G, C </s>
-0.009145856	Dm, G, C </s>
-0.009145856	F/A, G, C </s>
-0.012978912	C, Dm7, C </s>
-0.012237791	C, Am, C </s>
-0.012237791	G, Am, C </s>
-0.012237791	E, Am, C </s>
-0.012042215	C, G7, C </s>
-0.009642651	F, G7, C </s>
-0.012237791	C, B-, C </s>
-0.012237791	A-, B-, C </s>
-0.012237791	E-, B-, C </s>
-0.012978912	E, D, C </s>
-0.012978912	F/C, Gsus4, C </s>
-0.012978912	G7, F7, C </s>
-0.012978912	G, Fm, C </s>
-0.014182144	C, F/C, C </s>
-0.012978912	C, Gm, C </s>
-0.012978912	C, Dm7/F, C </s>
-0.06016208	Am, F, Am </s>
-0.06016208	F, E, Am </s>
-0.013571231	F, C, F </s>
-0.029595084	G, C, F </s>
-0.035202913	C, G, F </s>
-0.030685958	F, G, F </s>
-0.028036539	Am, G, F </s>
-0.028036539	C7, G, F </s>
-0.029595084	C, Am, F </s>
-0.029595084	G, Am, F </s>
-0.040161725	C, Gm7, F </s>
-0.040161725	F, C7, F </s>
-0.017309627	C, C, G </s>
-0.018923195	F, C, G </s>
-0.018923195	G, C, G </s>
-0.017309627	Dm7, C, G </s>
-0.01703136	C, F, G </s>
-0.022860209	Am, F, G </s>
-0.024662627	G, G, G </s>
-0.018259278	C, Dm7, G </s>
-0.018259278	Fm, Dm7, G </s>
-0.018259278	C, Am, G </s>
-0.018259278	F, Am, G </s>
-0.017309627	C, Dm, G </s>
-0.017309627	D7, Dm, G </s>
-0.017309627	Em, Dm, G </s>
-0.017309627	C#dim, Dm, G </s>
-0.024662627	G, Cm, G </s>
-0.018259278	G, Fm, G </s>
-0.018259278	E-, Fm, G </s>
-0.05081056	B-, C, B- </s>
-0.05081056	A-, Cm, B- </s>
-0.037320063	B-, A-, B- </s>
-0.037320063	Cm, A-, B- </s>
-0.05081056	G, E-, B- </s>
-0.10708404	C, F, C/E </s>
-0.10708404	Am, D-, C/G </s>
-0.06016208	B-, F, A- </s>
-0.04406083	A-, B-, A- </s>
-0.04406083	E-, B-, A- </s>
-0.02093157	Cm, F, Cm </s>
-0.02093157	E-, F, Cm </s>
-0.02830305	Cm, G, Cm </s>
-0.030978564	Cm, B-, Cm </s>
-0.02830305	A-, Cm, Cm </s>
-0.02093157	A-, A-, Cm </s>
-0.02093157	E-, A-, Cm </s>
-0.02830305	Fm, Gm, Cm </s>
-0.02830305	Cm, A-7, Cm </s>
-0.10708404	Cm, B-, F/A </s>
-0.10708404	Cm, Fmaj7/C, A-/C </s>
-0.10708404	Fm/C, Cm, Fm/C </s>
-0.10708404	G7, C, F#dim </s>
-0.10708404	F, C/E, Dm7 </s>
-0.10708404	Dm7/A, C/G, Dm7/A </s>
-0.10708404	C, FM9, FM9 </s>
-0.10708404	Am, F, G7 </s>
-0.10708404	Cm, Cm, Gm </s>
-0.10708404	F, C, Gsus4 </s>
-0.10708404	Em7, Dm7, G11 </s>
-0.21524984	<s> C, C, C,
-0.5241023	C, C, C, C,
-0.8998528	F, C, C, C,
-0.84302413	G, C, C, C,
-0.21524984	Dm, C, C, C,
-0.70652634	B-, C, C, C,
-0.23537742	A-7, C, C, C,
-1.1854209	C, F, C, C,
-0.74493253	F, F, C, C,
-1.3001577	G, F, C, C,
-1.0509723	B-, F, C, C,
-0.5294028	Gsus4, F, C, C,
-1.3411274	Gm7, F, C, C,
-0.7723799	C, G, C, C,
-1.3131772	F, G, C, C,
-1.4505508	Dm, G, C, C,
-1.3041329	F/A, G, C, C,
-1.6043874	C, Am, C, C,
-0.7947461	C, G7, C, C,
-0.449374	B-, G7, C, C,
-0.6494522	C, Dm, C, C,
-0.89630145	F, Dm, C, C,
-0.6494522	Cmaj7, Dm, C, C,
-0.8076714	C, B-, C, C,
-1.1578563	A-, B-, C, C,
-0.6430524	E, D, C, C,
-1.110549	F/C, Gsus4, C, C,
-1.015365	G7, F7, C, C,
-0.2633592	Am, A-, C, C,
-0.16515583	Am, Fm, C, C,
-0.4355432	D, Fm, C, C,
-1.0371487	C, F/C, C, C,
-0.1657529	G, F#o7/C, C, C,
-0.21933451	C, A-7, C, C,
-0.17802449	<s> C, F, C,
-0.11636046	C, C, F, C,
-0.12561928	F, C, F, C,
-0.41942412	G, C, F, C,
-0.23253265	Am, C, F, C,
-0.66245806	G7, C, F, C,
-0.4480578	Dm, C, F, C,
-0.40878895	B-, C, F, C,
-0.20755887	D, C, F, C,
-0.20755887	Gsus4, C, F, C,
-0.19035779	A-, C, F, C,
-0.3637706	G/B, C, F, C,
-0.20755887	G11, C, F, C,
-0.05021642	G+11, C, F, C,
-0.20755887	FmM7/A-, C, F, C,
-0.15011802	C, F, F, C,
-0.34469876	G, F, F, C,
-0.25013664	Gm7, F, F, C,
-0.22474417	G/B, Am7, F, C,
-0.44971478	<s> G, F, C,
-0.11208034	C, G, F, C,
-0.60431045	F, G, F, C,
-0.5987991	G, G, F, C,
-0.28320733	Am, G, F, C,
-0.596549	Dm, G, F, C,
-0.29794672	D, G, F, C,
-0.12390856	Fmaj7/A, G, F, C,
-0.92956805	C, Am, F, C,
-0.42938542	F, Am, F, C,
-1.5632528	G, Am, F, C,
-0.5780715	B-, Am, F, C,
-0.032673825	G/B, Am, F, C,
-0.29700896	C, B-, F, C,
-0.7674023	F, B-, F, C,
-0.33347112	B-, B-, F, C,
-0.23396139	D, D, F, C,
-0.10117701	F, A, F, C,
-0.10929532	D, A, F, C,
-0.17104226	C, Gsus4, F, C,
-0.49083233	Am, C/G, F, C,
-0.18447067	G, C/E, F, C,
-0.06735791	Am, C/E, F, C,
-0.118142046	C, E-, F, C,
-0.4670675	F, E-, F, C,
-0.044666313	C, Gm7, F, C,
-0.25093633	<s> C7, F, C,
-0.9043817	F, C7, F, C,
-0.25093633	G7, C7, F, C,
-0.048210178	C, Gm, F, C,
-0.053236626	F, Gm, F, C,
-0.14185858	Am, C7/B-, F, C,
-0.11607151	C, F, Am7, C,
-0.329209	C, G/B, Am7, C,
-0.24380156	<s> C, G, C,
-0.07445407	C, C, G, C,
-0.289184	F, C, G, C,
-0.117865786	G, C, G, C,
-0.41927707	B-, C, G, C,
-0.07090988	Gsus4, C, G, C,
-0.50586885	A-, C, G, C,
-0.19577526	C/E, C, G, C,
-0.40806356	Fm, C, G, C,
-0.26116392	G+11, C, G, C,
-0.32573286	<s> F, G, C,
-0.14547181	C, F, G, C,
-0.29392818	F, F, G, C,
-0.49634686	G, F, G, C,
-0.16269593	Am, F, G, C,
-0.12842657	E, F, G, C,
-0.27282727	Dm, F, G, C,
-0.07572045	B-, F, G, C,
-0.23449016	D, F, G, C,
-0.373565	Em, F, G, C,
-0.24159174	Em/G, F, G, C,
-0.45534086	C, G, G, C,
-0.38534802	F, G, G, C,
-0.57570446	G, G, G, C,
-0.18583217	Em, G, G, C,
-0.07544451	C, Dm7, G, C,
-0.20244622	Am, Dm7, G, C,
-1.1031448	C, Am, G, C,
-0.77164394	F, Am, G, C,
-0.44401306	Em, Am, G, C,
-0.11921809	C, Dm, G, C,
-0.2938289	F, Dm, G, C,
-0.5188518	G, Dm, G, C,
-0.27277353	Am, Dm, G, C,
-0.14865814	D7, Dm, G, C,
-0.11754942	Am/E, Dm, G, C,
-0.14865814	Dm, Dm, G, C,
-0.33367386	A, Dm, G, C,
-0.16513444	Em, Dm, G, C,
-0.3367769	E-m, Dm, G, C,
-0.14865814	C#dim, Dm, G, C,
-0.09818881	G, B-, G, C,
-0.090984195	Dm, B-, G, C,
-0.157445	C, D, G, C,
-0.19060528	A, D, G, C,
-0.19060528	Em, D, G, C,
-0.18746595	G, Em, G, C,
-0.15247037	Am, F7, G, C,
-0.49543017	C, C/E, G, C,
-0.5842827	F, C/E, G, C,
-0.4362984	C, F/A, G, C,
-0.07830275	G, F/A, G, C,
-0.18746595	B-, E-, G, C,
-0.19685759	F7, C7, G, C,
-0.6703698	G, F#, G, C,
-0.15247037	Dm, Bm7, G, C,
-0.8973621	G, Fm, G, C,
-0.13746555	B, E-/B-, G, C,
-0.13746555	A-, B-m7, G, C,
-0.48081803	Gm7/B-, FmM7/A-, G, C,
-0.77800936	G, C, Dm7, C,
-0.2953303	Dm7, C, Dm7, C,
-0.8341929	Am, C, Dm7, C,
-0.21228991	C, F, Dm7, C,
-0.8440187	C, C, Am, C,
-1.0886506	F, C, Am, C,
-1.527483	G, C, Am, C,
-0.27983725	Am, C, Am, C,
-0.35663483	D-, C, Am, C,
-0.28331426	Dm7, F, Am, C,
-1.0078838	Am, F, Am, C,
-1.0900965	C, G, Am, C,
-1.3711725	F, G, Am, C,
-0.82175124	Am, G, Am, C,
-0.3174114	C, Dm7, Am, C,
-0.74029756	F, E, Am, C,
-0.98647	C, G/B, Am, C,
-0.13743195	C, C, G7, C,
-0.15257883	F, C, G7, C,
-0.12690076	G, C, G7, C,
-0.4596905	F7, C, G7, C,
-0.17903766	Dm7/F, C, G7, C,
-0.18111897	C, F, G7, C,
-0.17314634	Am, F, G7, C,
-0.18111897	G7, F, G7, C,
-0.32037663	C, Am, G7, C,
-0.2878263	C, D7, G7, C,
-0.11890867	Am7, D7, G7, C,
-0.11890867	Am, D7, G7, C,
-0.40785214	C/G, D7, G7, C,
-0.11890867	A7, D7, G7, C,
-0.13156615	E-7, D7, G7, C,
-0.12949048	D7, G7, G7, C,
-0.16818939	C, B-, G7, C,
-0.086783774	Am/E, Dm7, Am/E, C,
-1.1213653	F, C, Dm, C,
-0.602883	B-, C, Dm, C,
-0.18994895	G, F, Dm, C,
-0.21046157	Dm, F, Dm, C,
-0.28259102	D/F#, F, Dm, C,
-0.52194154	C, Am, Dm, C,
-0.68965364	F, Am/E, Dm, C,
-0.24305828	F, Em, Dm, C,
-0.6007604	Dm, Em, Dm, C,
-0.2989775	A9, Em, Dm, C,
-0.14450578	F, C/E, Dm, C,
-0.18963401	C, Gm, Dm, C,
-0.20276311	F, Cmaj7, Dm, C,
-0.22714175	C, C, B-, C,
-0.35806742	F, C, B-, C,
-0.42461884	G, C, B-, C,
-0.20492376	Am, C, B-, C,
-0.30521384	B-, C, B-, C,
-0.22948848	E-, C, B-, C,
-0.20492376	A-7, C, B-, C,
-0.31220537	C, F, B-, C,
-0.3631574	Am, F, B-, C,
-0.39072803	B-, F, B-, C,
-0.48893335	F, G, B-, C,
-0.57646394	C, B-, B-, C,
-0.3287766	Am, A-, B-, C,
-0.33074272	B-, A-, B-, C,
-0.41078395	C, E-, B-, C,
-0.3131827	G, E-, B-, C,
-0.49425665	C, F, D, C,
-0.4317459	C, G, D, C,
-0.37406352	F, E, D, C,
-0.16300093	C, D7, Gsus4, C,
-0.62690604	C, F/C, Gsus4, C,
-0.16469574	Cmaj7, F/C, Gsus4, C,
-0.30120468	G7, C, Em, C,
-0.24203953	G, Am, Em, C,
-0.065866746	<s> C, F7, C,
-0.065866746	C, C, F7, C,
-0.065866746	G, C, F7, C,
-0.061202105	G7, C, F7, C,
-0.03982865	F7, C, F7, C,
-0.10516578	C, G7, F7, C,
-0.12041508	Cm, G7, F7, C,
-0.49428278	C, F, Cm, C,
-0.17956394	C, F, A-, C,
-0.36432204	B-, F, A-, C,
-0.26266018	Dm, Am, A-, C,
-1.3022529	Cm, B-, A-, C,
-0.72409564	A-, B-, A-, C,
-0.573225	Dm, C, C/E, C,
-1.1311828	Am, F, C/E, C,
-0.46863446	Dm, G, C/E, C,
-0.45611694	C, C, F/A, C,
-0.10023387	G, C, F/A, C,
-0.3041576	F/A, C, F/A, C,
-0.24286425	C, B-, F/A, C,
-0.31501052	E-, F, E-, C,
-0.10219576	C/E, F#o7/E-, G/D, C,
-0.4033231	Am, Dm, Bm7, C,
-0.49345946	<s> C, G/B, C,
-1.1255606	F, C, G/B, C,
-0.22378825	G/B, Am, Fm, C,
-0.22388378	Am, D, Fm, C,
-0.12726523	<s> C, F/C, C,
-0.17989355	C, C, F/C, C,
-0.5231751	G, C, F/C, C,
-0.12726523	Am, C, F/C, C,
-0.052742824	F/C, C, F/C, C,
-0.091772065	F#, G, F/C, C,
-0.091772065	E, Am, F/C, C,
-0.08508562	C, F/C, F/C, C,
-0.091772065	F, Bo7/A-, F/C, C,
-0.018767614	C, Am7, G11, C,
-0.06340467	Dm, G, G11, C,
-0.13540904	Em7, Dm7, G11, C,
-0.06340467	Dm7/A, Am, G11, C,
-0.08049008	Dm7/A, C/G, G11, C,
-0.06340467	Am, Fm, G11, C,
-0.40644246	<s> C, Gm, C,
-0.19478022	G, C, Gm, C,
-0.21779661	Cm, C, Gm, C,
-0.34449258	Gm, C, Gm, C,
-1.0606629	C, F, Gm, C,
-0.21078105	C7, F, F#o7, C,
-0.073851414	Am7, F, G#o7, C,
-0.081256256	A7, F, G#o7, C,
-0.11226806	F, C, D-, C,
-0.12411262	Cm, A-, D-, C,
-0.393788	CmM7, A-, B-m7, C,
-0.10219576	Dm, G, F#o7/C, C,
-0.11766898	C, C, Dm7/F, C,
-0.275201	Dm7/F, C, Dm7/F, C,
-0.08049008	C, F, Dm7/F, C,
-0.051970124	G, Am, Dm7/F, C,
-0.08677811	C, Dm7/F, Dm7/F, C,
-0.4596949	A7, Cm, Gm/B-, C,
-0.013639207	F, C, G+11, C,
-0.5091126	Cm, Gm7/B-, FmM7/A-, C,
-0.1747841	Dm7, C, Ddim, C,
-0.1747841	G11, C, Ddim, C,
-0.28036743	Ddim, C, Ddim, C,
-0.49500975	FM9, C, FM9, C,
-0.15154774	Dm, G, FM9, C,
-0.09763208	G, C/E, FM9, C,
-0.09763208	Dm, C/E, FM9, C,
-0.14804141	F, C, A-7, C,
-0.14804141	F, Am, A-7, C,
-0.50895697	C, Em, A9, C,
-0.09407136	Am7, C, G9, C,
-0.073851414	G, C, G9, C,
-0.3849306	C, C, C, F,
-0.32945785	F, C, C, F,
-0.4403571	G, C, C, F,
-0.8518403	G7, C, C, F,
-0.5020523	<s> F, C, F,
-0.2914012	C, F, C, F,
-0.2372133	F, F, C, F,
-0.6260535	G, F, C, F,
-1.0598491	Am, F, C, F,
-0.7391953	B-, F, C, F,
-0.7544662	A, F, C, F,
-1.0554962	C/E, F, C, F,
-0.57981443	Gm7, F, C, F,
-0.4399269	Gm, F, C, F,
-0.082274616	F, Am7, C, F,
-0.59957784	<s> G, C, F,
-0.5315848	C, G, C, F,
-0.21001711	F, G, C, F,
-0.44716108	G, G, C, F,
-0.35719964	Dm, G, C, F,
-0.6787573	B-, G, C, F,
-0.7371239	D, G, C, F,
-0.22956857	Em, G, C, F,
-0.25807402	F7, G, C, F,
-0.6239272	C/E, G, C, F,
-0.21006602	C7, G, C, F,
-0.22956857	FmM7/A-, G, C, F,
-0.7910323	C, Dm7, C, F,
-0.7659179	G, Am, C, F,
-0.685204	G/B, Am, C, F,
-0.44677794	C, G7, C, F,
-0.37503588	F, G7, C, F,
-0.26182613	Am, G7, C, F,
-0.5813013	B-, G7, C, F,
-0.48008868	Dm7, Am/E, C, F,
-0.9191968	Em, Dm, C, F,
-0.44168374	Cmaj7, Dm, C, F,
-0.60329866	C, B-, C, F,
-1.013607	F, B-, C, F,
-0.2605639	G, B-, C, F,
-0.6294991	E, D, C, F,
-0.2493769	<s> Gsus4, C, F,
-0.62180275	F, A-, C, F,
-0.58695704	B-, A-, C, F,
-0.26251692	C, C/E, C, F,
-0.21194184	C, G/B, C, F,
-1.1625556	C, F/C, C, F,
-0.25715166	G, G11, C, F,
-0.3671357	C, Gm, C, F,
-0.16136788	F, Gm, C, F,
-0.16136788	<s> G+11, C, F,
-0.112517275	C, G+11, C, F,
-0.16118981	Gm7/B-, FmM7/A-, C, F,
-1.1592764	C, C, F, F,
-1.4857041	F, C, F, F,
-1.5000923	G, C, F, F,
-1.8103884	C, G, F, F,
-1.548167	F, G, F, F,
-1.5049353	Am, G, F, F,
-0.9510643	Dm, G, F, F,
-0.8635136	Cm, G, F, F,
-1.3468435	C, Gm7, F, F,
-0.6606336	F, CmM7, F, F,
-0.21611147	F#o7, C/G, Am7, F,
-0.97889227	C, G/B, Am7, F,
-0.75401324	<s> C, G, F,
-1.3560278	C, C, G, F,
-0.43880245	F, C, G, F,
-1.0025072	G, C, G, F,
-0.42553774	Am, C, G, F,
-0.116657615	Dm, C, G, F,
-0.43889162	B-, C, G, F,
-0.27664575	D, C, G, F,
-0.27664575	G#o7, C, G, F,
-0.116657615	Dm7/F, C, G, F,
-0.8747752	C, F, G, F,
-0.3172504	G, F, G, F,
-1.3886259	Am, F, G, F,
-0.4432884	Em, F, G, F,
-0.34350133	C7, F, G, F,
-0.5851426	C, G, G, F,
-0.23877087	Am, G, G, F,
-0.17990753	C, Am, G, F,
-0.24769534	F, Am, G, F,
-0.09797776	G, Am, G, F,
-0.27674997	D, Am, G, F,
-1.3370858	C, Dm, G, F,
-0.90621066	G, Dm, G, F,
-0.92993766	Am/E, Dm, G, F,
-0.52738005	E-m, Dm, G, F,
-0.3328258	F, D, G, F,
-0.38583666	F, Cm, G, F,
-0.3456214	C, C/E, G, F,
-0.23745307	F, C/E, G, F,
-0.1934518	C/E, C/E, G, F,
-0.45995173	B-, F/A, G, F,
-0.26649874	F, C7, G, F,
-0.7451608	G, F#, G, F,
-0.09028315	C, Fmaj7/A, G, F,
-0.4715604	Am, C, Dm7, F,
-0.1951125	F, C/E, Dm7, F,
-0.31516385	<s> C, Am, F,
-0.5277741	C, C, Am, F,
-0.7221599	F, C, Am, F,
-0.07002204	G, C, Am, F,
-0.65321803	Am, C, Am, F,
-0.2515279	G7, C, Am, F,
-0.26620924	Am/E, C, Am, F,
-0.25077638	Dm, C, Am, F,
-0.2229479	Gsus4, C, Am, F,
-0.19925383	C/E, C, Am, F,
-0.19925383	Dm7/F, C, Am, F,
-0.511019	C, F, Am, F,
-0.5637325	G, F, Am, F,
-0.20675957	Am, F, Am, F,
-0.60539716	C, G, Am, F,
-0.14325052	F, G, Am, F,
-0.49588484	Dm, G, Am, F,
-0.23729868	F, Am, Am, F,
-0.18967907	C, Em/B, Am, F,
-0.20498647	F, B-, Am, F,
-0.19997036	C, Em, Am, F,
-0.67307955	Am, Cm, Am, F,
-0.22554627	Cm, Cm, Am, F,
-0.13202073	C, G/B, Am, F,
-0.1578279	G, E7, Am, F,
-0.27479443	F, C, E, F,
-0.30691972	Em, F, G7, F,
-0.582968	Dm, C, Em/B, F,
-0.21517913	B-, C, Em/B, F,
-0.48191315	C, C, Dm, F,
-0.91204476	F, C, Dm, F,
-1.0689166	G, C, Dm, F,
-0.42619184	Dm, C, Dm, F,
-1.043156	G, F, Dm, F,
-0.24601129	Em, Dm, Dm, F,
-0.5283665	B-, A, Dm, F,
-1.1152889	F, Em, Dm, F,
-0.18191068	Dm9, Em7, Dm, F,
-0.5889252	<s> C, B-, F,
-0.32453728	F, C, B-, F,
-0.51764363	G, C, B-, F,
-0.12500542	Dm, C, B-, F,
-0.30123007	A-, C, B-, F,
-0.22305003	B-m7, C, B-, F,
-0.5507934	C, F, B-, F,
-0.9021625	Am, F, B-, F,
-0.57702386	B-, F, B-, F,
-0.17960593	C, G, B-, F,
-0.2187396	Am, G, B-, F,
-0.11114939	Cm, G, B-, F,
-0.21160877	Am7, E, B-, F,
-0.66068697	C, B-, B-, F,
-0.24002098	B-, B-, B-, F,
-0.42505348	B-, E-, B-, F,
-0.23648214	Cm, E-, B-, F,
-0.5606009	C, F, D, F,
-0.7098256	C, Am, D, F,
-0.20589732	F, Am, D, F,
-0.23061286	G, Am, D, F,
-0.19407125	Am, D, D, F,
-0.39668646	D, D, D, F,
-0.13028595	A7, F, A, F,
-0.14114648	G, D, A, F,
-0.12203004	C, C, Gsus4, F,
-0.12203004	F, C, Gsus4, F,
-0.19054675	<s> C, Em, F,
-0.19054675	C, C, Em, F,
-0.3381685	F, C, Em, F,
-0.21292914	Em, C, Em, F,
-0.43372998	F, G, Em, F,
-0.24546543	C, Dm, Em, F,
-0.052975018	C, Am, C/G, F,
-0.09743069	Em/B, Am, C/G, F,
-0.06246827	Em/G, Am, C/G, F,
-0.11620622	E7, Am, C/G, F,
-0.43128043	C, E7, C/G, F,
-0.28880537	G, F, Cm, F,
-0.35102573	Am, F, Cm, F,
-0.23515876	Cm, F, Cm, F,
-0.4993214	<s> G7, Cm, F,
-0.28132096	C, G7, Cm, F,
-1.2904325	A-, B-, Cm, F,
-0.69482356	A-7, B-, Cm, F,
-0.0177442	E-, A-, Cm, F,
-0.77237785	E-, B-/D, A-, F,
-0.49847564	C, F, C/E, F,
-0.317251	C/E, F, C/E, F,
-0.4513201	Dm, G, C/E, F,
-0.14128056	C, Am, C/E, F,
-0.101005584	F, Am, C/E, F,
-0.18432139	G, Am, C/E, F,
-0.42004386	F, C/E, C/E, F,
-0.1952498	<s> C, E-, F,
-0.051950254	F, C, E-, F,
-0.53001237	B-, C, E-, F,
-0.21942739	C, F, E-, F,
-0.21942739	B-, F, E-, F,
-0.81246805	Cm, Dm, E-, F,
-0.1226236	G, Cm, E-, F,
-0.1789232	G7, Cm, E-, F,
-0.54769677	B-, Cm, E-, F,
-1.124352	E-, Cm, E-, F,
-0.55828923	A-7, Cm, E-, F,
-0.1576937	E-, Dm9, E-, F,
-0.15882625	C, C, Gm7, F,
-0.026308117	F, C, Gm7, F,
-0.11488024	G, C, C7, F,
-0.18464077	C, F, C7, F,
-0.26912427	G, F, C7, F,
-0.2212856	C7, F, C7, F,
-0.58597076	C, G, C7, F,
-0.1270429	B7, G7, C7, F,
-0.08267456	F, C7, C7, F,
-0.08267456	G, C7, C7, F,
-0.094496004	F, C, Gm, F,
-0.09297363	C, F, Gm, F,
-0.2075112	B-, F/A, Gm, F,
-0.14719023	F#o7, C/G, A7, F,
-0.10545929	C, Gm, A7, F,
-0.116832	A-, F, CmM7, F,
-0.12923378	CmM7, F, CmM7, F,
-0.10812204	B-/D, A-, CmM7, F,
-0.10812204	F, CmM7, CmM7, F,
-0.18157403	G, Am, Em/G, F,
-0.1342195	E, Am, D/F#, F,
-0.1342195	Bo7/A-, C/G, F#m7, F,
-0.09658057	G, Am, C7/B-, F,
-0.09769808	<s> C, Am9, F,
-0.09769808	G, C, Am9, F,
-0.09769808	A9, C, Am9, F,
-0.15160272	A-, Cm, B-/D, F,
-0.25269118	Am7, G11, C, Am7,
-0.3292984	Dm7, G11, C, Am7,
-0.3292984	C/G, G11, C, Am7,
-0.5374667	C, FM9, C, Am7,
-1.7580136	<s> C, F, Am7,
-0.10070299	Am7, C, F, Am7,
-0.6067555	Bm/F#, F#o7, C/G, Am7,
-0.77310246	Fm, B-, Cm, Am7,
-0.16605416	Am7, FM9, C/E, Am7,
-0.39357188	<s> C, G/B, Am7,
-0.96449393	F, C, G/B, Am7,
-0.24827142	Am7, C, G/B, Am7,
-0.17170237	G9, C, G/B, Am7,
-0.1283875	Am7, FM9, G/B, Am7,
-0.14141655	Dm7, G11, E7/G#, Am7,
-0.51065195	FM9, C, FM9, Am7,
-0.22007099	C/E, Am7, FM9, Am7,
-0.65988874	FM9, Am7, FM9, Am7,
-1.5682526	C, C, C, C
-2.6855888	C, F, C, C
-2.3438315	C, G, C, C
-0.28224277	Fm, G11, C, C
-1.9238454	C, C, F, C
-2.4481344	F, C, F, C
-2.2628784	G, C, F, C
-1.5893543	C, G, F, C
-1.8646251	F, G, F, C
-1.5284795	C, B-, F, C
-0.9127459	D, D, F, C
-1.4356246	C, Gm, F, C
-1.0348263	C, F, Am7, C
-1.5882837	F, C, G, C
-1.7210631	G, C, G, C
-1.4667666	C, F, G, C
-1.9269458	Am, F, G, C
-0.85692453	Am, Dm, G, C
-1.4604962	C, F/A, G, C
-1.0553664	Dm7, C, Dm7, C
-2.0093393	G, C, Am, C
-1.481175	C, G, Am, C
-0.7964334	F, E, Am, C
-0.8629732	F, C, G7, C
-0.9955928	F7, C, G7, C
-0.90965104	Am, F, G7, C
-1.6823134	B-, C, B-, C
-1.4128124	B-, A-, B-, C
-0.79955167	C, E-, B-, C
-0.63793993	F, E, D, C
-1.0643193	C, F/C, Gsus4, C
-0.9686874	C, G7, F7, C
-0.2568538	C, G, Fm, C
-0.8210568	C, C, F/C, C
-0.2611754	Dm, C, F/C, C
-0.7147466	Gm, C, Gm, C
-0.77308464	Dm7/F, C, Dm7/F, C
-1.396177	C, C, C, G,
-0.64554155	F, C, C, G,
-0.45818973	G, C, C, G,
-0.25666407	Am, C, C, G,
-0.25666407	Gsus4, C, C, G,
-0.59151167	C, F, C, G,
-1.3325918	F, F, C, G,
-0.46634015	G, F, C, G,
-0.8961749	Am, F, C, G,
-0.31955928	A, F, C, G,
-0.118034385	C/G, F, C, G,
-0.385764	C7, F, C, G,
-0.5372109	C7/B-, F, C, G,
-0.63865745	<s> G, C, G,
-0.39524373	C, G, C, G,
-1.0269563	F, G, C, G,
-0.7702614	G, G, C, G,
-0.77521783	Dm7, G, C, G,
-0.66975707	Am, G, C, G,
-1.0863175	Dm, G, C, G,
-0.24486321	E-, G, C, G,
-0.24486321	F#, G, C, G,
-0.24486321	E-/B-, G, C, G,
-1.5350227	C, Am, C, G,
-0.78946984	G, Am, C, G,
-0.39759165	F, Dm, C, G,
-1.4366796	C, B-, C, G,
-0.6935306	E-, B-, C, G,
-0.35271412	F, D, C, G,
-0.20266362	F/C, Gsus4, C, G,
-0.20249945	Am, Em, C, G,
-0.48162884	F, A-, C, G,
-0.39544407	B-, A-, C, G,
-0.2406234	G, C/E, C, G,
-0.421028	D, Fm, C, G,
-0.22054328	F, G#o7, C, G,
-0.1426026	Am, Dm7/F, C, G,
-0.9508034	C, G+11, C, G,
-0.75473934	<s> C, F, G,
-1.2735062	C, C, F, G,
-0.9684481	F, C, F, G,
-0.297639	G, C, F, G,
-0.27594256	Dm7, C, F, G,
-0.64481866	G7, C, F, G,
-0.55305237	B-, C, F, G,
-0.6104335	G/B, C, F, G,
-0.692486	Gm, C, F, G,
-0.8325981	C, F, F, G,
-0.77098316	G, F, F, G,
-0.44194356	<s> G, F, G,
-1.3308636	C, G, F, G,
-0.27366486	F, G, F, G,
-0.384641	G, G, F, G,
-0.8282698	Am, G, F, G,
-0.41456005	Dm, G, F, G,
-0.68196744	C/E, G, F, G,
-0.29111534	F/A, G, F, G,
-0.24258259	C7, G, F, G,
-0.1993432	C, Am, F, G,
-0.53364617	F, Am, F, G,
-0.04067022	G, Am, F, G,
-0.22713572	Cm, Am, F, G,
-0.11420692	C, E, F, G,
-0.076705106	C, Dm, F, G,
-0.21466643	Dm, Dm, F, G,
-0.94350725	C, B-, F, G,
-0.6429064	G, B-, F, G,
-0.20846656	F, D, F, G,
-0.13139075	Am, D, F, G,
-0.2842086	C, Em, F, G,
-0.17783494	G, Em, F, G,
-0.07413352	Dm, Em, F, G,
-0.44749844	B-, Cm, F, G,
-0.2644745	Dm, E-, F, G,
-1.053123	F, C7, F, G,
-0.23081744	G, C7, F, G,
-0.46674296	C7, C7, F, G,
-0.21140264	Am, Em/G, F, G,
-1.8227413	F, C, G, G,
-1.8894496	G, C, G, G,
-2.1004221	C, F, G, G,
-1.6612443	G, F, G, G,
-0.63770026	Dm, F, G, G,
-0.82228607	C, G, G, G,
-0.48819304	F, G, G, G,
-0.290092	G, G, G, G,
-1.5565006	C, Am, G, G,
-0.22683361	B, Em, G, G,
-1.0471028	G, Fm, G, G,
-0.258143	C, C, Dm7, G,
-0.34067145	G, C, Dm7, G,
-0.07156398	Dm7, G, Dm7, G,
-0.39964908	C, Am, Dm7, G,
-0.14464565	Dm7, Cm, Dm7, G,
-0.4076643	E-/G, Fm, Dm7, G,
-0.8490609	<s> C, Am, G,
-0.66803795	C, C, Am, G,
-0.31913075	F, C, Am, G,
-1.5605723	G, C, Am, G,
-0.25581506	D, C, Am, G,
-0.25581506	F/C, C, Am, G,
-0.92758924	C, F, Am, G,
-0.32554126	G, F, Am, G,
-0.45892686	B-, F, Am, G,
-1.175636	F, G, Am, G,
-0.62395644	Am, G, Am, G,
-0.22826628	F, D, Am, G,
-0.30807778	F, Em, Am, G,
-0.35150748	<s> C, Dm, G,
-0.35150748	C, C, Dm, G,
-0.15078911	F, C, Dm, G,
-0.39133865	G, C, Dm, G,
-0.44544363	Dm, C, Dm, G,
-0.34081936	B-, C, Dm, G,
-0.1782645	F/A, C, Dm, G,
-0.079466544	C, F, Dm, G,
-0.19248943	F, F, Dm, G,
-0.8242322	G, F, Dm, G,
-0.23085144	G/B, Am7, Dm, G,
-0.4423395	F, G, Dm, G,
-0.07228646	Dm, G, Dm, G,
-0.20696627	Am, Am, Dm, G,
-0.20696627	E, Am, Dm, G,
-0.39553154	F, D7, Dm, G,
-0.16454738	F, Am/E, Dm, G,
-0.21542251	G, Dm, Dm, G,
-0.4667052	B-, A, Dm, G,
-0.9929209	F, Em, Dm, G,
-0.25001758	Dm, C/E, Dm, G,
-0.1274026	Em, E-m, Dm, G,
-0.39553154	Dm, C#dim, Dm, G,
-0.5353061	F, G, B-, G,
-0.17453513	<s> Dm, B-, G,
-0.23073953	B-, Dm, B-, G,
-0.12631954	F, C, D, G,
-0.4796919	C/G, F, D, G,
-0.15171239	E, A, D, G,
-0.15171239	F, Em, D, G,
-0.13679445	F, C/E, D, G,
-0.4469224	F, G, Em, G,
-0.16562916	F/C, B, Em, G,
-0.18333803	Em, Am, F7, G,
-0.15898614	Am7, Dm, C/G, G,
-0.15898614	C, F/A, C/G, G,
-0.2593359	F, F, Cm, G,
-0.17781678	B-, F, Cm, G,
-0.7682443	Cm, F, Cm, G,
-0.2036712	Cm, G, Cm, G,
-0.36489528	Fm, G, Cm, G,
-0.41174483	F, A-, Cm, G,
-0.17289957	G, C, A-, G,
-0.21475135	D, G, A-, G,
-0.28891358	F#, G, A-, G,
-0.17289957	Am, D, A-, G,
-0.33326796	Dm, C, C/E, G,
-0.4087046	Am, F, C/E, G,
-0.7740481	C/E, F, C/E, G,
-0.4420438	F, C/E, C/E, G,
-0.30024976	<s> C, F/A, G,
-0.30024976	C, C, F/A, G,
-0.8229372	G, C, F/A, G,
-0.32717663	F/A, C, F/A, G,
-0.14014862	F/C, C, F/A, G,
-0.093257815	Dm, G, F/A, G,
-0.02463186	F/A, G, F/A, G,
-0.6013853	C, B-, F/A, G,
-0.18634361	Cm, B-, F/A, G,
-0.11773433	<s> Cm, F/A, G,
-0.24892803	B, B-, E-, G,
-0.27497065	F, Cm, E-, G,
-0.32254267	A-, Cm, E-, G,
-0.8891103	C7, F, C7, G,
-0.5809136	C, G, C7, G,
-0.19929236	C7, G, C7, G,
-0.14495419	C7, F7, C7, G,
-0.08232883	A-, G, F#, G,
-0.41148368	Am, Dm, Bm7, G,
-0.16899201	G, C, Fm, G,
-0.09007418	Fm, G, Fm, G,
-1.3931141	Gm, Cm, Fm, G,
-0.15429835	A-, E-, Fm, G,
-0.5962941	Cm, Gm, Fm, G,
-0.38746306	Gm, Gm, Fm, G,
-0.10591517	E/B, B, E-/B-, G,
-0.40109694	CmM7, A-, B-m7, G,
-0.09921404	<s> C, Fmaj7/A, G,
-0.1274678	F, C, Fmaj7/A, G,
-0.10950056	Dm7, C, Fmaj7/A, G,
-0.3423272	Cm, Gm7/B-, FmM7/A-, G,
-0.79753846	G7, C, C, Dm7,
-0.9548391	<s> G, C, Dm7,
-2.2221043	F, G, C, Dm7,
-0.62266445	Dm7, G, C, Dm7,
-1.4384176	Dm, G, C, Dm7,
-0.28410158	B-m7, G, C, Dm7,
-0.4886476	C, Dm7, C, Dm7,
-0.31879067	F, Dm7, C, Dm7,
-0.46115524	F, Am, C, Dm7,
-0.24520722	Dm7, Am, C, Dm7,
-0.26911575	E, Am, C, Dm7,
-1.1013594	D7, G7, C, Dm7,
-2.373448	F, C, F, Dm7,
-0.9794052	G11, C, Am7, Dm7,
-0.037409548	G, Dm7, G, Dm7,
-0.2201269	Cm, Dm7, G, Dm7,
-0.2201269	Fm, Dm7, G, Dm7,
-1.7419631	G, C, Am, Dm7,
-1.1548072	G7, C, Am, Dm7,
-0.84985554	C, Dm7, Am, Dm7,
-0.29729038	Dm7, Am, Am, Dm7,
-0.46975785	C/G, Dm7/A, Am, Dm7,
-0.48835415	C, F, Am/E, Dm7,
-0.21775429	F, F, Am/E, Dm7,
-0.24433824	G, F, Am/E, Dm7,
-0.48292404	G, Dm7, Cm, Dm7,
-0.20944554	Dm7, F, C/E, Dm7,
-0.37132773	F#m7, F, C/E, Dm7,
-0.49835706	A-, E-/G, Fm, Dm7,
-0.13343799	G11, C, Em7, Dm7,
-1.4070797	C, C, C, Am,
-1.5911962	G, C, C, Am,
-0.31352133	Fm, C, C, Am,
-0.8120066	<s> F, C, Am,
-2.0661461	C, F, C, Am,
-0.58353645	G, F, C, Am,
-0.61388373	Am, F, C, Am,
-0.5582439	D, F, C, Am,
-0.55890155	C7/B-, F, C, Am,
-0.7851905	<s> G, C, Am,
-1.55105	C, G, C, Am,
-0.8020767	F, G, C, Am,
-0.9223418	G, G, C, Am,
-0.773011	Dm7, G, C, Am,
-0.6106558	Am, G, C, Am,
-1.3053504	Dm, G, C, Am,
-0.7279685	B-, G, C, Am,
-0.24399728	D, G, C, Am,
-0.43471786	C/E, G, C, Am,
-0.2530433	<s> Am, C, Am,
-0.056171473	C, Am, C, Am,
-0.6078395	G, Am, C, Am,
-0.23773272	<s> G7, C, Am,
-1.0179808	C, G7, C, Am,
-0.5156295	F, G7, C, Am,
-0.6313686	D7, G7, C, Am,
-0.4937879	Dm7, Am/E, C, Am,
-0.29699835	Am, Dm, C, Am,
-0.1799323	C/E, Dm, C, Am,
-0.94402677	F, B-, C, Am,
-0.6450484	E, D, C, Am,
-0.28878403	D7, Gsus4, C, Am,
-0.23955785	F, C/E, C, Am,
-0.16641693	F#o7/E-, G/D, C, Am,
-1.5813721	C, F/C, C, Am,
-0.11770242	C, D-, C, Am,
-0.1302112	A-, D-, C, Am,
-0.71408457	F, Dm7/F, C, Am,
-0.16641693	Cm, Gm/B-, C, Am,
-1.690068	C, C, F, Am,
-1.8734764	F, C, F, Am,
-2.1312718	G, C, F, Am,
-0.9968003	G7, C, F, Am,
-1.7749232	C, G, F, Am,
-1.7308549	F, G, F, Am,
-0.7782132	Am, G, F, Am,
-0.64844924	Cm, G, F, Am,
-0.5280357	C, Dm7, F, Am,
-0.24763915	<s> Am, F, Am,
-1.632098	G, Am, F, Am,
-0.24763915	Am, Am, F, Am,
-0.625341	B-, Am, F, Am,
-0.17053522	E7, Am, F, Am,
-0.96185017	G, B-, F, Am,
-0.46411803	E, B-, F, Am,
-0.9024639	<s> C, G, Am,
-1.1395135	C, C, G, Am,
-1.2686185	F, C, G, Am,
-1.3770763	G, C, G, Am,
-0.5141282	Am, C, G, Am,
-0.23510809	Em, C, G, Am,
-0.64017344	<s> F, G, Am,
-1.2613723	C, F, G, Am,
-0.85236937	F, F, G, Am,
-1.0823935	G, F, G, Am,
-0.7265193	Am, F, G, Am,
-0.74673367	D, F, G, Am,
-0.8710998	C, Am, G, Am,
-0.99026346	F, Dm, G, Am,
-0.85844445	G, C, Dm7, Am,
-0.79699105	Dm7, C, Dm7, Am,
-0.6286678	Am, C, Dm7, Am,
-0.2207324	G7, C, Dm7, Am,
-0.51667583	C, Am, Dm7, Am,
-0.20429973	Dm7, Am, Dm7, Am,
-0.22876796	Am, Am, Dm7, Am,
-1.286934	G, F, Am, Am,
-0.75431365	Am, G, Am, Am,
-0.56363064	Am, Dm7, Am, Am,
-0.46643984	Am, E/G#, Am, Am,
-0.5911233	F, C, E, Am,
-0.20344415	Am7, F, E, Am,
-0.20344415	Dm7, F, E, Am,
-0.14376216	C/G, G, E, Am,
-0.1595895	F/A, G, E, Am,
-0.22847493	G7, Am, D7, Am,
-0.5650214	C, Am, G7, Am,
-0.81120247	C/G, D7, G7, Am,
-0.13341255	<s> C, Em/B, Am,
-0.13341255	F, C, Em/B, Am,
-0.07105924	G, C, Em/B, Am,
-0.2292732	Dm, C, Em/B, Am,
-0.12055173	D, C, Em/B, Am,
-0.18175341	Am, A-, Dm, Am,
-0.888703	Am, F, B-, Am,
-0.25616896	Em/B, F, B-, Am,
-0.60180014	C/G, F, D, Am,
-0.57956946	F, C, Em, Am,
-0.31472498	G, C, Em, Am,
-0.31472498	B-, C, Em, Am,
-0.79093254	Dm, F, Em, Am,
-0.22645241	E-, F, Em, Am,
-0.10993863	<s> Am, Em, Am,
-0.10993863	C, Am, Em, Am,
-0.10993863	Am, Am, Em, Am,
-0.12150133	Em, Am, Em, Am,
-0.12150133	Cm, Am, Em, Am,
-0.19469206	C, Am, Cm, Am,
-0.19148684	Cm, Am, Cm, Am,
-0.32068515	D7, G7, Cm, Am,
-1.5282359	Cm, B-, Cm, Am,
-0.32668516	Am, Cm, Cm, Am,
-0.22239484	C, Am, A-, Am,
-0.3865265	A-, Am, A-, Am,
-0.11751793	Bm7, C, G7/B, Am,
-0.2346847	C, C, G/B, Am,
-0.12162099	F, C, G/B, Am,
-0.11817977	G, C, G/B, Am,
-0.2810607	Am, C, G/B, Am,
-0.0767722	G/B, Am, E/G#, Am,
-0.0767722	E/G#, Am, E/G#, Am,
-0.17307723	Dm7, C/E, G11, Am,
-0.08260433	F, C, Em/G, Am,
-0.31016842	G7, C, E7, Am,
-0.06821987	F, G, E7, Am,
-0.103626534	C, Ddim, E7, Am,
-0.57791096	Dm7/A, C/G, Dm7/A, Am,
-1.9090744	C, F, C, E,
-0.44095784	C/G, Am7, F, E,
-1.2505965	Am, G, F, E,
-0.53800774	C, Dm7, F, E,
-0.37021655	F/A, Gm, F, E,
-0.84110254	C, G/B, Am7, E,
-1.4297098	C, Dm, G, E,
-0.23755845	F/A, C/G, G, E,
-1.3031783	C, F/A, G, E,
-2.1061168	C, F, C, D7,
-0.1841634	F, F#o7, C, D7,
-1.1765859	B-, C, F, D7,
-0.78721434	Am, Dm7, Am, D7,
-0.23766963	D7, G7, Am, D7,
-0.27151302	F, F#o7, C/G, D7,
-0.20289703	C/G, F#o7, C/G, D7,
-0.1649199	G7, B--7, A7, D7,
-0.12172464	B7, Em, E-7, D7,
-1.0323635	G7, C, C, G7,
-2.3670526	C, F, C, G7,
-2.1866832	G, F, C, G7,
-0.79205155	C7, F, C, G7,
-2.0235958	C, G, C, G7,
-0.049746443	C, F7, C, G7,
-0.53458154	G7, F7, C, G7,
-0.49161196	F, Dm7/F, C, G7,
-2.4885447	F, C, F, G7,
-1.3217922	G7, C, F, G7,
-1.3387516	C, Am, F, G7,
-0.20079605	F, G7, F, G7,
-0.70567906	C, Em, F, G7,
-0.68270874	A-, Cm, G, G7,
-1.8121325	F, C, Am, G7,
-1.9620064	G, C, Am, G7,
-1.1789665	G7, C, Am, G7,
-0.22381902	F, C, D7, G7,
-0.09117153	F#o7, C, D7, G7,
-0.077995986	<s> Am7, D7, G7,
-0.12126724	Dm7, Am, D7, G7,
-0.07239855	F#o7, C/G, D7, G7,
-0.077995986	B--7, A7, D7, G7,
-0.08585907	Em, E-7, D7, G7,
-0.84108156	C/G, D7, G7, G7,
-0.97774136	<s> C, B-, G7,
-1.1058197	C, C, B-, G7,
-0.6686824	C, F, Cm, G7,
-1.128863	Cm, F, Cm, G7,
-1.3628744	Cm, G, Cm, G7,
-0.32413048	G, A-, E-, G7,
-0.45949036	B7, Em, B7, G7,
-0.3002833	G7, Cm, A-7, G7,
-0.17047837	E-, E-, A-7, G7,
-2.5545545	C, F, C, Em/B,
-1.7603617	Am, F, C, Em/B,
-1.0584837	Dm, G, C, Em/B,
-0.266927	Am/E, Dm, C, Em/B,
-1.2958018	F, B-, C, Em/B,
-0.27363482	G, D, C, Em/B,
-1.9218353	C, C, F, Am/E,
-2.3061962	F, C, F, Am/E,
-0.41110978	Am/E, C, F, Am/E,
-1.5419872	C, F, F, Am/E,
-1.7822192	F, G, F, Am/E,
-0.28181744	Em/B, Am, F, Am/E,
-0.47007358	C, Em/B, F, Am/E,
-0.8493543	Am, C/G, F, Am/E,
-0.104270615	F, Am/E, Dm7, Am/E,
-1.59847	F, C, C, Dm,
-2.3722208	C, F, C, Dm,
-1.7198412	Am, F, C, Dm,
-0.1438288	C/E, F, C, Dm,
-1.2959087	F, G, C, Dm,
-0.96730584	G, G, C, Dm,
-0.81554866	Dm, G, C, Dm,
-1.1184433	F, Dm, C, Dm,
-0.95698315	Em, Dm, C, Dm,
-0.9951525	F, B-, C, Dm,
-0.97018677	A-, B-, C, Dm,
-1.4479086	C, F/A, C, Dm,
-1.6468803	<s> C, F, Dm,
-1.8528328	C, C, F, Dm,
-2.2294	F, C, F, Dm,
-1.958655	G, C, F, Dm,
-1.537502	C, F, F, Dm,
-1.3340799	C, G, F, Dm,
-1.701569	F, G, F, Dm,
-1.167649	C/E, G, F, Dm,
-0.27439556	F, Dm, F, Dm,
-0.23422179	Am, D/F#, F, Dm,
-0.46422893	FM9, C/E, Am7, Dm,
-0.53536963	FM9, G/B, Am7, Dm,
-1.5592835	C, F, G, Dm,
-1.4410939	C, Dm, G, Dm,
-1.0503972	F, Dm, G, Dm,
-0.3569156	G, Dm, G, Dm,
-0.37406105	C/E, Dm, G, Dm,
-0.97307885	C, C, Am, Dm,
-0.83297724	Dm, C, Am, Dm,
-0.28771037	G/D, C, Am, Dm,
-0.29505646	G, Am, Am, Dm,
-0.30758226	C, E, Am, Dm,
-0.19611233	C, G7/B, Am, Dm,
-0.1939426	C, F, D7, Dm,
-0.37700915	C, F, Am/E, Dm,
-0.08080831	Am, F, Am/E, Dm,
-0.16627595	Em/B, F, Am/E, Dm,
-0.15311888	C/G, F, Am/E, Dm,
-1.2437412	Dm, G, Dm, Dm,
-1.3527416	F, Em, Dm, Dm,
-0.39511415	Dm, Gm/D, Dm, Dm,
-0.94483924	Am, F, B-, Dm,
-0.16827194	A, Dm, A, Dm,
-0.11971024	C, B-, A, Dm,
-0.16827194	Cm, G/B, A, Dm,
-0.36377946	C, F, Em, Dm,
-0.0636465	G, F, Em, Dm,
-0.18132566	Dm, F, Em, Dm,
-0.22838044	Am9, F, Em, Dm,
-0.21289605	G, Dm, Em, Dm,
-0.21118334	Bm, A9, Em, Dm,
-1.5675763	A-, B-, Cm, Dm,
-1.0208405	B-, A-, Cm, Dm,
-0.32904577	Dm, Gm, Cm, Dm,
-0.68657744	A-, Am, A-, Dm,
-0.54732716	Am, F, C/E, Dm,
-0.3002758	Em, Dm, C/E, Dm,
-0.24671884	B-, C, Gm, Dm,
-0.16173539	Dm, Dm, Gm, Dm,
-0.44890696	Cm, Dm, Gm, Dm,
-0.54581696	Gm, Dm, Gm, Dm,
-0.17998627	Gm/D, Dm, Gm, Dm,
-0.21304658	B-, F, Cmaj7, Dm,
-0.09872016	Dm, Em, E-m, Dm,
-0.11777968	Em, Dm, C#dim, Dm,
-0.14373739	Dm, Dm, Gm/D, Dm,
-0.11139763	Cm, Dm, Gm/D, Dm,
-0.2757966	Gm/D, Dm, Gm/D, Dm,
-0.10381797	Cm, E-, Gm/D, Dm,
-0.10381797	Dm, Gm/D, Gm/D, Dm,
-0.07693503	<s> B-/F, Em7/G, Dm,
-0.08468034	Dm7, B-/F, Em7/G, Dm,
-0.15738013	A9, Dm9, Em7, Dm,
-1.101124	C, C, C, B-,
-1.5994802	G, C, C, B-,
-0.6813464	G7, C, C, B-,
-0.29876652	B-, C, C, B-,
-0.26062384	F#o7/C, C, C, B-,
-1.5605179	C, F, C, B-,
-0.44080895	B-, F, C, B-,
-1.3142706	E-, F, C, B-,
-1.4075519	Gm, F, C, B-,
-2.125504	C, G, C, B-,
-2.2739658	F, G, C, B-,
-0.7042898	F, Am, C, B-,
-1.0366949	D7, G7, C, B-,
-0.45992288	C, Dm, C, B-,
-0.2445468	Gm, Dm, C, B-,
-0.23353384	<s> B-, C, B-,
-0.35317057	C, B-, C, B-,
-0.3169562	B-, B-, C, B-,
-0.21748172	A-, B-, C, B-,
-0.7270103	E-, B-, C, B-,
-0.79375887	F, A-, C, B-,
-0.13617286	B-, F/A, C, B-,
-0.19135332	F, E-, C, B-,
-0.17170772	A-, B-m7, C, B-,
-0.22607736	Am, A-7, C, B-,
-1.7245872	F, C, F, B-,
-0.5347156	F/C, C, F, B-,
-1.7428871	C, Am, F, B-,
-0.8793829	Em/B, Am, F, B-,
-0.15362836	Em, Am, F, B-,
-0.4742836	C, Em/B, F, B-,
-0.7115099	F, B-, F, B-,
-0.68594676	E, B-, F, B-,
-1.7661045	G, C, G, B-,
-2.2184277	C, F, G, B-,
-1.063049	F, Am, G, B-,
-0.50705945	<s> Cm, G, B-,
-0.78749	G, Cm, G, B-,
-0.23033741	G/B, Am7, E, B-,
-0.23507367	F, B-, Dm, B-,
-0.67395526	Dm, A, Dm, B-,
-0.8963506	B-, C, B-, B-,
-0.7105598	C, B-, B-, B-,
-1.4677892	B-, Cm, B-, B-,
-1.5965006	A-, Cm, B-, B-,
-0.6500001	E-, Cm, B-, B-,
-0.27551976	B-/D, F, Cm, B-,
-0.56313145	C, G, Cm, B-,
-0.22501662	F, G, Cm, B-,
-0.7745326	Cm, G, Cm, B-,
-0.22501662	F/A, G, Cm, B-,
-0.16164629	B-, B-, Cm, B-,
-0.16164066	Cm, B-, Cm, B-,
-0.45260838	A-, B-, Cm, B-,
-0.16164629	E-, B-, Cm, B-,
-0.7599774	Fm, B-, Cm, B-,
-0.25914305	B-, Cm, Cm, B-,
-0.25914305	E-, Cm, Cm, B-,
-0.69040066	Gm, Cm, Cm, B-,
-0.1341105	B-, A-, Cm, B-,
-1.2341747	Cm, A-, Cm, B-,
-0.2628578	A-, A-, Cm, B-,
-0.87227446	Cm, E-, Cm, B-,
-0.24676366	E-, E-, Cm, B-,
-0.16916944	G, Gm/B-, Cm, B-,
-0.232901	F, G, A-, B-,
-0.3501158	Em, Am, A-, B-,
-0.068903364	C, B-, A-, B-,
-0.8047386	Cm, B-, A-, B-,
-0.6946664	A-, B-, A-, B-,
-0.44326022	B-, Gsus4, A-, B-,
-0.24588495	G, Cm, A-, B-,
-0.11503928	B-, Cm, A-, B-,
-0.08885564	Gsus4, Cm, A-, B-,
-1.3537556	A-, Cm, A-, B-,
-0.2953345	Ddim, Cm, A-, B-,
-0.1973492	G, C, E-, B-,
-0.35219273	B-, C, E-, B-,
-0.41757843	F, G, E-, B-,
-0.1714396	Cm, Dm, E-, B-,
-0.10730786	Cm, B-, E-, B-,
-0.6932867	A-7, Cm, E-, B-,
-0.25177458	B-, A-, E-, B-,
-0.14570864	Cm, Am7, Fm, B-,
-0.74744666	B-, Cm, Fm, B-,
-0.83798474	Fm, A-, Fm, B-,
-0.23429765	Cm, Gm, Fm, B-,
-0.3793349	Gm, Gm, Fm, B-,
-0.14570864	Cm, Gm/B-, Fm, B-,
-0.15629646	A-, F#, B, B-,
-0.2308369	CmM7/B, F/A, A-7, B-,
-0.11987918	A, Dm, Am/C, B-,
-2.2685661	C, F, C, D,
-2.370769	F, C, F, D,
-2.2630754	G, C, F, D,
-0.6169798	Am, C/G, F, D,
-2.236581	F, C, G, D,
-1.5977527	F, C, Am, D,
-0.8395489	Am, C, Am, D,
-0.4040261	B-, C, Am, D,
-1.1532422	Am, F, Am, D,
-1.5419588	F, G, Am, D,
-0.23288777	Am, G7, Am, D,
-0.24434978	G, F, E, D,
-0.3778882	C, Am, D, D,
-0.7094159	Am, D, D, D,
-0.40931264	D, D, D, D,
-0.25569063	G, E, A, D,
-0.669455	C, F, Em, D,
-0.9175831	C, F, C/E, D,
-0.23850693	Gm, A7, F, A,
-0.42177308	Gm, F, E, A,
-0.260312	Dm, G, E, A,
-0.3852155	G/B, A, Dm, A,
-0.975018	<s> C, B-, A,
-1.1035111	C, C, B-, A,
-0.28752905	G7, C, B-, A,
-0.47608006	C, G, D, A,
-0.19853458	C, Cm, G/B, A,
-0.22211915	A, Cm, G/B, A,
-0.7656325	B-, Am, F, Am
-0.6750077	Gm, F, E, Am
-1.87098	F, C, C, Gsus4,
-2.3236794	G, F, C, Gsus4,
-0.59163696	F, C, D7, Gsus4,
-0.27223676	Gsus4, A-, B-, Gsus4,
-0.8540577	Cm, A-, B-, Gsus4,
-0.8030596	A-, B-, Gsus4, Gsus4,
-0.41637275	E-, Cm, A-, Gsus4,
-0.4466209	G, C, F/C, Gsus4,
-1.1197741	F/C, C, F/C, Gsus4,
-0.14921924	<s> Cmaj7, F/C, Gsus4,
-0.16577046	C, Cmaj7, F/C, Gsus4,
-0.055869874	Gsus4, Cmaj7, F/C, Gsus4,
-0.29575482	D, C, C, Em,
-2.4952288	C, F, C, Em,
-1.9936761	G, F, C, Em,
-0.63422227	B-, G, C, Em,
-1.1855139	C, G7, C, Em,
-1.0455185	Em, Dm, C, Em,
-1.0074927	F, B-, C, Em,
-0.26217565	C, Em, C, Em,
-2.4598129	F, C, F, Em,
-2.2135727	G, C, F, Em,
-0.8575688	Dm, C, F, Em,
-1.6570265	F, G, F, Em,
-0.369548	C/E, G, F, Em,
-0.2558409	A, Dm, F, Em,
-0.2558409	Em, Dm, F, Em,
-0.2558409	Em7, Dm, F, Em,
-0.2848726	Dm9, E-, F, Em,
-0.23656572	C, Am9, F, Em,
-1.0185857	F, F, G, Em,
-2.1487894	Am, F, G, Em,
-1.7910981	F, C, Am, Em,
-0.99651587	C, G, Am, Em,
-0.257031	E/G#, Am, Am, Em,
-0.8815897	C, Em, Am, Em,
-0.7637018	Am, Em, Am, Em,
-0.30167106	B-, Cm, Am, Em,
-0.5510187	<s> C, Dm, Em,
-0.44882682	G, C, Dm, Em,
-0.4540576	F, G, Dm, Em,
-0.10650697	G, C, B7, Em,
-0.06988787	Dm7, Am, B7, Em,
-0.06988787	D7, Am, B7, Em,
-0.32528758	B7, Em, B7, Em,
-0.15787235	C, F/C, B, Em,
-0.20730513	C, Bm, A9, Em,
-0.2994062	F7, C, C, F7,
-2.5317566	C, G, C, F7,
-0.8899122	C, G7, C, F7,
-0.38896787	G7, F7, C, F7,
-0.80793077	Am, Em, Am, F7,
-0.4196301	F7, C, G7, F7,
-0.20926072	F, Cm, G7, F7,
-0.6782124	G, F, C7, F7,
-0.71910745	C, G, C7, F7,
-2.070829	C, F, C, F
-1.4146445	F, F, C, F
-1.7939893	Am, F, C, F
-2.6503973	F, G, C, F
-2.128638	F, C, G, F
-2.132084	G, C, G, F
-2.307645	C, F, G, F
-1.2983912	Em, F, G, F
-1.6207014	C, Am, G, F
-0.52803254	G, C7, G, F
-1.9072404	F, C, Am, F
-1.7715546	F, G, Am, F
-1.4952538	F, C, Gm7, F
-1.169789	C7, F, C7, F
-0.99528193	F, C, Am, C/G,
-0.70016307	C, Em/B, Am, C/G,
-0.10196069	C, Em/G, Am, C/G,
-0.28564805	C, E7, Am, C/G,
-0.5185865	C/E, Am7, Dm, C/G,
-0.5595077	<s> C, F/A, C/G,
-0.18502752	C/G, F, F#o7, C/G,
-0.09653389	E7, C/G, F#o7, C/G,
-0.057550423	F, Bm/F#, F#o7, C/G,
-0.18996057	G7/F, C/G, Bo7/A-, C/G,
-0.16436252	<s> C, E7, C/G,
-0.4339761	G7, C, E7, C/G,
-0.14173217	Em7/G, Dm, G7/F, C/G,
-0.123909146	E7/G#, Am7, Dm7/A, C/G,
-0.06988787	G11, Am, Dm7/A, C/G,
-0.07685901	E7, Am, Dm7/A, C/G,
-0.23925973	Dm7/A, C/G, Dm7/A, C/G,
-1.9735525	G, C, C, G
-2.5373607	C, F, C, G
-2.35317	C, G, C, G
-1.0610285	C, Dm7, C, G
-2.0769424	G, C, F, G
-1.8345792	C, Am, F, G
-1.339073	F, Am, F, G
-1.3118716	G, G, G, G
-1.1422997	G, C, Dm7, G
-0.4591653	E-/G, Fm, Dm7, G
-1.9014426	F, C, Am, G
-0.8381452	B-, F, Am, G
-1.5337497	G, C, Dm, G
-0.46383736	F, D7, Dm, G
-1.3338705	F, Em, Dm, G
-0.46383736	Dm, C#dim, Dm, G
-1.5862086	Cm, G, Cm, G
-0.24926561	G, G, Fm, G
-0.9855268	A-, E-, Fm, G
-0.30023593	A-, C, C, Cm,
-2.5907965	C, F, C, Cm,
-0.9560838	D, F, C, Cm,
-1.245821	G7, C, F, Cm,
-0.6101992	Gm, C, F, Cm,
