\data\
ngram 1=114
ngram 2=539

\1-grams:
-3.0330803	<unk>	0
0	<s>	-0.8047512
-1.425819	</s>	0
-1.1164863	C,	-1.4390928
-1.2234703	F,	-1.4386072
-1.7668828	Am7,	-0.5297177
-1.5491892	C	-1.4925373
-1.3298528	G,	-1.4446824
-1.6816164	Dm7,	-0.7248333
-1.3657365	Am,	-0.99329966
-2.1063309	E,	-0.41143668
-1.8730835	D7,	-0.61866224
-1.6445365	G7,	-0.8672992
-2.8180563	Em/B,	-0.7394096
-2.4622	Am/E,	-0.6686286
-1.3848552	Dm,	-0.8688172
-1.5787054	B-,	-1.058462
-1.7668828	D,	-0.5805151
-1.9378355	A,	-0.5130133
-2.4622	Am	-0.30749232
-1.8730835	Gsus4,	-0.64416385
-1.816745	Em,	-0.6918586
-2.1063309	F7,	-0.76903695
-2.0139625	F	-1.015416
-1.816745	C/G,	-0.45244476
-1.816745	G	-1.112326
-1.3657365	Cm,	-1.1021184
-1.5491892	A-,	-1.0244768
-2.1063309	B-	-0.41335607
-1.816745	C/E,	-0.64212185
-2.8180563	C/E	-0.36601827
-2.0139625	F/A,	-1.047803
-1.6816164	E-,	-0.9990561
-2.8180563	Gm7,	-1.145462
-2.2238045	B7,	-0.43837965
-1.8730835	C7,	-0.6985785
-2.4622	F#,	-0.47204617
-2.8180563	F#o7/E-,	-0.36601827
-2.8180563	G/D,	-0.36601827
-2.8180563	Bm7,	-0.30749232
-2.8180563	G7/B,	-0.30749232
-2.2238045	G/B,	-0.71438605
-1.5787054	Fm,	-0.69514686
-1.8730835	F/C,	-1.0287668
-2.8180563	E/B,	-0.36601827
-2.2238045	B,	-0.36601827
-2.8180563	E-/B-,	-0.36601827
-2.8180563	E/G#,	-0.30749232
-1.8730835	G11,	-0.7653803
-1.816745	Gm,	-0.9689065
-2.1063309	Cmaj7,	-0.5894473
-2.8180563	Bm/F#,	-0.4925373
-2.2238045	F#o7,	-0.6683408
-2.1063309	A7,	-0.47547534
-2.8180563	G#o7,	-0.19150731
-2.4622	Bo7/A-,	-0.22900811
-2.1063309	D-,	-0.44662154
-2.8180563	C/G	-0.36601827
-2.4622	A-	-0.19150731
-2.1063309	CmM7,	-0.3785653
-2.8180563	B-m7,	-0.36601827
-2.8180563	E-m,	-0.31644604
-2.4622	Em/G,	-0.36759856
-1.8730835	Cm	-0.71438605
-2.8180563	F#o7/C,	-0.36601827
-2.8180563	C#dim,	-0.30749232
-2.1063309	Dm7/F,	-0.7846472
-2.8180563	D/F#,	-0.19150731
-2.4622	Gm/B-,	-0.3416536
-2.8180563	F/A	-0.36601827
-2.8180563	Fmaj7/C,	-0.40509936
-2.8180563	A-/C,	-0.3259181
-2.8180563	A-/C	-0.36601827
-2.2238045	Gm/D,	-0.6144709
-2.8180563	Fm/C,	-0.3261382
-2.8180563	Fm/C	-0.36601827
-2.8180563	Fmaj7/A,	-0.4925373
-2.8180563	E-/G,	-0.31644604
-2.4622	G+11,	-0.918506
-2.2238045	E7,	-0.5766823
-2.8180563	E-7,	-0.30749232
-2.8180563	B--7,	-0.36601827
-2.8180563	F#dim	-0.36601827
-2.4622	B-/F,	-0.19150731
-2.8180563	Em7/G,	-0.19150731
-2.8180563	G7/F,	-0.19150731
-2.8180563	F#m7,	-0.19150731
-2.8180563	Dm7	-0.36601827
-2.8180563	Gm7/B-,	-0.31644604
-2.8180563	FmM7/A-,	-0.22900811
-2.2238045	Ddim,	-0.35603315
-2.2238045	Dm7/A,	-0.6144709
-2.8180563	E7/G#,	-0.19150731
-2.8180563	Dm7/A	-0.36601827
-2.0139625	FM9,	-0.41098097
-2.8180563	FM9	-0.36601827
-1.8730835	A-7,	-0.3975485
-2.8180563	C7/B-,	-0.31644604
-2.8180563	G7	-0.36601827
-2.8180563	B-7,	-0.36601827
-2.8180563	Gm	-0.36601827
-2.8180563	Am9,	-0.19150731
-2.8180563	Bm,	-0.19150731
-2.4622	A9,	-0.25362659
-2.4622	Dm9,	-0.3261382
-2.4622	Em7,	-0.31344092
-2.8180563	Cm/E-,	-0.61747605
-2.8180563	G-,	-0.19150731
-2.8180563	Gsus4	-0.36601827
-2.8180563	G9,	-0.31644604
-2.8180563	Am/C,	-0.30749232
-2.8180563	G11	-0.36601827
-2.8180563	CmM7/B,	-0.19150731
-2.4622	B-/D,	-0.5978892

\2-grams:
-0.013660123	C </s>
-0.27912626	Am </s>
-0.042341083	F </s>
-0.033536162	G </s>
-0.20174201	B- </s>
-0.23236842	C/E </s>
-0.23236842	C/G </s>
-0.4193952	A- </s>
-0.08926052	Cm </s>
-0.23236842	F/A </s>
-0.23236842	A-/C </s>
-0.23236842	Fm/C </s>
-0.23236842	F#dim </s>
-0.23236842	Dm7 </s>
-0.23236842	Dm7/A </s>
-0.23236842	FM9 </s>
-0.23236842	G7 </s>
-0.23236842	Gm </s>
-0.23236842	Gsus4 </s>
-0.23236842	G11 </s>
-0.24377106	<s> C,
-1.0711253	C, C,
-0.33571944	F, C,
-0.6190423	Am7, C,
-0.27169207	G, C,
-0.8350727	Dm7, C,
-0.9632931	Am, C,
-0.31714293	G7, C,
-0.77693784	Am/E, C,
-0.6728363	Dm, C,
-0.6515219	B-, C,
-0.9081393	D, C,
-0.44214076	Gsus4, C,
-1.1818328	Em, C,
-0.13969594	F7, C,
-2.097102	Cm, C,
-1.240358	A-, C,
-1.3158232	C/E, C,
-0.34952036	F/A, C,
-1.8966188	E-, C,
-0.22010481	G/D, C,
-0.53556305	Bm7, C,
-1.4418153	G/B, C,
-1.3874017	Fm, C,
-0.21791045	F/C, C,
-0.11018534	G11, C,
-1.3118207	Gm, C,
-1.1663151	F#o7, C,
-0.3917014	G#o7, C,
-0.93370545	D-, C,
-0.49802592	B-m7, C,
-0.22010481	F#o7/C, C,
-0.10714596	Dm7/F, C,
-0.82762825	Gm/B-, C,
-0.05130095	G+11, C,
-0.72698236	FmM7/A-, C,
-0.39397833	Ddim, C,
-0.65075696	FM9, C,
-1.0605143	A-7, C,
-0.86150116	A9, C,
-0.25622332	G9, C,
-1.2728288	<s> F,
-0.46318415	C, F,
-1.6415768	F, F,
-1.2827579	Am7, F,
-0.68180674	G, F,
-0.9235879	Dm7, F,
-0.3401792	Am, F,
-0.8500234	E, F,
-1.697834	G7, F,
-1.128921	Em/B, F,
-1.1297075	Dm, F,
-0.8199911	B-, F,
-0.61687183	D, F,
-0.74494314	A, F,
-1.3950423	Gsus4, F,
-0.76068157	Em, F,
-0.4090905	C/G, F,
-0.8555048	Cm, F,
-2.0198593	A-, F,
-0.5477152	C/E, F,
-0.7831699	E-, F,
-0.03835079	Gm7, F,
-0.26625615	C7, F,
-0.5800785	Gm, F,
-0.2782092	A7, F,
-0.38857415	CmM7, F,
-0.8401271	Em/G, F,
-0.40335461	D/F#, F,
-0.40335461	F#m7, F,
-0.26258236	C7/B-, F,
-0.40335461	Am9, F,
-1.3134727	B-/D, F,
-2.1669693	<s> Am7,
-2.1525452	C, Am7,
-2.25855	F, Am7,
-1.5549171	C/G, Am7,
-2.4673376	Cm, Am7,
-1.4585313	C/E, Am7,
-0.61137205	G/B, Am7,
-0.43463838	E7/G#, Am7,
-0.698022	FM9, Am7,
-2.5401344	C, C
-2.1468267	F, C
-1.7488457	Am7, C
-1.7608418	G, C
-1.917198	Dm7, C
-2.2785118	Am, C
-1.5500168	G7, C
-2.2708974	B-, C
-1.7203233	D, C
-1.6697181	Gsus4, C
-1.6349506	F7, C
-1.8952402	Fm, C
-1.8007522	F/C, C
-2.1198065	Gm, C
-1.4186682	Dm7/F, C
-1.2897251	<s> G,
-0.722151	C, G,
-0.58819485	F, G,
-1.5963001	G, G,
-0.46473053	Dm7, G,
-0.88449395	Am, G,
-0.44141385	Dm, G,
-1.9070599	B-, G,
-0.6619475	D, G,
-1.6567807	Em, G,
-1.3904256	F7, G,
-1.4292482	C/G, G,
-1.1032939	Cm, G,
-1.6973357	A-, G,
-0.71939415	C/E, G,
-0.3521105	F/A, G,
-1.525975	E-, G,
-0.74965215	C7, G,
-0.22390024	F#, G,
-0.5579255	Bm7, G,
-0.63353235	Fm, G,
-0.22941695	E-/B-, G,
-0.5158583	B-m7, G,
-0.15905128	Fmaj7/A, G,
-0.5301019	FmM7/A-, G,
-2.1313634	<s> Dm7,
-1.8980795	C, Dm7,
-2.8518543	F, Dm7,
-1.6202201	Am7, Dm7,
-1.8110586	G, Dm7,
-1.8702765	Am, Dm7,
-0.8091202	Am/E, Dm7,
-2.562162	Cm, Dm7,
-0.9575666	C/E, Dm7,
-1.7765585	Fm, Dm7,
-0.44968292	Em7, Dm7,
-1.8384811	<s> Am,
-1.0498763	C, Am,
-1.5874753	F, Am,
-1.2032225	G, Am,
-1.0348862	Dm7, Am,
-1.869671	Am, Am,
-0.53967714	E, Am,
-1.3767076	D7, Am,
-1.7499244	G7, Am,
-0.117925964	Em/B, Am,
-2.0796268	Dm, Am,
-2.1767523	B-, Am,
-1.479529	D, Am,
-0.7388357	Em, Am,
-1.5748527	Cm, Am,
-2.0869167	A-, Am,
-0.27686772	G7/B, Am,
-0.29267663	G/B, Am,
-0.27686772	E/G#, Am,
-1.5203711	G11, Am,
-0.327281	Em/G, Am,
-0.18434113	E7, Am,
-1.0221373	Dm7/A, Am,
-2.5855932	C, E,
-2.237925	F, E,
-1.6959202	Am7, E,
-2.5561204	G, E,
-2.6302054	C, D7,
-2.9574687	F, D7,
-1.8713745	Am7, D7,
-2.4394343	Am, D7,
-1.3282208	C/G, D7,
-1.2116135	A7, D7,
-0.28905115	E-7, D7,
-1.9467003	<s> G7,
-1.8513807	C, G7,
-2.1593518	F, G7,
-2.7734735	G, G7,
-2.3278236	Am, G7,
-0.20729946	D7, G7,
-2.0097873	G7, G7,
-2.3122263	B-, G7,
-2.016894	Cm, G7,
-2.1369383	E-, G7,
-0.86931825	B7, G7,
-0.6286115	A-7, G7,
-2.189024	C, Em/B,
-1.9324425	F, Am/E,
-1.3089232	Dm7, Am/E,
-1.975139	<s> Dm,
-1.5978508	C, Dm,
-1.8643895	F, Dm,
-1.3309655	Am7, Dm,
-1.7909278	G, Dm,
-1.6520839	Am, Dm,
-1.1785163	D7, Dm,
-0.30723587	Am/E, Dm,
-1.6303049	Dm, Dm,
-2.1874633	B-, Dm,
-0.35914627	A, Dm,
-0.4977315	Em, Dm,
-1.6454409	Cm, Dm,
-2.2156115	A-, Dm,
-1.0000391	C/E, Dm,
-1.2147677	Gm, Dm,
-1.0865777	Cmaj7, Dm,
-0.26975888	E-m, Dm,
-0.27761927	C#dim, Dm,
-0.16590083	Gm/D, Dm,
-0.41668028	Em7/G, Dm,
-0.7231721	Em7, Dm,
-1.9397159	<s> B-,
-1.3274654	C, B-,
-1.8083074	F, B-,
-1.9678504	G, B-,
-1.2892587	E, B-,
-1.7687281	Dm, B-,
-1.4568412	B-, B-,
-0.70251673	Cm, B-,
-0.7013311	A-, B-,
-0.8489275	E-, B-,
-0.97902	Fm, B-,
-0.69639826	B, B-,
-1.1549487	A-7, B-,
-0.2836788	Am/C, B-,
-2.8051713	C, D,
-2.2132595	F, D,
-2.841618	G, D,
-1.5080582	Am, D,
-1.0643001	E, D,
-0.89154965	D, D,
-1.2316707	A, D,
-1.795732	Em, D,
-1.9066045	C/E, D,
-2.7760653	F, A,
-1.0753071	E, A,
-2.203934	Dm, A,
-2.180293	B-, A,
-1.8340521	D, A,
-1.6266785	G/B, A,
-3.3271587	F, Am
-1.6337408	E, Am
-2.0244238	<s> Gsus4,
-3.022248	C, Gsus4,
-1.2247605	D7, Gsus4,
-1.9147079	B-, Gsus4,
-1.744106	Gsus4, Gsus4,
-2.2691827	A-, Gsus4,
-0.5818651	F/C, Gsus4,
-2.1033316	C, Em,
-1.8560159	F, Em,
-2.862195	G, Em,
-1.659865	Am, Em,
-1.1953691	Dm, Em,
-0.28880376	B7, Em,
-0.7068684	B, Em,
-0.72863364	A9, Em,
-2.273062	C, F7,
-2.512823	Am, F7,
-0.92252225	G7, F7,
-1.2287059	C7, F7,
-2.4465897	C, F
-2.3494089	G, F
-2.4869576	Am, F
-1.745934	Gm7, F
-1.7506138	C7, F
-1.3998809	Am, C/G,
-2.3409896	Dm, C/G,
-2.1178083	F/A, C/G,
-0.13259958	F#o7, C/G,
-0.55840355	Bo7/A-, C/G,
-1.0164026	E7, C/G,
-0.43605098	G7/F, C/G,
-0.16993515	Dm7/A, C/G,
-2.6178706	C, G
-2.4403293	F, G
-2.9951992	G, G
-1.8252379	Dm7, G
-2.4174905	Am, G
-1.9530933	Dm, G
-2.6381607	Cm, G
-1.8067394	Fm, G
-0.96373874	<s> Cm,
-2.6871526	C, Cm,
-1.6191444	F, Cm,
-1.5282017	Am7, Cm,
-1.4270641	G, Cm,
-1.6946864	Dm7, Cm,
-1.6484267	Am, Cm,
-0.6847268	G7, Cm,
-0.63137186	B-, Cm,
-1.1763333	A, Cm,
-0.77081794	Gsus4, Cm,
-1.397096	Cm, Cm,
-0.30060118	A-, Cm,
-0.682704	E-, Cm,
-1.3317066	Fm, Cm,
-0.32865533	Gm, Cm,
-0.93594986	A7, Cm,
-0.8744723	Gm/B-, Cm,
-0.36222076	A-/C, Cm,
-0.4454066	Fm/C, Cm,
-0.9346931	Ddim, Cm,
-0.613779	A-7, Cm,
-0.4342494	B-/D, Cm,
-1.9288586	<s> A-,
-2.8904097	C, A-,
-1.789888	F, A-,
-2.0358508	G, A-,
-1.7831258	Am, A-,
-0.73580194	B-, A-,
-1.7203233	D, A-,
-1.480023	Gsus4, A-,
-0.8757066	Cm, A-,
-2.182311	A-, A-,
-0.64599276	E-, A-,
-1.0934905	Fm, A-,
-0.858061	CmM7, A-,
-0.89540976	A-/C, A-,
-0.43869433	B-/D, A-,
-3.2639942	C, B-
-2.765995	Cm, B-
-2.3332112	A-, B-
-2.4432392	E-, B-
-2.6178706	C, C/E,
-1.6494437	F, C/E,
-2.848275	G, C/E,
-2.0153275	Dm7, C/E,
-1.759448	Am, C/E,
-1.9530933	Dm, C/E,
-1.729968	C/E, C/E,
-0.9809718	FM9, C/E,
-3.397371	F, C/E
-1.5713483	C, F/A,
-1.9927385	G, F/A,
-1.5119482	B-, F/A,
-2.73034	Cm, F/A,
-0.44031674	CmM7/B, F/A,
-2.0923152	C, E-,
-1.4905877	F, E-,
-2.3915718	G, E-,
-1.6011696	Dm, E-,
-1.5370796	B-, E-,
-0.91717774	Cm, E-,
-1.1015007	A-, E-,
-1.6529955	E-, E-,
-1.526479	Fm, E-,
-0.699723	Dm9, E-,
-0.117053956	Cm/E-, E-,
-1.8470086	C, Gm7,
-3.1674573	C, B7,
-2.5403273	Am, B7,
-1.5724039	Em, B7,
-2.006496	<s> C7,
-3.1266696	C, C7,
-1.9652442	F, C7,
-2.52595	G, C7,
-1.8614899	G7, C7,
-1.1608628	F7, C7,
-1.5104731	C7, C7,
-2.4640298	G, F#,
-2.599215	A-, F#,
-2.05323	C/E, F#o7/E-,
-0.2440139	F#o7/E-, G/D,
-2.0322886	Dm, Bm7,
-3.2856305	C, G7/B,
-1.7550555	C, G/B,
-2.0809958	Cm, G/B,
-0.9962036	FM9, G/B,
-2.082894	<s> Fm,
-2.8469238	C, Fm,
-1.7624002	Am7, Fm,
-2.1241472	G, Fm,
-2.3050084	Am, Fm,
-1.5411758	D, Fm,
-1.2664614	Cm, Fm,
-1.5877287	A-, Fm,
-1.4243202	E-, Fm,
-1.3625911	Gm, Fm,
-0.89993626	Gm/B-, Fm,
-0.6940468	Fm/C, Fm,
-0.27558672	E-/G, Fm,
-0.42764327	G-, Fm,
-2.205757	<s> F/C,
-1.591778	C, F/C,
-3.024809	G, F/C,
-2.5788684	Am, F/C,
-1.5507774	F/C, F/C,
-0.17084827	Cmaj7, F/C,
-0.82310456	Bo7/A-, F/C,
-3.5016866	C, E/B,
-1.0789884	F#, B,
-2.099359	F/C, B,
-0.24255617	E/B, B,
-0.7201392	B, E-/B-,
-2.614453	Am, E/G#,
-0.7650157	Am7, G11,
-3.024809	G, G11,
-1.2926568	Dm7, G11,
-2.5788684	Am, G11,
-1.5758151	C/G, G11,
-1.9372921	C/E, G11,
-2.0117407	Fm, G11,
-1.8059155	C, Gm,
-2.1766346	F, Gm,
-1.3350923	Dm, Gm,
-1.1757169	Cm, Gm,
-1.8820171	F/A, Gm,
-0.5598108	Fm, Gm,
-2.0107152	Gm, Gm,
-0.23953488	B-7, Gm,
-2.271325	<s> Cmaj7,
-3.1263568	C, Cmaj7,
-3.0298975	F, Cmaj7,
-0.726253	Gsus4, Cmaj7,
-2.5982735	F, Bm/F#,
-2.8321047	F, F#o7,
-1.8623391	C/G, F#o7,
-0.16735509	Bm/F#, F#o7,
-1.6091778	C/G, A7,
-1.7594776	Gm, A7,
-0.6850408	Gm/B-, A7,
-0.24195023	B--7, A7,
-3.1526062	F, G#o7,
-3.3271587	F, Bo7/A-,
-1.6373521	C/G, Bo7/A-,
-3.2639942	C, D-,
-2.683633	Am, D-,
-1.9103988	Cm, D-,
-2.3332112	A-, D-,
-1.3187472	D-, C/G
-3.3271587	F, A-
-2.516533	B-, A-
-2.8126104	F, CmM7,
-2.258877	Dm, CmM7,
-2.53309	A-, CmM7,
-1.1280733	CmM7, CmM7,
-2.3929029	A-, B-m7,
-1.5873456	Em, E-m,
-2.7030478	C, Em/G,
-2.560843	Am, Em/G,
-2.9574687	F, Cm
-3.024809	G, Cm
-2.4074519	B-, Cm
-2.666767	Cm, Cm
-2.2865953	A-, Cm
-2.2222278	Gm, Cm
-1.4317874	A-7, Cm
-3.2856815	G, F#o7/C,
-2.3319502	Dm, C#dim,
-2.6694615	C, Dm7/F,
-2.8126104	F, Dm7/F,
-2.0034883	Am, Dm7/F,
-1.4586098	Dm7/F, Dm7/F,
-2.59296	Am, D/F#,
-3.2311466	G, Gm/B-,
-2.3713064	Cm, Gm/B-,
-2.7767498	B-, F/A
-2.0998178	Cm, Fmaj7/C,
-0.29054096	Fmaj7/C, A-/C,
-1.0199355	Fmaj7/C, A-/C
-1.5617799	Dm, Gm/D,
-2.2500923	E-, Gm/D,
-1.0654241	Gm/D, Gm/D,
-2.6620646	Cm, Fm/C,
-2.9152973	Cm, Fm/C
-2.7187152	C, Fmaj7/A,
-2.091286	A-, E-/G,
-2.3309095	<s> G+11,
-2.2157197	C, G+11,
-2.9351232	C, E7,
-2.5666618	G, E7,
-1.0228113	Ddim, E7,
-1.8915327	Em, E-7,
-2.1607566	G7, B--7,
-3.5016866	C, F#dim
-2.3309095	<s> B-/F,
-1.8951486	Dm7, B-/F,
-0.44664988	B-/F, Em7/G,
-2.310023	Dm, G7/F,
-1.6503726	C/G, F#m7,
-2.05323	C/E, Dm7
-2.387167	Cm, Gm7/B-,
-0.28552708	Gm7/B-, FmM7/A-,
-2.2955823	<s> Ddim,
-2.5250404	C, Ddim,
-2.4861572	B-, Ddim,
-1.7078979	Am7, Dm7/A,
-2.522137	Am, Dm7/A,
-1.0697465	C/G, Dm7/A,
-1.3660179	G11, E7/G#,
-1.9151133	C/G, Dm7/A
-2.2483513	<s> FM9,
-2.756436	C, FM9,
-0.8124168	Am7, FM9,
-2.9305139	G, FM9,
-1.7606155	C/E, FM9,
-1.5573823	FM9, FM9
-2.205757	<s> A-7,
-3.1266696	C, A-7,
-2.9445422	F, A-7,
-2.5788684	Am, A-7,
-1.9662435	Cm, A-7,
-1.8875529	F/A, A-7,
-2.196137	E-, A-7,
-2.3192031	Am, C7/B-,
-3.397371	F, G7
-2.360007	<s> B-7,
-2.9152973	Cm, Gm
-3.2651064	C, Am9,
-3.2651064	C, Bm,
-1.8567313	Em, A9,
-0.4451446	Bm, A9,
-2.4996262	E-, Dm9,
-0.7668714	A9, Dm9,
-2.9708939	C, Em7,
-0.46866843	Dm9, Em7,
-0.29554403	D-, Cm/E-,
-2.5194042	B-, G-,
-3.5016866	C, Gsus4
-3.000385	C, G9,
-2.3319502	Dm, Am/C,
-2.1508172	Dm7, G11
-1.6637719	G/B, CmM7/B,
-2.863954	Cm, B-/D,
-1.1549146	E-, B-/D,

\end\
